{"layers": [784, 30, 10], "weights": [[[-1.0938188161403029, -3.0426677330466902, 1.105230392305457, 1.1563155425919263, -0.7370274401900361, -0.2328164390376408, 1.4064433727774976, 1.3813843076235794, 0.2048609058901957, 1.061202591717674, 2.2150707350827656, 0.3523458103486059, 1.790772986581467, -0.12779894707718248, -0.7572648222728604, -2.1473373249420358, -1.151898645908546, 1.4116628177038821, 0.14263980154803563, 0.6747163367283935, -1.3842049829140834, 0.4942493340660181, -0.11525064726578513, -0.032513598689303966, -0.08611165485877824, -0.33122277652083365, -0.27614783984959884, -1.4312504282937115, -1.1249890535488436, -0.1113355553665229, 0.265221784093689, 0.5111690430630287, -0.002428145176983326, -2.009426045692653, 0.24627073263828764, -1.605649294759328, 1.9739806623647995, -0.2459173053857189, 0.2497513845673746, -0.3323967742547489, 2.602944874201093, 0.7536174697060078, -0.39123356226715, 2.004253315499538, 1.209028296521692, -0.20257038533623847, -0.1085234363486986, -0.34547999728629, -0.5441738283559419, -0.6809550214535945, 1.190329864890801, -0.6249419422255716, -2.4996644747832426, -2.1428470783174824, 1.259837921908101, 1.2803484498045081, 1.3673795883625717, 0.1380758230270539, 0.5525875568665833, 2.238551938450344, 0.28815328225932774, 0.7156723816409299, -0.8060487524249216, -1.9031509104481483, -1.6509595164081814, 1.6982946160686159, 1.5544653632444376, 0.9291794312332101, -1.310258357572475, -1.0944949957730452, 1.6226385519974302, -1.159759103583938, -0.548804259487178, 1.1164835975011762, 1.3057120329118197, -0.8697890559869207, 1.4258817214452233, -0.8945877547907621, 0.731941364409254, 0.6949486363666282, 0.12330547376447439, -0.5719209646139842, 0.1497814278383177, 0.42561823839523616, -0.604318322662992, 0.23382090832141314, 0.16720772100216866, -1.3348640426395875, 0.022260873847352796, 0.6759007445070172, 0.7184100397742609, -0.08565131730850138, 0.35871877781102585, 1.029392961120522, 0.13102824977757427, 1.0199277326660934, 0.16987508677294963, 0.7645611183400745, 0.9134813313336189, -0.4945122476268896, 1.8808604175965278, 0.16328450644744896, 0.8954659457335252, -1.1399402890173291, 0.1153595883619255, 0.6103464914111537, -0.8668106223418499, -0.6625146032415326, 0.3713870222184465, -2.079955161817187, -0.5473128659119899, 1.446129780498201, 0.927212659850082, 0.3287011211392401, -0.36820701926187677, -1.666724512382285, 0.3636650280258981, -1.8482437170243822, 1.8621307417393753, 0.5714314550154165, 2.61020214583112, -1.1912027343785425, 0.34798614632334085, -0.531141188603172, -0.0850027551399451, -0.6416216014715825, -1.8358304064716424, 0.3737932125767016, -0.4585393845959152, -0.5908849417656523, 0.006758993758117481, -1.690327529923805, -0.5152235940703163, -0.3197971199215691, -0.6226000607001728, -1.91024840882088, -1.636615342363317, -0.12346696345204723, 0.4616496092642336, 0.5508616637940079, 0.9010115187770785, 1.0532449312089485, -0.3476493761047805, -1.122641434495998, 0.7007683427728406, -0.13144012013407824, 0.10894305612212797, -0.8558620484525814, 0.5782867339067747, 1.7140878835456026, 0.25502047830997665, -0.13114768944625554, 1.6358590674576923, -0.004007628741875229, 2.4948820650889543, -0.33160285487436, 0.6986040085039718, -0.21009175600581056, -0.2607666926579053, -0.3807853601704482, 1.274204589589484, 1.0689804343173068, 1.029026892376914, 0.9833539601664095, 1.787217768736096, -0.27288809174209117, -0.1168754752780685, -0.7493401461851755, 1.2189460795380844, 0.19237676987671704, 0.13456057388617865, 0.7108969442902225, -2.016762492877478, -0.8868126985918381, -0.707878193905687, -0.5080839167140928, -1.1089059248962718, -0.5968549537298394, 1.915361194569736, 0.6752407392732055, -0.1268573340256099, -0.5421813719381567, 3.3416771626552983, 0.5172491553225257, 0.19667976747762012, 0.8328420295980502, -0.834531410515159, -0.25168656600886685, -0.6196467447804117, 0.21846808032567328, -0.4583947563855335, 0.7108018360688086, -1.5239217386306805, -0.7421457580022368, -0.7275513946486483, 2.0150369494180476, -1.067104160864589, -0.8174488959378675, -0.05487178258688893, 1.4783149307843404, 1.3766133067058417, -0.5305851109974746, 0.14695828183644186, 0.9812968839782523, -0.11642653306309429, 0.9018958418061341, -0.050348168095124046, -0.6767760281598846, 0.528763528129861, 1.5060141198178316, 0.39380784220243137, 0.014646778354157099, -0.9259500918601393, -0.9697187930933207, -0.5864820615866563, 3.124580944630484, 0.5746279040575488, 0.6272668018254969, -1.6569014344907014, -1.053519507714857, -1.4460096310212076, 1.5309556371415465, 1.3890902033440966, 0.6523916571634952, 0.6595556735247174, 1.5893447879940674, 0.7191024805940041, 0.1337280059463516, -1.1890065950438735, -0.08053656345983387, -0.9598787352407007, -1.3336193202223443, 2.017368239644301, -0.391363232110186, 0.6971425503044394, -0.522662846044275, 0.48895401405895916, 0.14242740809330293, -1.390319725253975, -1.070840396506611, -0.15576733813976842, -0.10862866499712194, -0.3121456283923048, 1.1965999748141594, 0.657044553908687, 1.0303328452598692, 0.7492470457969378, 0.8879693407587055, -1.3711412269879353, -0.146816305201373, -0.2718621285485611, 2.1206760025347484, -0.26647842912269465, 0.5569401847495163, 0.834444370438923, 0.28754542085137147, 0.5337823370627426, -0.23783517275978075, 1.4662215753428232, -0.9239075650261692, 0.24391502436579512, 1.560803527157353, -1.1965974210058077, 2.0766729804709834, 0.9342759917840323, 1.2297738727430851, 0.8532866979160748, 1.733396573863019, 1.223121695927919, -0.7036588809967319, 0.9435231634141025, -0.6029464004857312, -0.23396213776134864, 1.6610252449573262, -0.5018900375871349, 0.011477295165757661, -1.1064590295633812, -0.9655923985909561, -2.444074768459422, -0.10222550166579077, 0.672900279087865, -0.15813840748140856, -1.119935528021735, 1.005466321219086, 0.03367645283336993, 0.856915824305408, 0.6685070498511181, 0.5352683689736989, 0.34191769340665146, -1.3017098841022465, -0.8062365774349143, 0.9455749550890551, 1.5789727986862758, 0.5591177065030678, 0.41738651242167946, 1.0633123156973825, -0.02679028459147984, 1.7581933930675941, -0.662818054765725, -0.18360044829141042, 0.33718103691066575, 0.6224587399912438, -1.280367748841665, 0.8729471845704039, -0.389968065565246, 1.6289984740407788, 0.8085894014701182, 0.02051421000059249, 1.2315723121730036, -0.08546915012387694, -0.5210078865203219, -0.08677447125526573, -0.09142513853457175, 0.5600649729059385, 1.5351098817844104, 0.6160835222128559, -1.0454309581116414, 0.1604308373971319, 0.7600582231869892, 1.5461213523780148, -0.27013725741231653, 0.2938584500086162, 0.28505713782182845, 0.8348140483097347, 0.46908560564134216, 0.47682695574044287, -1.3634302596622072, -0.07973220686604074, -0.756269444500113, -0.7928758217842693, -0.6467070314473766, 0.27563983529414987, -0.8809746871708404, 1.231078680351271, -1.0329305376521005, 0.4186483626887548, -0.6282499112441121, 1.2236831795264154, 0.023490670859464036, 0.07739714705846468, 1.026041999935195, -0.15266851122216074, -0.0826530243178521, 0.5031981745471039, -1.0194632453365304, 0.8950416874220372, 1.087212407764114, 0.41381045100068026, 1.806338028281044, -0.6430591993329955, 1.4678991426419452, 1.5811917681632461, -1.3073732312708903, 0.031078142758335297, -1.072084626683213, 0.7265094975494458, 0.34833049271855054, 2.237688331686372, -0.3408599766515475, 0.48616082778275843, -0.3723400692675057, -0.35701230426476327, -0.6817514297919589, -0.6676988179453167, 0.46140912249948013, 0.3751334827268487, -0.26369978555394946, -0.975544861319245, -1.232255525787529, -0.48062782136805704, -0.46456699368706833, 2.1873722465540593, -0.7926960278549532, 1.1237673203893082, 0.4704765739945241, -1.829000059163957, 0.466275405407603, -1.3923955927936729, 0.617294720643994, 0.29395028619844077, 0.23095477637214415, 1.8997617831732991, 1.1660398362489441, 1.199346125651532, 0.04134133074294186, -0.9923206447026689, -0.028698666194592645, -0.6298498105946607, 0.04711819952826022, -1.1298006361444906, -1.4779969828073405, 0.836112501286418, -0.4196628859394486, -0.5113454937127659, 1.923468722936895, -0.6989464796656948, -0.41357067869598924, 1.5604555194494618, 1.210753434854184, -0.8828995779209143, -1.2870888477078937, 0.4408085499653561, 1.104829170576435, 0.6056311460357314, 1.3498172213384434, -0.2955954453053659, -0.6133622286109607, 1.6316856402672295, 1.2971014746849583, 1.1806808603158767, 0.5421784114613544, 0.547724948194102, -0.35097924785429585, -1.7887194725924487, 0.06974793226973701, -0.2868138138767991, 0.5212205007801589, -0.673726990775168, -0.3123169500726924, -0.953235357510741, -0.8262095108239799, -0.7546120177416428, -1.5397374858267359, -1.258372997982968, -0.681001183798858, -1.6609249928006449, -0.17337028067979715, -0.0834292099721271, 0.42645590556142027, 2.210103018023005, -0.3867515533180338, 0.4408324216900805, 1.460701057225234, -0.5549751391964318, -1.641316065267837, 0.44174244527541484, -0.7162152357728929, -0.0717365600134185, -0.01673661035204319, -0.4418027918003315, -0.4879256331779411, 1.2097627525956585, 0.019553330232516992, 1.5039909038045907, -0.7968611872159698, 0.29139624365805544, -0.2607296053416204, -1.5179826806152568, 0.13423841972225897, -0.5715002046298364, -0.41338490175589016, 1.336819035857595, -1.5157706169252088, -0.2616499837458968, 2.3630697985248443, 1.182203829787992, -0.42068679928064306, 1.8853995178383771, -0.6391971758439794, -0.8236541048484447, 1.1247531882827124, 1.060519942361831, 0.36483103116045335, 2.1428204724654627, 0.0730831185054361, 1.0925745666687436, 1.0697019173195057, -0.4570896556372058, -1.3182573831458413, -0.21276272571220983, 0.042776760410915424, 0.46062238798332056, -0.611571303619899, 1.260344630556039, -2.0581555680226056, 1.4932928250257549, -0.6523980063119588, 0.4802220916447427, 0.3619433177343614, -1.4471980244685771, -0.21606743710707202, -1.9139859845117237, 1.432239684309699, 0.5878825621516525, -0.20915369271497758, 1.3192148911470696, 0.8798863096980417, -0.5556404172340177, 0.9466338000125271, 1.5925983924697167, -0.8104807865880715, 0.9757742693320428, 0.18170481161509397, 0.9713870279137246, 0.7733517090668051, -0.4087546403800535, -0.302011392355212, 0.8440421354934319, -0.1655427551953701, -2.0014409386412937, 0.3412744675116971, -1.3238744284279087, 0.028752673920581312, 1.4718554507193327, -0.7401486195448961, -0.19200125700840445, 0.4882461251780665, 0.42960668531684426, 1.2665899028475434, -1.0095420826993442, 0.31008542995292165, -0.8297983862710061, 0.08239970179515033, 0.9934930771820696, -1.268892073450362, -1.6614551873994587, -0.06733049863198619, 0.1170966279702721, 1.4524147218472432, -0.06033693109445789, 0.7887163087646037, 1.5032210110797062, -1.0349351930217003, 0.37737709746970327, 0.46929806341770475, -1.50399922313218, -0.12074491373051344, 0.15137176645944148, 1.3101765517096067, -0.15115268741167603, -0.72554489562365, 0.7394716476088518, 1.557831469521289, 0.0600548180946452, 0.03638406661074406, -0.7614928379089896, 1.397702274557464, -0.15513789515704884, 1.4219762224043666, 0.2930502122150652, -0.33753308156979883, 0.6517923628625161, 0.03620320491965711, 1.9221997705314122, 0.07574020119478365, -0.23238670187291227, -1.3077267774752332, 0.4144771791452935, 0.5441872697284975, -0.0658958104306249, -0.9866876373013417, 0.7409902240753318, 0.8621964890229629, 1.1747146696401205, -0.8387742609401004, 1.040318313091197, 0.7083525699962353, -1.0735599834253289, 0.5987810756169276, -2.323565915658372, -2.2887461996592493, 0.41312336244256487, 0.2491318804304305, -1.0326848731548235, 0.6907791094128122, 0.7826525709745089, 0.11066251403485898, 0.9717256880767839, -0.1740472881975209, -1.655108178668007, 1.3226874346486246, -0.7300330657653894, 0.5548808481436219, 0.008662245069988011, 2.6865563623337074, -0.6926608152535416, 0.9805155973472941, -0.7184289671502174, 1.2583132162265878, 0.38331097707879, -0.02408082798354749, 0.46605114051968927, -0.5475577006821595, -0.04100402313938503, -0.3166093540451579, 0.04336623684319861, -0.33080589146484, 0.81367085624476, 0.2554181153493416, -0.5947636031470067, -1.2756027575472833, 2.1342114393197056, -0.5282299863755027, 0.5330983420831525, -1.0827092502990423, 0.337227781693187, -0.7017420531518551, 1.3324571529626998, 0.320369537325838, 0.2916533828680726, -0.333893147930785, 0.07149086020686729, 0.30728005528502894, 1.8322439861141666, 0.674415376949569, 0.6728934917748509, 0.2647018158101148, -0.7286492069019208, 0.31884121628388734, 0.6208987599269927, 1.6823539738263689, -1.801848879209919, 0.741079504672798, 0.8186151481379755, -0.7268697034898669, -0.5632793517916131, 0.7359405851512021, 0.002092534866078975, 0.6805896772604025, 0.11993693167720652, -0.09549280894924708, -0.6836558562388905, -0.4505089183992437, 0.20377839052811314, -0.2321126356723341, 0.33470551554819683, -0.8548725157074053, 2.8937137600578717, 1.4835233756465833, -1.2521055578286509, 1.324467332129059, -2.565947012706817, -0.4484537603882329, -0.49919616375920733, -1.6189345219563136, 1.0082401708727775, 0.7226899119285938, 0.3504809620207669, -0.21503904235265114, 0.22417736820875653, 0.8251315992824475, 0.4957705999588226, 0.079339101595484, 0.06244195528295548, -0.9644012671040897, -0.3156203685724662, 0.12553181591463844, 0.7481165266685217, -0.10955272191186038, -0.5007418124691934, -0.9171073957334216, -0.43124472506386796, 1.1289613966128975, -1.3911853588664813, -0.32874757874414384, -0.5592592451687597, -0.05738160512385173, 1.587940307430002, 1.2194905088970134, -0.7994949536031793, -0.40482431320539897, -0.38186454924803653, 1.5222460592353233, 1.0880593917946322, -1.0747489195520774, -0.2158286609893651, -1.344013863470634, 0.4373529147237428, -0.40470523640856915, 0.28765763357665153, 0.786498089915793, -1.2776562189402607, -0.3751169585420908, 0.28361707790012, -1.6939491092123113, 0.5153539797731944, -0.33238790089053094, -2.3623037593442735, 0.1523022804712402, -0.35714665766299447, -0.5241015703563966, 2.0480022412160723, -1.1383119541186235, -0.10672128418547361, 1.805324769813408, 1.6568709791926268, 2.2586384995168136, -0.36187521628861924, 1.2602341858702746, -0.07075768281970751, 0.5219625216602095, 0.09330424440444261, 0.2679550712481771, -1.0895182760468118, -1.2818148522473611, -0.2627973165690273, 0.9051639867753695, 0.8710433058968502, -1.3085944510731682, 0.836396811022637, -1.3628835659447367, -0.5806415653654622, -0.34162850208547857, -0.4547471082533621, 0.23206009338472391, -0.21626536574617242, 0.7712843858596719, -0.6647140044759269, 0.9017316063429222, 0.678797821138826, 1.1139560346244677, -2.687878423518796, 0.35049224176731436, 0.802554773036431, -0.11046934782562982, -1.4672519777408761, 0.11891873789983447, 0.42941216472116184, 0.4730306247714213, -0.2965602972153985, -1.731927656369953, 1.2747047456565617, -0.2997203419586731, 0.8481930683125143, -1.1182761235150256, 0.16054805270965353, -1.180605485696777, 1.7340919316971708, -1.2546548528035664, 0.9307124936879326, -0.23008925247144146, -0.41020262687251996, -0.25061138918304765, -0.7407664700338985, 0.7267785835953672, -1.8887508824116053, 0.8262729870968214, -0.7525577164902931, 0.4169245509649742, 1.9540120335810152, -0.2650364807890345, 2.3054151491635464, 0.6503489342335596, -0.20597301555374253, -0.415175210412197, -0.1367141758847856, -0.9862503076407976, -2.0911957294254213, 1.5199393839973423, 1.9459377395184287, -0.1310065336680269, -1.5834472894902438, 1.9155635794232593, 2.184307492107566, 1.5061175897095873, 0.6530990269946744, -1.0701805108127544, -0.06357390228846799, -0.25640411588590906, -0.3060085508497053, -0.5753721133038409, -0.21269183710872813, -0.10683643776091073, -1.1494973977153278, 0.3163558514597525, 2.5520587884188917, -2.0051951399800068, -1.0238430180996176, -0.7982014829975355, -0.6281952294730144, 0.046809561274592536, 2.476793084433847, 0.5435344185677791, -0.16196080675117638, -1.5659524720182063, -0.0424555619458035, -0.437178859776396, -0.7662503421187854, -0.35676079221335977, 0.7395514484303842, -0.26561783579906, -0.6396316360913045, 0.6108819901877014, 0.5863740385715502], [-1.744896691561402, -0.6584365052584659, -0.8694372500058674, 1.0352182684902738, 1.1041761072346157, 1.2305135188743308, 0.9568722409597784, -0.46787732904032364, 0.02111876761559852, 0.014062312556560272, -0.912055511051569, 1.3238158800836957, 0.08772549410504553, 0.05507419334536577, 0.30226067936565043, -1.2500960263755143, -1.0542991189897237, 1.8173804510432803, -0.2880433065858089, -0.3984940858282149, 0.45471960738671807, 0.23485288852821398, -1.0162182496872874, -1.7501046971618128, -0.846156156923165, -0.21131016212623535, -0.07128378370346798, -1.5995108837918723, -0.6955310689669728, 0.6246758984310908, 0.5546303011753564, -0.24500562715960864, -1.4494482951647818, 0.016479778154722655, -0.35309773698916913, 0.9616503715647499, 1.7396020148119138, -1.0518025036178456, 1.2331733386659245, -0.4098938236137089, 0.5229586785111083, -2.2291995722924183, 1.3465316651228953, -0.745829321842729, -0.8610409835620754, -0.21726140596344773, -1.1075564049199749, -0.855500569622305, -0.4671848884800353, 1.199470121985577, 0.6546911908765638, -0.6676026970523885, -1.1936370524074378, -0.4439692463733888, -1.1571980480151258, 2.4498481531627934, 0.14149235048412048, 2.072524418891033, -1.341377973090559, 2.5118476356435857, -0.5039869453340985, -0.4591466636176516, 2.5775407316534804, 0.6701209363995619, 0.6765756521536815, 0.792513810969075, 0.46986353747863663, 1.2088533936198957, 0.884233865502375, -1.4026584834589702, 0.27547861335440016, -0.9581537478163262, -0.24377538170089896, 0.24261912846271835, 0.3523161945410098, -1.4970209249689574, 0.06474952110400196, -0.48192603427307634, -0.4095291608023441, -0.5442721134149767, 0.19773162508774164, -1.018055781001302, 1.4548451273210985, -0.05784596329656043, 0.46958453029488245, -0.194898827239201, -0.343904176979824, -1.2319322863754367, -0.7367414181624498, 1.046912897003063, -0.6053173183970773, 0.23235570453281618, 0.43009931867762496, 0.008560937497646203, -0.9999530184209754, 0.7040581389505728, 0.671210135788014, -1.1225296132220415, 1.052424102661056, -0.18272115548360618, 0.7408722849260911, -1.9078430475221095, -0.7006905487010341, 0.6970740869229561, -1.0166340849595266, 0.3746372411698159, 0.7412860641839512, -0.6097152774346428, -1.2228955556682752, -0.21029077976181168, 0.7332657640642202, 0.21298682463614987, -1.23098242439754, 0.8081537494456511, 0.2786896048757603, 0.6689625057205981, -0.6051526921784095, 1.780374543479572, 0.3433667902316668, 1.404196080230108, -1.8939701067019326, 1.9406030769707767, -0.033106260813075876, -0.31545580415497204, 0.7923937588830234, -1.44830638439134, -0.09140907683339448, -0.35198279479496375, -0.4588449073312984, -0.41060322514900655, -0.6162366769359899, 0.8489021249456339, 0.9622689463010724, -0.6619801762760592, -0.4066487770925128, 1.1192798542880995, -0.057001208493547624, 0.805776433162253, 0.9525286567382951, -0.8131599985063456, -0.21947863106866064, -1.5761141645280141, -0.22717460919475432, 0.5304446561973095, 1.246862871971689, -1.3927937250960338, 0.3413756928117692, -1.9844326291453676, -0.04458163341007414, 1.6951727989509138, -1.945966547748045, -1.4058562158034622, -1.0311839193721595, -0.9715588131623175, -1.2406065900481589, -1.4231892861547453, -0.08268387654098337, 0.5841049703053296, -0.6515643322665918, -0.52886211321841, -0.7753128291005901, -0.4780881782475883, 0.6638121664339026, -0.1567401595287726, -1.4369784730839288, 1.1098124860829506, -1.6359044480701062, 0.9989889663121512, 0.49896054806852225, 0.33991084704385616, 0.7342709233516296, 0.5602170237768196, -0.0170374709751022, 0.14448833860305912, 0.42662711211453047, 1.3460787858161505, -0.8485332918417675, -0.10152791840554166, 1.7814446442541658, 0.15554559620204006, -0.7484567886573371, 0.5344232438947315, 0.5639520987817003, -0.25280101475675554, -0.719717966519254, -1.494892537194631, -0.45666681518779534, -0.6952959351115183, -0.615770220483754, -1.1282485360556163, -2.4562460612355483, 0.6030390226987511, -0.7321496856277314, -1.8927040161545743, 0.9007072503551842, -0.4270511052190997, 0.5166888474434784, -0.5760915945373066, -1.1412118838961038, 1.4996706534627056, -0.49426862393189497, 0.28760158549251497, -1.425941112483714, -0.7427468515746042, 0.5966905825089833, 0.2684467294916804, 0.8405649579465065, -0.43546972284288393, 2.472009171912777, 0.06920733315323375, 0.36249103217928264, -0.02366949280644622, 1.5024456900945855, 0.5292056607966559, 0.6093453037443681, -0.06876230272385536, -0.6971291125293564, -1.303795047993556, 0.1266780772376139, -0.5131717354799668, 0.6275662584019635, 0.7430579162710196, -0.18476356607195593, 0.8454822639789986, -0.09967044408540061, -0.8296028867245885, -0.5940812617179203, -0.4225963622654084, -0.08942248493824764, -1.1316624988992776, -1.306636106745342, 0.05444992853123112, -0.23432904515140401, -0.00430833707803331, -0.3990247953351928, 0.7558640370208531, -0.1561734583502255, -1.4241509985178114, -0.8024119883836264, 0.43357369015207103, -0.6738735207687868, -1.1570384938451779, -0.9125165856566618, 0.84500172149907, 0.7594207713049735, 3.0864862615746875, 1.187107754799766, 0.15503236537999468, 2.316413019325778, 1.3353636615326927, -1.1211886254266386, -1.0605164848236994, -0.8852017226336935, 0.005597997741610419, -0.042025866556077915, -0.43096736424575305, 2.1212042876848223, 0.8188706534193951, 0.629091244569023, -0.5617009374663691, -2.108486029249126, 0.4133275046150419, 0.5096807461708076, 0.2998492654060706, 0.7558359760987992, 0.8842468841620381, -0.1540732365732382, -1.3598472203543959, 0.7343903401243, 1.4389732813730527, -0.4333790222331287, 1.4536061254685155, 1.3353114971780928, -0.25151163615028516, 1.1446732111354723, -2.3316353416964373, 1.8112693557498174, -0.36140736047160205, -1.1878364381167086, 0.07471543467116844, -0.4697332181487128, -0.7401964814126852, -0.9696729332875891, 0.7987524517111427, -1.4548315401011296, -0.19273928324398426, -1.097679035466518, 0.48086978312805373, 1.3686097825528416, -0.37740912777026975, -0.699706255387611, -1.120506692976414, -0.5918972501361005, -0.8783898301641415, 0.11757279772612313, 0.2522617932818668, 0.6951497800410195, 0.8717603411154862, 0.38047082978882996, -0.6078431601906864, -0.27878435678160135, -0.8185324298006268, -0.21425223913593172, -0.4984864085559785, -1.2572097858156486, 0.8166647259753619, 0.3334135796459527, -0.5733311758848227, -0.8941158563504142, 0.8719862212251929, 1.628037727998564, -2.142610820757296, -0.35341569907080145, 0.610956262964129, 2.078565189216894, 0.7277704268018681, -0.4006912178242836, -0.14795768242519966, -2.4620437549390104, 1.3852956076927512, -0.7862115244809258, 0.31880006517588183, 1.322149455293262, 1.4390129116962993, 0.6369588195230301, -1.7370109823653237, -0.6307011214029278, -0.1306616305249641, -0.3068447210889468, -0.1045382541432355, 0.49562845876245365, 0.8766446657982984, 0.29508443485375146, 0.1252520554497685, 0.6745143988930488, -0.3452184448702825, -0.31308206535175775, 2.2709807230681496, 0.4371709999212775, -0.5582575148916922, 2.41659766984584, -0.7696209298382227, 0.6169289204391605, 0.07574461628162642, 0.09419578913632912, 0.11074745237851004, 1.2886896535284713, -0.9583335581071987, 1.5281128773911583, 0.40304566532916103, 0.14204684200552825, -0.6576419044125262, 1.6771066736889622, 0.8901516536895046, -0.026514358430121652, -0.5181074201009961, -0.3213414824348063, 0.6249628743040501, -0.33828060117914005, 0.45968776345240797, -0.360611717806201, 0.36763700711255254, -1.6501446501781933, -0.6957902552598754, 0.08717579876320118, -0.2626574715406045, 1.9587686431512077, 1.5002680870919023, -0.8782880433100176, -1.785572137076535, -0.37976891521255807, 0.7008229972348162, -0.02378883927491715, 0.34635060665919165, -1.8257742432657111, 0.08348622683548255, 0.8421861294230159, -0.6078094014928639, 0.9910958824805834, -0.9186049847198364, 0.42592661914085683, 0.5910065309512387, -0.9282870514509682, 0.804575591293549, -0.4822165222860265, -0.5756316762942942, -1.4982417733830902, 0.22612366048835678, -0.2839188811904502, 0.6085577499295604, 1.6224970186038703, 1.9312115660678961, 0.6067383843112321, -0.31328769495290565, -0.040306629914831596, -0.02149318892555841, 0.9905320026358021, 0.4239824704725571, 0.18817760712751677, 0.897796299430974, 1.242736142704878, -0.40412671235855263, -0.674568099910981, -2.694494723635122, -0.09366501097770466, -2.033640416333963, -0.7323358559783604, -0.3927850764460248, -0.021981011658686326, -0.1856910935218422, 0.5310676821929575, 0.6964019948938004, 0.5849928657963, -0.2755594886270522, 0.05333116808138513, -0.5278906302878356, 0.3872178413999323, -1.1211278237462479, -0.5108958094658382, 0.8722061671018279, -0.6324474525657752, -1.1685127512019884, -0.461695097461933, 1.2237768879020972, -0.5388362263662203, -0.2878029192236389, 0.15167400633748018, -0.7031998409150744, 0.759267760469051, -0.1157409162751095, -0.518569725192827, -0.6623590341113059, -0.2735101191605967, -0.45108102977240044, 0.37228856415017003, 0.43543240171063935, -0.4158419631445292, -0.7692837587438576, -0.5781568488008139, 1.201711537565667, 0.36439906201626227, 0.914508045554126, -3.2215112305495786, -0.6240755209835783, 0.6858821903893579, -0.028481285398305637, -0.3569287088346949, -0.10309881939759549, -1.0385788224555423, 1.048356954318171, 0.24094590008156688, -1.518462974826454, 1.157945343840095, 0.22399061797480677, -0.34651355960666236, 0.5299242577060478, 1.0579199722890984, 0.1485838043572148, -0.7518473783595222, -0.19583175567008304, -0.1165416357264687, -1.4185294187043607, -0.7837865976216205, -0.6348675962545056, -2.520225120950892, 0.23734822450487342, 0.033540882036371365, 0.9407965172225343, -0.15532324650361665, 0.6124770073739472, -0.025085434864099518, -1.8539261829913558, -1.1996006524473208, 1.1420978388339933, -0.10343138993811067, -0.7380290490521803, 1.099383894703747, 0.17215407486820125, 2.4380695947227715, 0.15258230559553124, 1.491787536093649, 0.7713493047572781, -0.357667411766498, 1.3447540678830041, 1.3503418794187219, 0.7291829742420697, 1.00044587635776, -0.7198249395500966, 1.121094301380935, 0.8225587421435712, -0.50836636227304, 1.0350380936096737, -0.10032707972125894, 1.520007637872745, 0.8295050585020196, -0.9572369343190198, -0.308320959389583, -0.3550869789493897, -0.22715402510020768, -1.0967865415035887, -0.9521648689642489, -0.04093540812420562, 0.4995414134583056, 0.7129932964016358, 0.6830157917836294, 0.6619984306106544, -0.7559421742371477, -1.044604986661308, -0.3086591549520189, -0.12877786694261847, 0.010754124926368038, -1.5268887943677585, -0.729835750292522, 1.9831865752064315, 1.8628172249818493, 0.8513995397418218, 0.848812935563386, 0.7856836475141041, 0.9183939350555183, -1.2732244516304247, -2.1155422227378518, 0.4038833080727892, -1.1807712685943381, 0.736673075698699, 0.3193788422089405, -2.160277388471264, -0.8251502696341552, -2.2115964784904905, -1.0413730256924358, 0.7736010395911729, -0.31677718635693747, -0.20054173433679492, 0.7684770109316464, -0.6580615108150185, -0.03810787235569623, -1.1727730373073182, -0.3480212683718297, -1.4476147182626025, 0.23536990896584695, 1.9638293332614964, -0.2781636639346841, -0.518172665675195, -1.468518858109791, -0.36095912391304974, 0.0486840447742339, -0.6065462326470339, 0.7461435785549906, -0.9843554424171584, -0.6700863776161539, 0.22502745723604634, -0.2680604490761943, -0.06792201118483109, -0.3686746258272641, 1.8868335577384083, -1.360238292188979, -0.03902678085848354, -0.7808252146883164, 0.1949609636780649, -0.6628721518560627, 0.252451468194366, 0.6171461394048031, -0.12012282380145754, 0.1737899459428463, -0.6585416128024396, -0.6711191961433228, -1.3246781298767711, -1.259588619169645, -0.5031175249130542, 0.9087198063104139, -1.1317647275371616, 0.31862193039824704, -1.5403263326472318, -0.7532531888228969, -0.28466341764828207, -0.49197866752607416, 0.028953777411426018, 0.5352735333862699, 1.753078177018099, 0.16755577469949323, -0.5853541215468113, -1.1985279408027096, -0.21011123170531865, 0.05064488124564241, -0.9072711687156729, 0.6390969083820756, -0.6836184919734531, -0.4941877742304307, -2.147455137736245, -2.6527483743873743, -1.0716270497231186, 0.8426528543533828, 1.5311396169092135, 2.171175710539409, 0.04617268223808785, -0.14746515307740668, -2.0974810767027563, -0.3673492832069082, -0.5587397793562884, -0.5252280358990817, 0.18849495381059364, -0.7874451362627967, -1.0160385650861006, -1.2136171902783475, 0.07925685091625187, -0.1882101460371404, -1.3676560441023127, -2.1773947292280336, 0.41702992844228015, 1.6719484666239768, -0.5689144817393255, -1.3503660587601811, -0.04507249472216441, -0.5807656988724206, -0.796104735091139, 0.8130245819327775, -0.46763744650320666, -0.8039896493312029, -1.001359546627194, -0.27881408990495604, -0.3617712689025023, 1.2655495886880488, -0.5089747739435501, -0.5198832790040283, -0.9365961889037522, -0.8725195505915168, 0.02046852416058569, -1.1670290727021135, -1.027796446552208, -1.5433611200868398, -0.5498218963488887, -0.18573820136612063, -0.03848096289238831, 0.6445617155560961, -1.0223833284221213, 0.9341342138561008, 0.7950078619798714, -1.489636570439603, 1.7118310570413136, -0.3053718938578826, -0.27696762677287146, 0.7386820564597146, 0.030221115028336965, 0.7429602889833191, -0.5327445834563628, 0.4790170411130111, -0.9094916346248579, 0.592062079435999, -0.5569636433235394, -1.6898167665104868, -1.5919179425839811, 0.031750016009842466, -0.25010158507240965, -0.4827765549766299, -1.0528177454751548, -1.0101037746419752, 0.0780796465382259, -1.5319355072953011, 0.9578204853734078, -1.1226023314217852, -1.1484824661815916, -0.5445745725821295, -0.2052219900108893, -1.5094817352132732, -1.8985167889179113, 0.550830085157008, 0.9456395029939718, -0.37945237357790795, 0.3291957669937503, -0.7555244223521473, -0.9078777243946723, 0.24963808223073433, 0.12358445274235727, -0.009931751673646365, -0.9517169199268777, 0.7200704278946637, 0.046904594761533774, 0.2596007067170731, 0.10644186030865466, -2.1976261648270383, -1.6747423104578703, -0.1909020838138526, 0.8319876317012379, -0.11005571656835506, -0.1611266106600626, -1.3307550914183481, 0.059036641934306716, 0.4273574285306456, 0.2637867915234375, -0.0923771927895059, 0.9858645805703933, 0.1418441336773334, -0.6849686459921579, 1.5012493143070706, 1.5232940359956584, 0.26846692645973724, 0.5002557205162614, -0.774103506782361, -0.38269272062566245, -1.3578129743041596, 0.11348217158129541, 0.38278615035339925, -0.4065827067912185, -0.40308694108273607, -0.3074984115012396, 0.985661168907207, 0.9923086198057037, -1.9101980450585345, -0.07217891654874858, -1.0297325016972345, -1.3571746666837832, 0.7486126312809991, 0.24827168800984234, -0.5301191595601693, 0.6511290333255907, -0.09898388418746742, -0.16783874589137696, 0.8485114329994705, 0.05599629297525371, 0.20289680997383278, 1.2419177196418894, 0.45487373610995435, 0.10012569786082227, 1.542944392040022, 1.4616144950716472, 0.5314653041870409, 0.3400672456591286, 1.3594121424848455, -0.8124096030894827, -0.2069846893252928, 0.5919152594252685, 0.8495260153167343, -0.2370542116103824, -1.3403464448745597, -0.3015859306217075, -0.2934489119341472, -1.2033433789876782, -0.6996364250131327, -0.18581386139887182, 2.197821403753534, -0.8620818749324782, -0.2955249087515293, -0.7250064888021818, -0.0583778227545476, -0.6792199809231702, -0.14835541847273268, 0.7620791506796099, -1.4247023041434097, 1.1619905685842145, 0.03869934684140811, -1.8440532932896285, -0.654412984965172, -0.9357592430051879, 1.4448952515190687, 0.4354028406092627, 0.9401267448727189, 1.8611547159693609, 1.5587302657423818, 0.48350783287990284, 0.5670583335132803, -0.17458393212030945, -0.09025314415741807, -0.05831089013819413, 1.6059943624410185, 0.17565154821685838, 1.0633662985139134, -1.2035127399372838, -0.7615620327496099, -2.556247968111719, 1.3410801205506644, -0.858624565528103, -2.023506889094128, 0.16695046289535556, -1.7566226863759395, -0.026106371039546834, -1.5994070393268733, 0.9593232953118824, 0.6847338182199993, 1.2947153087320924, 0.3859020052372517, -0.3675243082340093, -0.12761476914604075, 1.7038338542444134, 0.9059351501594306, 0.5288346698936476], [0.4932565638524245, 1.7488335008488902, 2.087427189055062, -0.1323941008546485, -1.885859099350371, 1.1229350261603452, 0.37801798590512625, -1.6513831634686005, 1.20995870486687, -0.6022767838869036, 0.5877455191046205, -0.41767214249030654, 0.5120194349689382, -1.1917420920493411, -0.5851924759704665, -0.7622507152048176, 1.483401807401784, -0.06458023417411465, -0.5655891020467828, -0.7175902867273657, -1.17935459303761, 1.5499554499017019, -0.32777768805605995, -0.7606707328580322, -0.050294053600280955, -0.4890758413208462, 1.0653800900147747, 0.4703127213706899, 0.012597909260419987, 0.014044407415153549, 0.29057810233114967, 0.6196502670375885, 0.3368119056140483, -0.5520111539645233, -0.26360585477471643, 0.2729589883681218, -0.17167863638125616, -0.11321818963389163, 0.740401314307739, -0.6339802365283368, -0.8686520421150814, -0.24034438556376309, -1.2491786767552053, -1.1573606206288203, 0.8754611616801449, 1.3910415648357979, 0.9708692207405235, 1.0093518213432844, -0.19846684271117843, -1.4578210923388677, -0.7384448808653054, 1.0352596244959342, -0.6300883496730034, -0.07772714285829664, 0.7132508387248494, -0.8329461923692876, 0.2513338510770105, -0.8956264082560029, 0.37239154549675924, -0.24065771335718233, -0.9027856273236593, 0.21579081830026106, -0.5078994118847069, 0.8628803223185412, -0.18242864853390334, 1.185019193660324, 0.34164870758953303, 0.7608168423999057, 0.24965292580414164, -1.2818240241000476, -0.1057051656041793, 0.7949826621469662, -0.5757995853520168, 1.2006813320349232, 0.896515704125545, -0.6063911748946864, -1.5811265784675763, 1.4483840394376475, -0.14117746945222473, 1.2922429342108086, -1.1005733837292708, -0.39507997183377486, -0.928249323340713, -1.1138776401823292, -0.45207366276276084, -1.2592585948484802, 1.3029032669154286, -1.0175733391090018, 0.12331898249459665, 0.6263743534164758, 0.9113358294900905, 0.6258638438656638, 0.03280994266863533, 0.5857737020170577, -0.8319970641701293, -0.23497731070226832, 0.078546994703304, -0.0019309126780861342, -0.9557381483106488, 0.21424188279728779, 1.2251345557421565, -0.24580839880405989, -1.537915544145496, -0.6133919683441272, 0.03088055062725581, 0.7356731271113816, -0.38604963280795657, -0.24870319167153293, 0.8299569944537597, -0.46943863917062123, -0.8570790493860819, 0.13551961557471312, -1.025991732217654, 0.5100510706469458, 0.07999747076294376, 0.42513377324074, 0.47921169660192486, 0.013391208259257131, 1.4317305458284362, 1.208175885766357, 2.870423247355091, -0.15351406579778418, 1.1859612540721978, -0.0005421582937798091, 0.9989597816974397, 0.4466207823039154, 0.6001389992323927, 1.2381905426396986, 0.4957628443079496, -0.7221815372601986, 0.020064147042783594, 0.510634563163019, 0.32068565146344086, 0.2488237619904932, -0.3621876857516418, -0.3154407340258898, -1.8257854491929415, -0.9591293372937727, -1.360210205909183, -0.4707437076595759, -0.1679216097389867, 1.3496488446200594, 1.3978479316482664, 0.10314825930303029, 0.9978127666239655, -0.7471898494542646, -0.4576237304938522, 2.6834730275750345, 1.0793666208846284, -1.278657784056857, 1.4202617296075537, -0.09411205443758243, -0.574726487223388, 0.12491614967147166, 0.12016518939688019, -0.09454454110422655, -0.34169029930227257, -0.8548388965429435, -0.007240050153414098, -0.1822330258420446, -0.30662281378140677, 1.6755316505936373, -1.3476329093360204, 0.04842336025884577, -1.2724096980887254, 0.40159428053763774, -1.0992935883030532, -1.3849852307169241, -1.2437085407356272, -1.7888656407247467, -0.6971230733458347, -0.9457628906047918, -0.5538896565773639, -0.29956101952642944, -0.127820226330708, 0.05885907523819222, 0.4267587477447794, 0.25581253786273755, -0.6975444424058699, 0.33345943159339375, 0.07147724099778488, -0.27299963638851676, 0.01456907071953636, 0.6267347130433518, 0.37526542709478805, -0.3894445306008907, -0.2867203106720826, -0.9972775894917951, -0.17670442477107604, -0.4670773642130764, -1.621009353514826, -1.3062309800310579, 0.6278560990170883, 1.1271579547651311, 0.1841495671829042, -0.38499074908113906, 0.8632294578183781, 0.8099524047627183, -0.34376941512303083, 2.2922787058027594, 0.6680264561842721, 1.5138623347048628, 0.5095139406022127, 0.4438483861621981, -0.7700171339280686, -0.3328071260940656, 0.7684990416547731, -0.9481254538167289, -0.4250742061441486, 1.164963104928164, -0.14317802752376851, 2.119359623659703, 0.25194887040992114, -0.0896403727922215, -0.33482197212178266, -0.08770676878549559, 0.5593214184755602, -2.834053360081905, 0.21711225237204623, -1.6724931743988092, 0.6401588573546841, -0.8761299181440578, -0.8943714278306629, 1.2432442063621578, -0.01182666351608196, 1.357674208840953, 0.21033835971587703, -0.13057650814616806, 0.8246933778655061, 1.4860650571472005, -0.5893593518291937, 0.1461646907851029, -3.123380221336945, -1.0349029427879213, -0.6256012396932474, -1.3573994039327906, 0.7413257115318479, 1.2709436960621543, 0.35334087989925805, 0.5533513981538845, 0.901731190298486, 0.904764271077801, 1.7294657427500066, 2.6541487779841755, -0.4121152853019393, -0.8305226904945099, -2.0586066261768834, -0.7527708036353691, -1.7940598394743024, -0.5479531723868729, 0.11825525557532497, -0.3713623151069254, -1.3237869805264815, -1.6217879559719837, -0.6332337984080304, -0.1284302793980197, -0.778655422984351, -1.5715564437795462, -1.9383507364056631, -0.20148034197411346, -1.4578893961354658, -3.2907468828419972, -0.7775986752768629, -2.1294273269326043, -2.7911551366567156, -0.1596960083943066, -0.29625802696114034, 1.7252414622102257, 1.5688647281428778, -1.216578154401284, 0.04414989694348632, -0.8068034180328003, -0.04001433195277683, -3.225999115499623, -1.3433907484093761, 0.16944931917264433, -0.21494450565835313, 0.4924785220007658, 0.8246722621373954, 0.06852808669338595, -0.34212525082316936, 0.16267651343769116, -0.791954040209609, -1.6010500604501923, -0.020128527327560687, 0.17542060642490184, -1.813369020063045, -1.4259685919450802, -1.1111908978290075, -0.9201979552908225, -1.2379354521034585, -0.2565184113946942, -0.16158770666263436, -0.4607467616472716, 0.19416592334618465, 2.9196857130029663, 1.5300558203317591, 0.3715677180375069, -0.34338389593267477, 0.3756908925370729, 1.0183582961181445, 0.17463666085554314, -0.08268010272107838, -1.3643127659256111, 0.6030531847450401, -0.4198082657634175, -0.7835977372237515, 1.795603042754484, 0.1758434176694829, -0.7162578556191247, 1.2341848897061514, 1.3679679781877836, 0.19050861958292423, -1.6578292570001332, -2.2069711258597744, 0.08031349294167431, -1.6657556689140038, -0.5790006378702998, -0.7356341489162267, -0.191898947271979, 0.26303734978831156, -0.7566823642982645, -0.9257361499667107, 1.6935035977405895, 1.277362110461124, 0.32996778998355614, -0.48418021594518934, -0.13857674454196764, -1.5960011565294334, -1.0409062543824803, -0.06625348255644513, -0.8150775970780856, -2.384399111855767, -1.6409122108486747, 0.035828765624964135, -0.22272727395464298, 0.0019463234155132788, 0.16535999825524086, -1.607001975533966, 1.5890131648194525, -0.6919472179478507, -0.32139832795364587, 0.8082412265266687, -0.059641801556700916, 0.2562406284176393, -0.2890106387007605, 1.3943435282275973, -0.6284639682094152, 2.424206016268945, -0.15781428729398878, 0.17179962076841584, 0.8559353928459531, 1.0357841016723026, 0.3440401272122821, -0.38400814946065476, -0.2794622632449215, -0.827766671528226, 1.3000458364569445, 1.26330937973292, -0.46027254374430815, 0.3071979752507186, 0.7609081782702084, -0.3940553386149121, -0.21257049496736793, 0.5188193150337352, -1.6154083734944271, 1.7270432331861179, -1.1275494543533375, 0.7740303110177505, 1.0148887173600971, -1.5914679005519734, 0.7897101755904883, 0.2911092734813099, -0.9187482095922443, 1.977800956492749, -0.052569832774699954, -0.5899540089601033, -0.12144324154572807, -0.622873718347348, -0.9200881694229803, 0.7319670989620152, -1.5390909817371476, -1.300582134409498, 0.34188439388164577, -0.2435794128247701, 0.9178790559281029, 0.07775062953337106, -0.4813239248578011, -0.7078531611578343, -0.6045532028929241, 1.5431535856557173, 0.5964552787398838, -0.3294627836003125, 0.6986389091745215, 0.08528797298735753, -1.0906833834861562, -0.8735559597938085, -0.8927854620291497, -0.9155457398903407, -1.1125835042424344, 0.06126786813942415, 1.188718326352389, 1.8202471947262038, 0.21851889503271252, -0.11474899907483617, -0.4307978493328904, 0.30201725803324114, -0.8464398264870577, -0.16046911063215985, -0.2188330702631148, 0.2844805871472131, 0.21365094530974293, 0.024264128927682982, 0.9241639067350422, -0.07581209186383987, 0.3937836161154555, -2.114614366757911, -1.887529425041616, -0.09670823354115737, -0.42418564077934945, -1.4764416039259205, -0.05107263703609941, 0.7684516556925041, -0.055656063792322436, -1.9694265925377425, 0.9500607297422081, -0.2721224958109423, -0.6630421944735565, 0.7147289857863421, 1.9724713608909443, 0.06738415883347137, 1.0553202937667112, 0.00837640845110498, 0.09456410537045372, -0.20521797950199913, -0.8148592657856755, 0.9752064666828258, 0.5939967934194248, 0.8178437693799537, -0.9620065394936584, 1.8000636861363193, 0.33444490697011886, 0.8404300852451123, 0.6513692958928086, -1.320806414105854, -0.69642001402256, -0.2448072832946602, 2.2043627718776464, -0.3692070045960476, 1.893806735220684, 0.7008468550169611, -1.845248251025303, 0.40236575851453094, 0.9208981677399022, -0.6344801783039405, -1.3362511872914593, 2.2180160652594743, 1.103128288716696, 0.32157168842373784, -0.5447962908412151, -1.2153011667309004, -0.4695112419277469, -2.4755984810053686, -0.7684053601109927, 0.0790067206576267, -1.9496256994260166, 0.33912466786611334, 1.3028744463347381, -0.09049133236680248, 1.2267742259531476, -0.06149490177401171, 1.0707271795267346, 0.3419781054233895, -0.0673076491069509, 1.2452673516776127, -0.13318027525103993, -0.30437601380369234, -1.0464154816498703, 0.4938433978080106, -0.236291303182771, -2.388133750130532, 1.1865853104475779, -1.2267819484873814, -0.6141010658011246, 0.6796485236976206, -0.11776367302667794, 0.8720559301604762, -1.0521131571632294, -0.2590808052187861, -0.1392243218737041, 0.49533178011874807, -1.5632391827181222, 0.009478277140810329, 0.8181902550773301, 0.6302434188603306, 0.120459883616374, -0.7926995431163452, 1.4956529706064712, -0.030748561132896743, -0.9239471654351783, 0.6366143485242983, -0.20308181462152936, -0.356344191532225, 1.2515166098209953, -0.21834525310545475, -0.06293861261587706, 1.0849314711431222, 0.15180965786737605, 0.9634224721799588, -2.448920815772668, -0.5203995244289702, -1.4169208114516514, -1.2013590966115446, 1.3581712630330713, 0.9332115139672353, 1.8078147321787903, 0.6673884218283898, -1.0406995262263041, 0.8604920942409191, 0.12620401389090757, -1.2388296014612508, -0.5081477475296569, -1.0548648368625193, -0.6098689586478749, -0.0789838588010115, -0.006786021150474749, 1.9721309055481562, -0.5272647729258922, -0.6809723051859209, -0.6856401339391298, 0.7850010297112725, 0.12437497851932847, -0.49707964951442896, 0.10111284971675137, 1.9010614538172805, 0.3536925431543232, -0.12631395080573588, -0.5905423735788556, -1.9892260617527977, -0.005246521138004276, -2.071501263070947, 0.2913043358200108, -0.17654275370518474, 0.3561480398543982, -0.13110012698967027, 1.599050323779998, 0.13037381020586894, -0.27903730991997155, -0.8472900814691661, 0.46416613980429877, 1.3142229635083251, -0.6402711724418672, -0.3425914567700468, 1.8746166454327111, -0.38361840872874037, -1.794898931422869, 0.12129112978035013, 3.299772411625578, 0.5399599698915574, 1.8372867351224895, 0.30361629446984284, -0.9916059020850314, -0.2641140248023354, 0.5960158617720012, 0.6549059136724911, -0.8560665854996677, -0.6244231186544833, -0.22074581714565392, 0.03050941403087735, -1.028932271637194, -0.7627939764166083, 1.7207559137867239, -0.20718611064827264, 0.8822563892171323, -0.5124394369795371, 0.5180591091849118, 0.7904529830001591, 0.31619616130632106, 0.9908137637795201, -0.9754301107470983, 1.1325746300378556, -1.1646517402941545, -2.768439277108809, -0.7171173502944296, -0.04087595903433588, -0.7417921892834091, 0.7804267126735898, 1.3879619140335737, 0.8608627827973041, 0.08645977287146503, 2.225093225799523, 0.5965691276847589, -0.3124684425186844, 0.8232690999250336, 0.5062215051436908, -1.8377590679830214, 0.024645609927938166, -0.2397161442780162, 0.003485763623960067, 2.131021443939708, 0.7249677291646832, 0.8170743444631089, -0.2181751545431455, 0.29723535038301124, 0.1552926167634481, -1.7755511839756484, -0.2529883223677877, 0.6811105944111838, -0.6678850869498445, 0.11568087674597295, -0.8494589508146576, 1.3016034326063133, -1.2082910643829678, 0.09328130737796937, 1.0976839196141774, 1.9789345148938613, 1.2441783882219337, 1.0333332838815943, -1.4133845367110558, -0.8520031870568412, 0.7207311788534874, 0.07067414391631621, -0.15440394745241226, 0.059360634831885466, 0.8783739444886663, 0.27864417635699584, -0.7817791456766767, -0.7091522459441203, -1.0949576270197003, -0.14842467153040073, -0.07177329797889584, 1.3975667905765505, -1.1243713681920962, -0.7171864143192781, 0.619633761752058, -0.06045402619169037, 0.04210979641652874, 1.2841388510278047, -0.09668528987401172, 0.8975019611942564, 1.3210951843755512, -0.6671868876379607, -0.611982069050696, -0.35279246374737167, -0.35256860135344026, 0.9355664072536808, -2.303366992885423, -0.5605489738785925, -0.6952205098208314, -1.1181859613188374, -0.5950956377755696, -0.2626883180191465, 0.7670675859585527, 0.031115013472775493, -0.4783202184252302, 0.08904418389514451, 0.3381380702412645, -1.0131354097384875, 0.8128886352022976, 1.0199673678824315, -0.5416905940476814, 0.08218417342770204, 0.5310510840209285, -1.0869733130086474, 0.11390352381902052, 0.36837220288359707, 0.7196083757149656, -0.9923156324734379, 0.6758008527267968, 0.7408514668780123, 0.946771756756318, -0.5052664360251002, 0.6440266457031524, -1.1839110528481716, 0.2460506730618378, 0.7610670992474285, -0.7516702782500552, -0.2552710457627754, 0.6006913834755861, 2.2175811837861645, 0.7304288383952168, 0.5861547291969608, 0.6910638219602799, -1.524996567163132, 0.1194756209890976, 0.14542581372322197, -0.16357324939348158, 0.3101731741734666, -1.251431521611087, -2.2291665531000753, -1.5480351044165117, 0.025510136521133018, -0.20817589319347904, -1.1014488338843147, -1.821559437700021, 1.062813098020884, -0.04000681979020341, 0.28088209535065534, -0.253322570992273, -1.3257255251550792, 1.6062296443980302, 0.19211396922072535, 0.29942301082004047, 0.8803260907866047, 0.11542814410908998, -0.2430505020510608, -0.04446566605190158, -1.1334543285485603, 1.2951274437012306, 1.5025916382133182, 0.45875605560776006, 0.6758898897345512, -0.7368404346450015, -0.1949863602292471, 0.27062494422372785, 1.2571363658392363, 1.5312759290725204, -0.11527720929012232, -1.3700272896069878, -0.49678512487496645, 0.060098145126213795, -0.634900009542129, 0.47955785402658496, 1.6119600944078938, 0.743313501878136, -0.5769219084689317, 0.6350194936507987, -0.11078032997370157, -1.2019377701021572, 0.8057966758129759, 0.2524321305662506, -1.4999713486612392, 0.3243227059565575, 1.0091208775992644, -1.182390781760006, 0.9231980814572945, -2.676829725632544, -0.494842392160015, 0.42721740722942025, 0.9363337368207566, 0.22650876631371109, 0.1706955745032229, 1.0245222563349938, 0.28642518127970673, 0.13441373205788518, 1.1524934091107963, 0.1313482757033578, 0.12231037944242086, -0.4419333264511787, 0.2415772572303923, 0.55648922795638, -1.2244246999436001, -1.1277804146781045, 0.01376903182660907, 1.122454387179903, -1.2069858878818425, 0.0556885246254722, -0.8009662222416257, -0.3263430628183304, 1.9061464772160281, 0.48387491035873187, 0.13354444716877012, -1.9521012350043387, 0.38926061888001023, -0.3134770887954607, -0.14784889590739697, -0.9691435043740804, 0.39958844985551806, 0.1155685785080353, 1.745915076396052, 0.08869600220952063, -1.1116304813734639, -0.3502386801840843, 0.595455776623243, -0.9432647318851407, 0.4110859846136668, 0.692699739694817, -1.3480485316515007, -0.0821613449437734, -2.0351500776010187, 1.3321858331759615, -1.4977847425011905, -2.1006013954249263, 1.9076678528721307], [-0.7257481216108278, -0.3205543020520146, -0.803771925873998, 0.4335749678287445, 0.7606032519383771, 0.4518698893673891, 1.2070997610686331, -0.6651216770711472, -1.0661573167041956, -1.1631351271601829, -0.6238655958139558, -0.3609383459219113, 0.6262167984895665, -0.35761724780204657, -0.16241898347439107, -0.6634998097113556, -1.9245129750162193, -0.869170938197492, -1.3518974215950177, -0.9114797267957611, 0.5601281387571787, -1.1937021791219402, -1.08596825093202, -2.086745704752643, 0.3037730240195905, 0.1489523230688128, -0.5698810554122522, -0.4732284682954839, -0.35790675450916426, 0.9146272251528301, 2.2240002862282098, 0.4048351402715853, -0.24430937351033988, 0.7425808965636923, 0.35073466286961935, 0.29751542494305927, 0.9672231783563884, -1.4507034938504957, -1.663495013760093, 1.5395409245180522, -0.16265999699315523, -0.520419323647198, -0.8845471721997917, 0.2297505435974812, 1.5659098567819365, -0.37363891768630314, 0.8029137050869566, -0.18044564778106156, 1.5565175900177812, -0.028655986177569752, 1.6436322851609773, -0.3033863569265042, -0.3357577380978492, 0.6769548558483095, -0.8744918175814117, -0.5699330357686724, 0.30377034864615476, 0.21364300250686424, -2.4763445589139708, -1.5451958691379206, 1.0566270978253454, -0.16547689471523147, -0.4169859895562449, 0.5989092439042454, -1.297675252018342, 0.6014543239786849, 0.9951479656476498, -0.3174967262549934, -0.019522372652200522, 0.3066630947020239, -1.6877942320885146, 0.5044000542732253, 1.0439545144104136, 0.17148554858812687, -0.15367059223618917, -0.8015201813608294, 0.1413445625659687, -0.46360533195485876, 0.6939564383465799, 0.2838392450580355, -1.7683480248868106, 0.35377227840261716, 0.09172629477470234, 0.3818650417013284, 0.0012269834255519442, -0.7536878040610672, 0.5284992866137768, -0.48254613643436267, -0.09348803358763086, 0.42138485541714854, -0.17589987284326955, 1.6173768203424779, -0.7668964874930154, 1.1888833412357493, 0.6989382421892818, -1.202742010385804, -0.5888711901473056, -1.014168567306781, -0.5786962974762893, 0.301984920443687, -0.22451145010328433, 1.3518206958076693, 0.3848420489848567, 0.41079877559399386, 1.0982714014326536, 2.388805482134645, -0.4933444282257188, -0.587426268667379, -0.502327922916033, 2.360302367744387, 0.30720216615029244, 0.7481555900014102, 1.0774726069118812, -0.8295697358740334, -0.7151032129321413, 0.45740858804332823, -0.38342100957311687, 0.7541353734382568, -0.9133621665595268, 0.6601293155369797, 1.238631940817336, -0.273430939583142, -0.5408251156028788, 0.8218814048602462, 1.623395242864535, 0.7032884805781227, -1.1283634766728217, 1.248298147285343, 0.27290859471964846, -1.2752607982742512, 0.36549327716611696, -1.020403801803067, 0.40756230816101197, -0.786929131502749, 0.10902232555041641, -0.047697356281294886, -0.5223080266208011, -0.4680074319704246, -0.040594671065009635, -1.4344105024179403, 0.006395130185563787, -0.48783163676467994, -2.18705218684669, -0.36266394584907957, -0.3082697639710597, -0.709752062802925, 0.6960445844316442, 1.6579615328404653, 0.9769530806982236, -0.432013212643058, 1.1184953082883113, 0.4110664133502093, -0.13684087852636248, 0.5868808361365405, 0.3710329053458653, 0.14724019825418608, 0.47993969009563764, -1.7652133446105407, -0.9051322942615861, -0.6031723191160535, -0.9303588173311015, -0.4912532058630512, -0.40476006952716886, 2.6590040556404957, -1.0607349786454858, -1.0266924095101917, -0.2861644129979666, -0.021313375858313104, -0.7908483452518179, -1.778665549743269, -0.9401858192592164, -0.24303124208295948, 1.0208197928798508, 0.5144754905146468, -0.10145851703573336, 1.0650439669999192, -0.16696324245971306, -0.5426155968949328, 0.8945233709140405, -0.2793329365684515, 0.21575395377869733, 0.012139475844413822, -0.5513591073328895, -2.148363392004256, -0.47208084999022787, -1.0984562325313256, 0.15201260735814448, -0.3713318933235788, -0.28126330024863266, 0.4454639911967771, -1.9092724666935466, -0.4436103115709162, -0.6545643261514736, -1.7467267342853936, 1.6374267078463953, 0.20046575489670365, -1.0251573745912639, 0.2553342615210755, 0.28826171661257105, -0.023926965078342466, -0.22114195312651108, -0.810245880682376, -1.5212010810112444, 0.6432152286461382, 1.1910636405884034, -1.1397145317976476, 0.6164037966192053, -1.2590734547313525, -1.0893346662143677, -0.29947423124132916, -0.5610007830787018, -0.7959790649762362, -1.0959309880031198, -0.9400009922955642, -0.5438243307157533, -0.19057555940298865, -0.9571619862329609, -0.3250708378528618, 1.492698025384258, -0.5160745148547807, 0.9715110017511752, 1.9027618745312354, 0.22196386669543627, -0.28305519657594547, 0.5114230205156528, -0.4424089035943044, 0.37597877616662856, -0.03105074267078009, -0.3796989599204491, 0.3997888324269166, 0.15841471037368987, -0.266407499696592, -0.868967679757464, -2.07991430647285, -0.35269234842046054, 0.09829319597683776, -0.1341873131038828, -1.189423472744455, 0.45757035675134683, 0.3558148903836907, -1.2246028294368685, -0.2339700026641407, -1.1615656197090272, -0.085812118938165, 1.013705808019327, -0.19158789957456202, -1.4398812707207078, 0.37330963198653594, -0.4349475732261269, -2.614083882050822, 0.4068639815772488, 0.8378589814950532, 1.2708223902227733, -0.6030890611942007, 0.33504504309915706, 2.4119125095995333, -0.4874526235178379, 0.12023369392030557, -0.2704099123682928, -0.08672692332330045, -0.2923401958020457, -1.1752481000477928, -0.45069610976567187, -0.599912006937927, 0.5381398796577811, 0.7822863469446026, 1.1127453136299, 1.286754389243896, 0.049080720362581945, 0.9212249482588972, 0.45949737300301063, 0.5357786059591149, -1.2635814303624293, -0.3996049199451592, -1.4268911048254629, -0.7263558458790861, -0.6005819263149972, -1.1723284696446232, -0.43822365862397217, -0.6387873973739036, 0.38694352706600993, -0.8604139423998569, -0.7814620274647335, 0.9319599835675506, 0.3563728345260346, -0.31585582051776073, 0.12331224068775466, 0.33303136718814796, -0.5251081903351446, -0.677932604216856, -0.0017097199035143974, 0.8116607681576478, 0.215696783256578, 2.726396342083984, 3.3936461076454583, 1.2234007861954366, 0.35487241164426864, -0.709222174471851, -0.5400632628395066, -0.7452646069432678, 1.4551040356291105, -1.180330253816769, -0.21314825145157673, -0.9647190598073899, 0.028187785736243427, -1.709910888155006, 0.031453636399165874, 0.17882847870978127, 0.0696320285748121, 0.385075517307311, 0.38938719317431997, 0.5562469462454085, 0.4662388617504234, -0.19480189826784383, 1.0376052896549837, -0.9065627716631954, 1.8226052819866385, 1.101699833546855, 2.312830450777197, 2.5988860533128304, 2.4184267161071427, 1.8552125214241821, 1.8946187881497039, 0.6012653664963635, -1.6149048396321999, 0.9798678135015426, 0.017805320837974245, 0.8216071751042248, 1.9916289453359797, 1.851717492133012, 0.7869633520723373, 0.3661271843583503, -0.7950873791725789, 0.6831384105253572, 0.4965030000852955, -0.30683330849819057, 1.2119243978574943, -0.7719901246591041, 0.520383424425247, -0.7300409605702177, -0.041977155583001156, 0.8933703252134092, 0.24905727687420046, -0.32636264816495913, 0.4967755080821063, 1.649334795912674, -0.874120926050301, 1.0349485388770339, 0.8102223522965065, 1.234057221512928, -0.39132063653836313, -0.6017849548585237, -0.5493238603149543, -0.918245724693958, 0.9880077615074783, 0.6628173395744856, -0.3191912814168916, 1.4143897143035509, -1.7858784905965157, -0.7950839328329622, 0.5459874512681212, -0.9224447528663593, -0.4413393668903113, 0.5560332497348599, 0.23917581712578417, 1.381373361854766, -0.5603123638881002, 1.3216196090291723, 0.8904565537176384, -0.4341071630887223, -0.40111024169401105, 0.9023137569774413, 0.6287591380967615, -0.16115200459936793, -1.1116303569008, -0.15975417481495655, 0.3745682891799996, -0.3797542542480203, 0.08231278222834348, 0.5722606650317286, -2.0109197213211356, -0.7238938990430855, -0.7398420307958122, -0.22773933122842446, -1.008087836780026, 0.5776006353022639, -0.14360863203752533, 0.7399899599048259, -1.6190815130528589, 2.8304757700047856, 0.33006739362996423, -1.018179143696263, 0.6696976184484832, 0.13292264027600784, -0.2089440920531557, 0.42216038190805066, 0.7303913357194407, -0.11215876574782957, -2.04233890856732, -0.8802914247161626, 0.12465201257281076, -0.05796989902061596, -0.6104755812734808, -0.9896900957303477, -2.4787622426319698, 0.153939159229193, 0.09671474154830768, 0.088941688486095, -0.42644836119836543, 0.5828088202199133, -0.25336205282087904, 0.5593909323261897, -2.0775219764239843, -2.042939380323423, 1.739832089159555, -0.20595095770873723, -0.7657728685980152, 1.446762883172622, 1.3196596488033805, 0.6316404364418718, 0.04951977039047336, 1.0384178352811169, 0.2257697315025779, 0.28890608434848797, -0.8422868314503508, 0.6567368378999304, -1.0939723131809536, -0.010935897908299819, -0.004949038821245388, 0.6721960139257421, -0.710147462088437, -1.9395595201110647, -0.5377719484043372, 0.008033658269373004, -1.1566120021697566, 0.17766934234645107, 0.5515236318842334, -0.7248865917005105, 1.1538480653895087, 1.3690244611717353, 2.2924273098331227, 0.5208970673023071, -0.11106781955059561, 0.04344191351383817, 0.04461758901292766, 1.422270358482788, -0.25993072432406933, 0.12657569531881055, -0.117735782548994, -0.38825984990499435, -0.5232555755327993, 0.8355082813464543, 0.7065128777258135, -0.7588134555827432, 2.563148271903291, -0.07202206439740584, -1.6570865768768153, -0.8225962907365217, 0.2726626160830446, -2.284561539143219, -1.2018725794479221, 0.4650046960148543, -0.995818823591584, -0.3103051235634039, -1.5268463565517851, 0.012441793385181239, -0.52777060455982, -0.4649172357435987, 0.2137444074543784, -0.3622910255409752, 0.5275238978514694, 0.5124871646703529, -1.3514733785813327, -0.15992536948661012, 0.34057829167397186, 0.7476007805825345, 1.5640721064022476, 1.2863459181089467, -1.4951742292906227, -0.20099473650527938, -0.5436947405463547, 0.440837896651356, -2.0640286026387042, -0.8265508085464593, -0.1768794210555886, -1.0544955633617024, -1.8118326466571795, 0.0983190974129292, -0.03669013081534014, -0.8913553899089011, 0.38957657510552235, -1.0550877327322177, 0.3818834000830495, -1.838220451731403, 0.06831854487339857, -0.19996337059743932, -0.2450938202898201, -0.017424562041814945, -0.2648726795062031, -0.05194152506319602, -0.8541689387943064, 0.4630472291480685, 1.8187750068071584, 0.5155171345920632, -0.644882907192172, -0.4791973573876121, -0.8885645385189294, 0.32772461599413066, 0.08063339705997108, -0.04617487149835531, -1.3121900836174936, -0.9608329257736324, 0.33643313118067925, 0.6436685155119783, -0.3776139921928638, 0.23335087093969306, 0.255203422322308, -0.18514226706247644, 1.1559215542619445, -0.9324195287175283, -1.4552319325521395, -0.2900623544559645, -0.5895061802715463, -0.5802232851218118, 1.0324753945377203, 0.78618229816127, -0.8696305483179807, 0.2927597180510625, -0.953828814652641, 0.4873028204399411, 0.114313076026971, -0.43250180892971973, -0.5722804536176368, -0.14547201530604134, 0.23305565741475973, -0.21751667630721533, -0.31704624726588915, 2.0884725254969543, 0.6126402237416714, -0.16476376877007204, 0.2848208168603575, -0.4573453364659741, 0.7375667457295789, -2.441338723625755, -1.494099057155194, 0.624419039614608, -0.6569872565630409, 0.4842839307046321, 0.995898865873912, 0.17837077243065644, 0.6391771062425676, 0.4498408939339438, -0.795652447993753, 0.25644994528332576, -1.6232284797546126, 0.9547060724256365, -1.9447179045688185, 2.0412956028129647, -1.6852780426352247, -1.010671563499953, 2.1699948824533184, 0.9335587207222273, -0.6829862562642784, -2.217161285747044, -0.5678147845072112, -1.3992905088602556, 0.7119155917186167, -1.8104358960702114, -0.17806502370278174, -0.3119960442155413, -0.8701767537747312, -0.04122947225011922, 0.1820060357422385, -0.49015384273654145, 1.0341399528295434, -0.21675065229422724, -0.4539192891682642, 0.8234623747341362, 0.9866169026405807, -1.07347692370108, 0.06519273352198088, -0.9840194106144273, 0.5774523935396358, 0.3998242079027921, -0.008454239127107153, -2.0868833248227188, -0.999506790235091, 0.30147429637451134, 2.0626296281344776, 0.1892612695612343, 1.6260795420584488, -0.2484515627136482, 1.4986110588846375, -1.6003873241925806, -0.48399375774283, 0.1521241375043008, -0.07105722280182819, -0.14765709916687894, -0.889747085580531, 0.6278627031036028, -0.7405232975548898, -0.24438694361850075, -0.632042644981426, 1.2258792656226072, -0.2887848144693266, -0.1384261398844345, 0.7620669671753887, 0.8618451762795705, 0.295994236284079, 0.6753978950786602, 1.7991842266034763, 0.32723803796122114, -0.39629862453674547, 0.7042534282831425, 0.4064984814409521, -1.667015937159983, 0.14178536410978432, 1.234790618653571, -0.42215193071825974, -0.9078250545189193, 0.6866064968364953, 0.48726870035462705, 0.7907409784214924, -1.7485013122875321, 0.44875742681913694, 0.4156149733860876, -0.40150704997100617, -0.8068378717467137, -0.8591395336160308, 0.13408373431815843, -1.0130059601413626, -0.5206161094871224, -0.05983939369793638, 1.0665354978392332, -0.42527616970134136, -0.7331294291959648, -0.2908154842284169, 0.6391773408263445, -2.0215390423450823, 0.12593529783255158, 0.04061535373206671, 0.24279514642076672, 0.02960544598390206, -0.0781165132627695, -0.006210169124560457, -1.1462855601675546, -1.0905463205641492, -1.5523117173851824, 0.6738345777867797, -0.6119955728623855, 0.46212236722405087, 1.6403677600955928, 0.8075297220026114, -2.318913886417339, 0.13660239229592874, -0.8333801558101417, 0.7702132422541016, -0.5331849454182097, -1.4916614276473488, -0.2927165033422869, 1.2460189151650318, -0.9937016419665841, 0.746553566566695, 0.36931664503391287, 0.15459671541921116, 1.9114528473776797, -1.224165843302839, 0.648323602185637, -0.35984472258898653, 0.3494975154276293, 1.2747902106528324, -0.2713751460653131, 0.5278673484825104, 1.0715427069833883, -0.4029859875134937, 0.4024283311407317, 0.9589985741570165, 1.8565109860450415, 0.3080035766336464, -0.47728017322810445, 0.4206091551275315, -0.5135641421822544, 0.5803598708502274, -1.4038054082435099, 0.3069727918479377, 0.06836625192855764, 0.3092163281583388, 0.5352420554031284, -0.31426640468084194, 1.1305560960542658, -0.10917165298418709, 0.21594515457064917, 0.9794439359609493, -1.2442446101631448, 1.1738942217175543, 0.0963418119270722, -0.9221952766974938, 1.1130735119168582, 0.251929629038482, 0.17079940473015753, 0.6683536520575543, 1.8755640820704087, -1.4502024682562211, 0.706529361792984, 0.6671688087394098, 1.4007678105840304, 1.899339341152047, -0.5404122625222972, 0.4826381460093865, -0.9740594688568223, 1.48907311460312, 0.7121753103506926, 1.6949335301244386, 1.1373729858294552, 0.7687721111102402, 0.8570562695636337, 0.1151716576600764, 1.4289315817333492, -0.01341961838657704, 0.06490650895113222, 1.8213100555521053, -0.014170188207365387, -0.18382308793736576, 0.2873171861373831, -1.087906590555924, 0.7673490733388673, 0.4380281301392802, -0.9595423956476316, 0.08481779180479802, -0.3760073953611294, 0.4400723661281977, -1.3267300482316358, -0.27234377557077266, 0.4989712835235715, 1.932596424351836, -0.42850637859068724, 0.16343151927196187, -0.29845046165929084, -0.4313352998516728, -0.8696503104272842, -0.5992901848608418, -1.209566311557099, -0.0698283113050259, -0.716746368591804, -0.1985768275537094, -0.15168611360666853, -0.48179169159769847, 0.33561915078882143, 1.0880320947785036, 1.0840678439734388, 0.14239725354146118, -1.414877215813519, 1.1462140139998591, -0.29209490048927017, 1.0883177670779922, 1.811192720355863, -0.581791108492463, -1.0460170703429577, 2.3422092185082963, -1.046747214893927, 1.2572676396538234, 1.0715816909812592, 0.15820727092399242, -0.3959933971688559, -1.9242991990089942, -0.5288820156009693, -0.09955586645572265, 0.5158888435123785, -0.41381714821795834, -0.4450061292369592, 0.24286745559807132, 1.2510412049035045, 0.3497873723345706, -0.2836268525741207, -1.004609901086505, -0.09614780614436988, -1.2907780771612631, 0.12653138293860086, -1.347561664006453, 0.2798796069104497, 0.6497896597389066, 0.27647294175693515, -0.2980525937121969, 0.2227904254999028], [0.15355045972904519, 1.0453022325408194, 0.651021803455174, 1.4843614621829906, -0.5272147319134226, -1.4607873023634768, 0.7316032003597105, -1.2703000001396556, 1.276838182190806, 0.8387666811666952, 0.02088618255059204, 0.07596168207462632, -1.7868089146212132, -0.4461513612926962, 0.2235399468145165, 0.26131266026310473, -0.20813717066345522, -0.2477414108062548, -0.3843075807441286, -2.391466581010861, 1.3113030506510834, 1.2094990652292692, -0.803855790846172, 0.26901458482563706, -0.12361117309724354, 0.7795263413728902, -0.10965609687947553, -1.4585685257791805, -0.44921188072269747, -0.12669837482709215, -0.03092291762113732, -1.0636111981648262, 0.4314973166209663, 1.1605536566053192, -0.6157395478543004, 1.0238070239469748, 0.33904444868221945, 0.162339162943002, -1.5186431047089342, 0.7244478022571943, 0.03561364639320673, -0.5399317141233416, -0.7260540039217566, -0.7865999481773176, 0.372196226631915, -0.2647279813578734, 1.286384170417019, 0.45558516934395316, 0.4820404134890411, 0.9982424186210008, -1.0041056465888558, 1.1157929579673764, -1.7794197214629757, 0.5000206214361869, -0.052840034765086634, -0.33541672043564363, -0.4043170168127369, 0.5190442230328379, -2.1412382241085224, -0.7629440641480928, 0.06666925813373405, 0.3313350605512233, 1.4012173978397378, 0.07537673135202404, 1.0483320773921343, 0.8982679503901849, -1.882050855161789, 0.8070942568271631, 0.2271705229216558, 1.232559027722592, 1.0712469187722438, -0.4322687572085412, -0.3847169772220322, -0.4851747181401583, 0.07844954167037457, 1.1429862166430937, -1.0318783109665657, 2.6710226137347584, 1.1213668721967596, 2.1549431053018515, 0.033455013894168106, 1.2022106112549762, -0.8556456868250671, -0.7752214069774913, -0.2042556726617025, 0.7047674921991012, -0.4828430150824905, -1.0982970729002624, 0.08858152525598025, -1.015476215351107, -1.0373093529885955, -1.3023991062353013, -0.10039070188947456, -1.2570347042548728, -1.466369587529052, 0.9784182513359312, -0.8174006973317723, -0.14669876325353792, 0.2746246168317488, -1.3993152912198263, 0.9022835557537283, 1.1226192087265372, -2.097992850824371, -0.46538701974052843, -0.9315076450126961, -0.6337256594835627, -0.15178433529534144, -1.1898207340939555, 1.0130049908862166, -0.47136175455826346, 1.3554653444938278, -0.8365599749109857, 0.6130277599160691, 0.33874482686902, -1.0282044968588555, -1.3093169442029573, 1.9360556893601888, 0.5963516957573685, -0.331693590997828, 1.0638619192960648, -1.26289157075529, 0.898510014661098, -1.0144684694450556, 0.5740102141627433, -0.3042443698642261, 0.31241859281227863, -0.34785583927892016, 0.5084121298883335, -1.3819171019660688, 0.6123375843667801, 0.9225623902384905, 1.0334455909220301, -1.5349594497438055, 1.1860603532634042, -1.1827507083539708, 0.8273024988093964, 1.9183552428498045, -1.2998228681408313, 0.2895999349328461, 0.4974364093188405, 0.06968903630602506, -0.23966329392038135, -0.5027633061298246, 0.9736812543361519, -1.3219322425579185, 1.8552203049333351, -2.1668861429234254, 1.7333241135958044, 0.2990096756981867, -1.2307260984528043, -1.3971082810862343, -1.036235096508777, 1.790217043191659, 0.09511946783025213, -1.05920753621153, 1.145641964005875, 0.011350177424679279, 0.41913940974563957, -0.7204515447262886, -1.5672693291096589, 2.3241374566290887, -2.0232365751607837, -1.3646059763887275, 0.23643646841755003, -0.5217830094554344, 0.5383474724260644, -2.6690658015074793, -1.1442974414009608, 0.8622298763983858, -1.134404301748849, 0.5496597854534205, -0.12267979777070818, 1.1600437518619937, 1.2772165696386812, -0.2431594913292669, 0.13419203558980758, 0.37861156877852536, -0.002407644684605026, -0.680995281700055, 1.481568550931541, 0.35499134227689544, 0.8585707950614452, 0.6419146385508847, 1.0808572774900702, 0.5072614735047687, 0.1260747692969236, -0.5364690522954751, 0.8792159026410008, -0.29453346809619, 0.4526126773357565, 1.4354737635174757, 1.3265973441931118, -0.7571068872082087, -0.041120999788225615, -0.43235788524431074, -0.0634616134517541, 1.1545612131432272, -1.782587404994511, -1.0639983648372162, 0.09490313660860084, -0.7413171080512913, -1.7541639928861121, 0.8517000569124303, 0.7910189254201216, 0.19228201069661216, 0.0984387816909188, 0.7389283597062187, 0.8634479468902547, 0.9799491258864264, 2.0599668835014513, 0.7729548032887097, 1.9941242082936457, 0.5038959479446131, -0.6393166231137423, 1.0796720093397183, -0.1542417372295745, 0.8768914422511813, -0.41717526324736487, 0.5331586310462239, 3.5231739147095835, 0.7310503732198094, 0.15352927828706503, 0.6561186033629743, 0.04711547009439399, -0.2657902686610335, -0.807023662875297, 0.24988038637340154, -0.36986370899457044, -0.4821980330870138, -2.106614581235358, 1.6753310401834611, 1.5571246519679076, 0.6902936683290429, 0.38828554893000033, 0.068201279804322, -0.339744145292716, -0.6074262103782525, 1.6860451257110531, 0.707531489915116, 0.7416793297914384, -0.0012467890858601275, 1.2025017776391145, 0.7795459519246788, -0.6852908634016963, 0.6130559676314258, 1.6388343133114185, -0.6296502410687297, 1.4015509928115244, -1.0992548734569203, 0.9095523744182675, 1.176372597675021, 0.9173108536200235, 0.6184278979889981, 1.1185460784338794, -1.2618118931421636, -0.25191372990117755, 0.4043990811319576, -0.13495557314948553, -0.6290742260062918, 0.51036022137307, 1.4583602352627636, 1.333799516188724, 1.6835319686588173, 0.4473825646097469, -0.5565755415662066, -0.23430838292646525, 1.6171007146010627, 0.9129811220860278, -0.9978858767266513, 0.5264537789061154, -0.5491393381393295, 1.303810325460744, 1.5787635977814776, 0.5137052179078584, 0.9946087287475945, 1.5311106966167753, 1.3292725581414113, 2.478510304477704, 0.528303865581784, 0.09074368881195996, -1.003561554725971, -0.31193714077972756, -0.3324758609718734, -0.3074245593100719, -0.14567550759598982, -0.376081799797091, 1.5924704658216273, 1.3694930832703418, -0.6710201519406216, 0.3741545392729319, -0.7759212022347323, 0.3954615644143273, 0.9607124109460676, 2.5809580147308484, 0.8388255918997447, 0.2799073798166458, 0.8356230020027681, 0.5940667575390647, 0.920496922516703, 1.0214413870459393, 0.9048868136750956, 1.1715963594130432, 0.8963179099151711, 1.048063476462399, 2.763063840055871, 1.4062494719667744, -1.359898387758215, -2.550613631664149, -0.15617305776742388, -0.8673385678468442, 0.8157337901552498, -0.03284238339332985, 0.3258563880223653, 1.505186032480129, 0.06870643422215036, 0.9408500076553766, 1.4562505493818094, 0.7074573141364829, 2.1527643993610104, 0.015190775103869842, 1.5571978486570188, 2.4076020240628893, 1.0596117156663587, 2.0625689103210103, -1.3744942247660077, 0.3856426433549151, 0.04103372858862586, -0.4569059747029996, 0.3267383235997682, 0.023128936682197, 0.280636788260781, 2.4874592013817325, -0.35045761367371625, 1.1867693984739407, -0.9537497849331672, 1.1007677851811104, -1.0441019455339848, 0.13128255276138512, -0.3120758765281028, -1.1580774882540703, 1.423940527147525, 2.483951092173888, 0.5842447828721927, -0.1762557531197379, 0.2031999163019435, 0.26896844765537115, 0.5101297905331387, 1.1129069843361976, 1.2074788041514564, 0.056672428126932094, 1.837746880109898, 0.9604447434321576, 2.5370743712655104, 0.27100826515788146, 1.0706980647983149, -0.47938614048145417, 0.35664348185053063, -0.4329069535878437, 0.4207810679063879, 1.2236708684604154, -0.6134084656523965, 1.7329941040646075, 0.5505594582139304, -0.19288601753191245, -1.434156231178538, -0.8188284067723203, -0.9535303769615279, -0.08227794682133675, -1.7801459639973616, -0.3860905841246466, 1.2031835785806664, 0.9426197005924449, -0.014456330900967347, 0.8056911967567728, -0.5888351840122658, 1.3879015557573917, 0.03187401029059489, 0.3716805915918176, 1.1330115500816307, -0.72498582096773, 0.27350887885198616, 0.08499899439636911, 0.2981830592939936, 1.4922705608028786, 0.7187490863188251, 1.372716751827987, -0.8132617382094077, -1.206716847666986, -0.6368349955305257, -2.794025874487722, 0.22100126521615737, -1.8213411392389407, -1.0483809510278557, -1.7788146750159592, -0.9202841405783876, 1.7377524587918731, 1.0373296981255407, 0.9979455183418527, -0.49105205717067957, 0.500223259897571, -1.1171648686588411, -0.3504321918552605, -1.1245691135744909, 0.837104679175487, -0.43700245977867547, -0.40459212359025926, -1.2769392837991609, 1.0315689699578756, -0.02163872848771114, -0.7172766950392356, 0.3703392943059536, -0.20698881950991177, 1.4190325642293167, 0.11213835273448607, 0.09392057495311722, 0.07412164520629193, 0.9869460666056576, -0.8076486904732086, -2.333528087466666, -0.15180209145227427, -2.0196301379282726, -0.5402845447158264, -2.1036142039163166, -0.35529607750071224, 0.3558602411099472, -1.0930987141597321, -0.6725673833756316, -2.0548809151638485, -0.7558585373428687, 0.5840927067963397, 0.14372895611562, -1.6489543715430433, -0.18696699125308183, -0.20620483772805523, -1.419628371510138, -0.2616759030722172, -0.41066558606710724, 1.1532083959740806, -0.6754230458874542, 0.34583391887726816, 1.7348424820889163, -1.6294364347595092, -0.33659758569072135, -1.9854819205162315, 1.4882221636913304, -1.3009572139358645, -0.5927317189149031, 1.6030948747785323, -1.5967529531909357, -0.8605770097805124, -0.10823151098647397, -2.7623526838405312, -0.06873377744925532, 1.2268323973121615, -0.4115560714448985, -0.19207560281554176, -1.4386420831974045, -1.6378504898203927, -0.8809521623242726, -1.153925541612667, -1.8944411626427424, -1.4902530699512941, -0.5917432970964653, -0.6516678296695767, 0.9933666006981222, -1.736543655135429, 1.6093629044833626, -0.9254056640877784, -0.668737502551671, -0.8032946671184432, 1.5590872650918282, -0.8730500066572353, 0.7663544618544197, -0.6478073201418535, -0.899692675509997, 0.8193600602078617, -0.4630303961830484, 0.12574192050705368, 1.3196944305501939, 0.5096234022580007, -2.1876206259087247, 0.950508042632881, -0.8747437827801331, -0.2562254936838855, 0.9448443757937569, -1.5316483249442736, -0.47110601225483256, -0.6635740122306842, -1.6565662939280816, -1.832109385392209, 0.28937199823284654, -1.2513762222251188, -0.03293704331343305, -1.51886875652454, 0.3594248808414024, -0.5916131959837669, -0.46607177446461795, -1.5252938768586526, -1.6567296337286437, 0.7644172350295659, -1.3377868290386787, -0.5919485081408424, 0.9160665598743316, 1.6991876490519886, -0.686818424607939, -0.20316943581599792, 0.148163962478925, 0.1607785112791516, -0.9512373198533441, 0.5180080823092761, -0.09025646379409487, -0.34772324486815837, -0.9853715301607958, -0.08316866683555092, -0.20747188275714348, -0.8403268848981063, -1.53757989857001, 0.9032809171557823, -0.17247827200447965, -0.42800812845416475, -0.7527382556206875, -0.2784052970081917, -1.1553864413694361, 0.24199682162327002, 0.38180932430333103, -0.8428717967493491, -0.4717349772548515, 0.0019531497982180064, -2.3600517805955143, -0.7462588857931232, 0.178944288182344, -0.0335922428416506, -0.19278783528495955, 0.5957007944652476, 1.7279744421503496, 0.0076709533969622845, 0.4135483699635803, -1.4804818296029287, 0.08538320531521397, -0.4219034157194407, 0.5973945746969725, -1.4171967919133472, -0.6509966577749099, -0.9234862831026812, -0.029002379875928776, -0.6045634800439037, 0.02860922645441783, -0.0013527292661276854, -0.08739792810938894, -0.12323625412777392, -0.5609341673970034, -0.13576069157545662, -1.176387537079458, 0.11152974897419918, -2.0471357477230647, -1.4093437421929287, -1.379518380766284, -0.17696403022355006, -0.9233892142009635, -0.5778380984097132, 1.7541557358323776, 0.5967582295270123, -1.0568355395924367, 0.6882493126990163, 0.8931024323908693, 1.8526919041261714, 0.10529614682215926, 0.5741708455416453, -1.3601533898679123, 0.007558080660881221, -0.1964988177055046, -0.6900433516911527, -1.817994751081591, -0.6444938674828375, 1.322144173654293, 0.39620189304302394, 0.3248875002753024, 0.0626819177914196, -0.35171659617837386, 1.154621753408588, -0.6614852398096398, -1.2224445419160488, 0.17472091716518937, -0.5942623106972127, -0.26550189175209993, -1.15510512436114, -0.37734948773221594, -2.2839081144731157, -0.9963328969418638, 1.3571049105359756, 0.6298186286876983, -0.8233345354962893, -1.0561121737516066, -0.5626141013622827, 0.5494802878084626, -0.274018276200065, -0.25548211376078844, -1.3326687233340246, -1.0724759109661173, -0.3402264651455852, 1.7206968581315583, 0.2510223894037404, -1.6428033216789408, -0.5340254177937291, 0.2756813007585765, -1.8424159115014993, -2.008225951889828, -0.4208436246173182, 1.9138827109494103, -0.831688884592822, 0.4470586833255407, -1.115359966331677, -1.050536883347936, 0.9882605816475084, -0.1665367878201813, -0.01225434975323819, 1.1529331548915835, -1.6333146404381094, -1.1208619949994216, 1.0780490501645772, 0.7555397413155104, -2.0872541658147097, -0.8468593335450382, -0.40915607140883464, -0.5123610682707584, 0.6059515874812228, -0.3526861489033906, -0.6016356280992804, -0.2801164219951491, 2.6472253015912934, 1.339231063707746, 1.1279489413920707, 1.9689136232872855, 0.5337714449245972, 0.8396002471224653, -1.0258361086029424, -1.051883468919076, 0.2942770716720157, -0.40910035552571705, 1.1189785205452796, -1.122047403171758, -0.0602221259994996, 1.9878987322334594, 0.16189467565014054, 1.492490429728252, -1.4564795693894173, -1.7566119399186177, 0.32136091929143257, 1.669317262674081, -0.3238804575302472, 1.462241705660313, 1.1766243611872242, -0.6031522857539436, 1.742011887551057, -1.0933402665352587, 0.07840895250418091, -0.15537498305651487, 0.6809741284326609, 2.701205537949412, 0.6072093134210095, 1.9650834717989698, 2.333091372825591, 0.9458731704924638, 1.546130401735567, 0.14164444787723446, -0.927487994766551, -1.212537049602884, -0.668025804774181, -1.3408199366114708, 1.1814423618439625, -0.03395010779761283, 1.4405970778424195, 1.0331667537228235, 0.26885049973897274, 1.0004209110053, -0.3919145597867434, 0.7262574997325874, 0.6003277414609018, 0.33577309109529097, 1.653140080038642, -0.3824129643625704, 1.727307694558108, 1.2617499074565757, -0.10212405412530776, 0.18442852274394103, 1.0411502454133172, 0.9724038371905762, 2.5686118812212517, 1.20994963830132, 0.027358368287411255, -0.2991221374713184, 1.8008214391544082, 0.24691020982904854, -0.585437189584039, -1.2044574082979018, -0.5580345712090908, -0.4200588960487974, -0.40448295327044703, -0.84837532886216, -1.5189462736061916, -0.578593299285271, 1.5196763869732917, -0.9775045654131748, 0.09662365793326018, -0.381211963043206, -0.9846273621646984, 1.7834236552754181, -0.37291776060142695, 1.5028836243837034, -0.2935927526343043, 1.469274758002968, 1.2266310206916253, 0.3175817024791828, 1.4434788762364867, -0.11197944553737661, 0.0019881520637877142, 0.1925119817853044, -0.5207891197440662, 2.016385108898535, -0.10910029767950531, 2.218356952589064, 0.14266948639252205, 0.7696285415150381, 0.5292083559374865, -0.5438593259323332, 0.3511554950282571, -0.35394355368578245, -1.3047123307832948, -2.9671413405662506, 1.0890329133369614, -0.2584484795629321, 0.0424824397508989, -0.7286237603836118, -0.14189070282875368, 0.2237761294280091, 0.07175987237459737, 0.5536918227290489, -0.9214550957081858, 0.6771437913854119, 0.20995446299551435, -1.085163106363563, -0.1848045682616273, 1.605615130909282, 0.019886637410763627, 0.9793904811011717, 1.0333896628454688, 1.639395177280346, -0.11666071000438807, -0.04154164489166213, -1.7715946664053819, 1.4404122315751215, -1.884209476131894, -0.04423992894771204, 0.5383982135484248, 2.3300973360105997, -0.5765282949383013, 0.25139967057760876, 0.3786453204613879, -1.8177929263792347, 0.09955249535547211, -1.1731369846488406, 1.602386792914561, -0.5458190336450112, 0.19821601959041588, -0.05545228600466193, 0.42850604894914435, 0.5982573304259899, 0.18294019656919414, 1.1995782665650683, -0.9081195031865088, 0.654718900544345, -0.6343840940872323, -0.17098357443579046, -0.15703204949505695, 0.4293443620045203, 0.9037680309044639, -0.8219319739312677, 0.3825359618355812, -0.24148930129654128, 0.2808077172548249, -0.5920997403636455, 0.37309975435065174, -0.19608921950256095, 0.22510231210654733], [1.9058387892320516, -1.9536076439477563, -1.0797243809585566, -1.5665733769418546, -1.1113344858054124, -0.7621509020552912, 1.827055896739814, 2.433541661054174, -0.35886323775554324, 0.4489375244936553, 1.1697604088669737, 0.2473724518398531, -1.3853755063612483, -0.14103639807873908, 0.44744286982633286, 0.5438920031956008, -1.099691930159329, 0.7088820421318289, 0.6584534380599198, 1.4467918821233123, -0.3633107050535903, -2.025849342721127, -0.7648115302380366, -1.1508273740245398, 0.9671029451363163, -0.9465831005349086, 0.6741885382304512, 1.0858742634844032, 0.6857939379490554, -1.2463256668201654, 0.9140181715831777, -0.08536958601000694, -1.098826094489893, -0.4614304446939291, -1.096031315265413, 1.10764909526316, -2.5176577765127126, 0.5092526399672331, 1.0628502525450887, -0.7960058762274921, 1.009881416886981, -1.2702155492569853, 0.5234886123318011, -0.7105118889823577, -0.17094346383519873, -0.5087017624585911, 0.02212381145457827, 0.0014702066553760652, 0.9014547270399937, 0.6573804214948846, -1.049702937107772, -0.8938194651642585, 0.30135015168441814, 0.22073703277491905, 0.04378144304265941, -0.022627668340017143, -0.20666644813866716, -1.19247383460841, 2.0171274115738793, -0.4137702854157199, 0.39311298819722823, 1.2724410678867586, 0.6960138909388195, -0.4084822542162907, -0.028481573149439568, 1.3202665883511602, -1.2622215317658416, 0.3729013682785736, -0.18283946765438058, 0.4437063872043734, 0.3788754434878669, -1.744352548522616, 1.6871432000007427, 1.4843184312233944, -1.0663620175704183, 0.5613809107382065, -1.0477183272446962, -0.3411893736719226, 0.027580356160890825, -0.14659826363446452, 0.32492830692172536, 0.1425318943012104, 0.9617036688637766, 0.6705577546218436, -0.6912734129924747, -0.22422974424943956, 1.5286009525334583, 1.092581891693155, 0.038433708422701794, -0.39985661419471696, 0.831128680119776, 0.5556110988880918, 0.4342480473302634, 0.9502033531392927, -1.130343054548541, -0.5521883663295596, 2.0206626882480285, 0.7211251962399501, 1.5617232782060788, 1.0088107773173784, -0.6818859141413786, -1.0415622426290538, 1.4194056101241301, -0.05261630900524515, -0.16732684690628322, 0.81177787788614, 0.248499674864765, 0.5425930194372289, -0.9328187534866069, -1.2346929989559936, 0.9115891829872125, 0.493712294689009, -0.06410235349039589, 1.4193242407285844, 0.979015636758408, 0.9112284268442487, -1.8611870000853628, 0.6987494804847252, -0.44754005609244096, -0.6491865413527786, 0.49834379254760425, 1.338911602516425, -0.0649355640766047, -0.11439899886469161, 0.3910345459890202, 1.1959241031790508, -1.468738350798219, 1.1246271810221897, 1.1108762099550902, -1.1914580319626953, -1.5774208923444453, 0.4652028704876391, 0.25786919676981057, -2.27185060493891, -0.8589247570601697, -1.3047374035153694, 0.10222553467645913, -1.2430827013335206, -0.24869710687588453, -0.38029738057741536, 0.02904905234414986, 0.640712102247763, 0.3371977153510105, 0.5522918345139236, 0.49074969703305865, 0.23981952035360435, -0.477357611797043, 1.158156753894051, 1.3767982383666153, -0.5395716169467664, 1.789975239435822, -0.10499586925144287, 0.7514990987907669, -0.8982540545671223, -0.7247420797429143, 0.06891046093277636, -0.10019356493251948, -0.10421621312956506, 0.07683564712559163, -1.417777218401101, -0.4971570327560139, 0.9460698678448192, -0.05565752183600413, -0.004261086624568582, -0.024391537953367275, -0.5743389207862571, -2.0686548182777447, 0.7837163679638626, -0.6079128875067313, 0.43870929900266437, -1.0948273711850587, -0.5416885893123485, -0.5349864121665042, -0.10704862526719142, 1.4975989182965126, 0.599564233967421, 0.9561557288306175, 0.9859414385721863, 0.2168414668986938, -0.16675948708980168, -0.45626707651942094, 0.8060648491377547, -0.5173085976783788, 0.14018406835873304, -0.03702811749416566, -1.1000919473986346, -0.9150938905432373, 0.052051512836924704, -0.7720620503258679, 0.9859925121882206, -1.5678195873010774, -0.7734782780422069, 0.8878005506297411, 0.9189561228775543, 0.6081177872878702, 1.1679882022665564, 0.40884657751110187, -2.432740747436087, -0.9435774014492727, -0.9987977512910885, -0.9846088697918521, 0.4628505456443503, 0.1186887557167837, -0.7857183608157552, 1.4004146313874888, 0.7145633423042365, 0.5076756477407431, -0.12935943225399682, -0.761067736332105, 0.9049404197629646, 0.008912732108655612, -1.3053635006435556, 0.564518194857041, -2.0693818276324363, -0.5737888592630129, 0.5342259024559869, -1.7516470480008002, -1.1074659138961813, 1.024414191728543, 0.3056711649447144, 0.607687377765008, -0.17683187458974647, 0.22915431601666753, 1.098956544459605, 1.7122497334372768, -0.5455229807701304, 1.891070902045974, 1.0516219143028995, 0.5766889110682694, -0.7368679472308548, -0.4585736059588479, 1.2267982108215172, 2.4630519565242732, -0.9585575435914317, 3.143795170763757, 1.3316477363521027, 0.14885493033068978, -0.5280618119942995, -0.23506897943438013, -1.3273057605575733, -1.3147224283050671, -0.5163059403081006, -0.934417980483342, 0.536245520966744, -0.13330548785264448, 0.6977702027924444, 0.3760812386665849, -1.163803608652477, 0.2689511307800335, 2.1766743350966093, -0.215980048984019, 0.22450649643662796, -1.4061635498654133, -0.6462932625955716, -0.6959076449680707, -0.10673208595910652, 1.0302707739370516, -2.4306022922550197, 0.0681213119960461, 0.2098706132601061, 0.585313148864643, -0.0029597834482940717, -1.2623674779321599, 0.04471315551573734, 0.4056431722310759, 0.5934852694942059, -1.429741545653331, 0.8676567819991746, -0.7361180090169601, -1.1826395121062392, -1.614834462896487, -1.4705708754277993, 0.37635720145808016, 0.3629958319145438, 1.2822610968066328, -1.4052786264161188, -1.397150303679126, 1.6163762027972355, -0.36640295614836743, -0.4672142172756307, 0.3698078144644456, -0.08609684260626982, -1.5180296963636135, -0.5391362662403659, 1.3865133893898853, 0.9104367980787871, 0.3407737297101989, -1.1118275291752744, 0.4624151701715259, -0.5372530191130985, 0.5940206669109159, 0.403523555446667, 0.7977403141052075, -0.45927269877154436, 0.010220812232384927, 0.5380314770485728, 1.2273424673177769, -0.7707918441969105, -0.42014952422101437, -0.8020679470794783, -0.36746315266477464, -1.0652650078943666, -1.4898784534049512, -1.5149129927881049, 0.4159615020692526, 0.8943077240222944, -0.6153967221507186, -1.463776627073465, -0.46671348095656473, -1.687286576143138, -1.1966737898662798, -1.8188349551259073, -0.6978423557782325, -1.491220464094313, -0.8473911812911347, -1.4037741317447259, 0.5810919732601083, 0.9628632054411546, -0.5964351643429073, -0.27456347525948693, -0.20693610943638321, 0.29350543712406907, -0.6803758395633346, 1.920928522647627, 1.2703143547908098, 1.861576498588683, -0.41953051708691635, -0.3734174202815979, -1.2061301253716075, -1.8882648167423075, -0.5141377681758241, -1.5731371385842166, -1.9772480535234163, 1.148653785344305, 0.6709696279225441, 0.10532276336632689, -1.4459796005626036, -0.3758278874139949, 1.1173234332866278, -0.7000642663617572, -0.2521664790518295, -0.3805762266921546, -0.1008375945770726, -0.31238851767956294, -0.4425772747579143, -0.06036398779568944, 0.5898627457568476, 0.5803860345302418, -0.0965495381218621, -0.3538048905062193, 1.6859379803303702, 1.8526372601660546, 1.39484322546191, 1.1599666288307056, 0.2805467339815935, -1.8867039808842265, -1.9136742886866693, -0.9887229933371342, -1.376733891684106, -1.2616892569201803, 0.43168185765240136, 0.7948520003335251, -0.40573553236990945, 1.0163828952853458, 0.042472005973804884, -1.229466177011415, 1.1011334001672233, 0.22075032448038875, 0.31078482431391014, -1.1971196142895908, -0.1520041988093948, -1.5374092681873994, 0.8304251259878955, 0.23945606997751664, -0.5393984693886632, 0.4327116311152722, -0.688715569287474, 1.0982097252176515, 2.9614128547622873, 1.2084210276192535, 2.016607926973487, 2.3331033041238274, -1.1146321989626315, -1.1683801872361965, 0.5453641789997201, 0.7285324236715643, -1.3772985429113611, -1.181625629361718, -0.2111444099931769, -1.1082997517290512, 1.0118485488899855, -0.7282606567876787, -1.5843497125177057, -0.16711272200926633, -1.0322394548649492, 0.1815828471542674, 0.6418400006264923, 0.7074116025381114, -0.6629025237672242, -1.0070692995192627, -0.6457842263768809, 0.5161432627383298, -0.6382435961421188, -0.39193689888166605, 0.27442237480499443, 0.5220496456260716, 1.4660086358894049, 0.8437624359027559, 0.44999661998129015, 0.045112428365599325, -0.4986320451980114, -1.2979523123649686, 0.6521383428180201, -0.013785652266179855, 0.2981805539394616, -0.6668555453677704, 0.39945760025389615, 1.1476627754386364, -2.3086271314047297, -0.6641676899624703, 0.6230052529273541, 1.2995555833826795, -1.154168109451439, 0.6829270348247721, -0.4387033095555765, -1.4489802170494979, -1.3517337625420245, -1.6429128215633106, -0.4345728020915467, -0.2308777704855533, -0.7998219996956183, 0.35436241473076185, 2.028188735104289, 3.305539414678113, 0.4707917763963997, 2.4199353513720254, 1.5323779893318488, 1.71697774678746, 0.17220196858987308, -0.7586349960301522, -0.07292012243046973, -0.192038480150465, -1.1538604920204254, 0.16434537669848445, 1.4992967291399981, 0.34098975058359726, 1.3733703640584614, 0.2524908319812586, -1.162990313927957, -0.38720943533985946, 1.2931022920014175, 1.5496124112456011, -1.2949947612839499, -0.2881690874500848, -1.1380983504152202, -0.873528477041493, -0.505900936284185, 0.6145121473303864, -1.7050722308427442, 1.3930289943708696, 1.8270361830002373, 1.9136707865358724, 1.516459061706787, 0.21178095708551653, 1.082385934900846, 1.0276050310950273, -1.4561196808733077, 0.5279687178504421, -0.028070840584947222, -0.9014611255220921, -0.24858842846739926, 0.7397886330062861, -0.014033339448779584, -0.24707040485193463, 0.55016475354285, 0.8380971699502346, -0.36995623798245597, -0.02071502198050465, -0.34185895256260723, -0.3306138197262596, 0.5699484817809922, -0.6013276711539265, -0.6911766723790822, -0.14419492827392683, -2.0905285996569534, -1.2037032822425422, -1.439402459401591, 1.5479156224831598, 1.455226276726176, 2.5314551679797295, 2.4568855831663527, 0.8374350587579903, 0.8225933503156885, -0.9789954993125881, -0.09108458302352895, -0.28229179130668747, -1.1921902054807318, 0.5469708325842025, -0.13747614891158874, 0.06394233940201247, -1.3612997709052816, 1.1694489935403363, 2.3462427710575895, 1.298306401571224, -0.10179717664514101, 0.043380169895665004, 0.09885930497206996, 1.534089365002196, 0.7218116379633561, -0.32709713234439847, 0.688968113639226, -1.2055830674481822, -0.14751775323066893, -0.4779417915650468, -1.5261976672156514, 0.5998561970906393, -0.5150257426274167, 0.3560888778908472, 2.296513501961162, 0.7451316884181518, -0.24524038109326857, 0.5397111229393818, 0.4022734771944824, -0.46655823415446374, 0.8664002408517566, -1.2740384333103212, 0.5003371402201705, 0.9585955464055025, -0.49290030093131154, 0.1794889348179509, 0.6090428169436274, 0.493937985123722, 0.9941209822075495, 0.7455669620502174, -0.9032897490056282, 0.08684043738235107, 1.3030514506906816, 1.5904618451445227, -0.8586969283556611, 0.6981676137588492, -0.9050792520502036, 0.26479139508256616, -2.515879347203962, 1.1472607389605816, 0.9345600217765129, 1.8053881931138955, 2.169225222846856, -0.5570085570415132, 0.7392444100567137, -0.1855529076512972, 1.3850003497478443, 0.12763992470865532, -0.20507981240808443, 1.1387973152268058, 0.6604841793088388, 1.5806742715113309, 0.6217687315657957, -0.5652169884989522, 0.2801720210797341, 0.23781183065342884, -0.6590320601269654, 1.357341809905997, -0.2426908298528073, 0.29388147342200543, -0.3112960282258983, -0.07514360969474121, -0.423376319548383, 0.47807494150146834, 0.5109968194824495, 0.36379886865567396, -0.7200701968909846, -0.5352178635398991, -0.4182620032692185, 0.5433255323446327, 0.3791683208442446, 0.5411657006588934, -0.17986720680843876, 0.022660635791983925, -0.9785334117594313, 0.6022752664183875, 0.29343109768555387, 0.24603410739725942, 0.6623380246325885, 0.47942332389574355, -1.0789038144312542, 2.193485739612955, 0.3564862183984403, 1.2260392203575246, -1.404100994611688, 0.9767794404796921, -1.5021805645707795, 0.5263606614960894, 1.6525459239780733, -1.295682795700215, 1.306975830819779, -0.15910251280693433, 0.4563112185378786, -0.3440313867284915, -0.19997502307555554, -0.30102670009307275, 0.2141669295946311, 0.409743086609095, -0.14847003657936536, 0.9229880292620974, 0.0354659114988637, -0.34550982745027503, 0.3430667786163933, 1.0367728789603043, 0.47999553244787824, -0.07478420918255925, -1.1005919515669442, 0.7478699887808892, -0.8078074893414764, -0.7252989844767512, 1.7215438524663367, 0.2727002433041625, 0.08252839923300591, 0.42781882009270433, 0.9213227682355335, 1.397584214158929, 1.9626499597218647, 1.2479360647075928, -0.32072247340545323, 0.16263846104232962, 1.1642668990765297, -1.3072649173314992, 0.4088245238533347, 1.0001240312698594, -1.4661836729432365, 0.8682978194755687, 0.7886973222844622, 1.0334438314761878, 0.7108573922855762, -0.12710571128471773, 0.2671884567801898, -1.253745071054039, -0.13048578251748938, 0.4036463604426075, -0.5908398176763694, 0.17444881354998334, -0.2547390332377661, -0.916171895822644, 0.8353188900869161, 0.3332803882594922, -0.3172999455225104, 0.2251101010234773, 0.03247683827947402, 0.12419913206205493, -1.1982502048191743, -0.557719103381031, -1.385882062090443, 0.7986735599975553, -0.24478420503075343, 0.42853021718544526, 1.3637825833344939, 0.04333047657450212, -0.7961099148063547, 0.43725905781102953, -1.0383285898262358, 1.848759095802364, 0.20567106288396186, 1.160420120580172, 0.3765951824315312, 1.4580330090484366, -0.32478575631065476, 1.4059416521534458, -0.42263315278838687, -0.4679526610122635, -0.9970058746312773, -1.3207052857607926, -2.5211586691777477, -0.22634474259854076, -0.6207171123117744, -1.1096746276443787, -0.09308287340363533, 1.0379033149160792, -1.1976336351155972, -0.08092284077098673, 0.35005394802021506, -0.8053880170260895, 0.20502378486848902, -0.15974413318037653, 0.28611560438220174, 0.503040146145266, -0.4083819324497283, 0.26959574686679016, 1.3589485893045956, 0.6072468711135764, 0.34455402508102173, 1.0789423482928344, 1.8832123314034492, -0.31732840921513833, -0.15394092691446495, -2.4208066406271422, -0.11497008561342564, -0.28346741322479907, 0.5993577341771483, 1.027700086785725, -0.5524419976410524, 0.6911257233361991, 0.9679640306163663, 1.3936594359807941, 0.07744981705193235, -1.1935941506828422, -1.0284285257415313, -0.20543309946133168, 0.0469567598440381, -0.30710915155048013, 0.291250320309547, 0.11355649569321787, 0.7840769017564068, 0.3266420703942057, 1.1649500799587398, 0.7186353980040587, 0.5486295284057173, 0.3043434611926251, 1.4625863981959433, -0.001336873094779863, -0.3239258496700475, -0.4298823250447822, -0.27048169490853124, -2.662171668924104, 1.858475007373067, -0.32335925435565704, 0.03032972381664621, 1.2509336686196886, -0.594243287579983, 0.45596252826029904, -0.7059364530539616, 0.2950770688571034, -1.0374655938193382, 0.5143921313342252, 0.7949559685716271, 0.9920924833178925, -0.6535832958385861, 0.4220351472307922, 1.8586068376680231, -0.3738674858488169, 1.630729100985145, -0.5182703935503313, -0.7036992341377917, 0.4579616735884153, -0.17061704958522989, 0.10505587102381654, -0.04266006888279735, -0.839036214576189, 1.1118163849740388, -0.19130263071416534, -0.08271586266886014, 1.2639686004043127, -0.9966828584251967, 0.6575198723181258, 0.24546963585471374, 0.6953034840050369, 0.32339667844200376, -0.041419440102847004, 0.2457217981293282, 1.8434932539331017, -0.8157628567591731, 1.549780687598298, 0.33660509096860114, -0.3086781933899705, -0.49021017350944646, -0.8315822698147657, -1.3757817291120167, -0.7040200152289706, 0.5491799652051155, -0.3753782683825887, -0.6100836947563427, -0.6096407658875593, -0.7387271548317232, -1.1021007976255148, -0.06454788436856004, 0.5552540307360948, 1.0293543461404366, -1.7477275731402837, 0.6547513765753822, 0.34678762401103386, 0.3390597184783814, -0.37781923218782076, 1.9889795381029807, -0.20464697461761377, -0.24119725317285612, 0.6153475694349829], [1.601523567645231, -0.44575723311926435, -0.4381101119873818, 1.0369127751680216, 0.2717243595717095, -0.1256372319525182, -1.2824004707208012, 1.5221071038525213, 0.7188746457200496, -0.7358122393229137, -0.44526755584196065, 0.7870091440082644, -1.4834148774080058, 0.88665616694782, 1.2263085870208241, -0.9321228562584863, 1.0677245295907534, 0.4757806240590113, -0.6800474972339279, 1.0580557990865098, -1.6751801887476936, -0.6233890923837492, 2.0325105703181205, 0.09592068369716951, -2.1510434134293486, -0.36476592751708875, 0.27426487085804047, 0.9813224364426705, 0.5127397084274481, -0.28337720451219356, 0.5410017127817172, -0.7412319314265107, 0.15110917063380577, 1.9931261548116312, 1.7068312680169753, -1.2484988790340255, 0.6199470944459878, -0.40177414549425655, 1.4603125219776392, 0.797793675530144, -2.4885112438155446, -0.8157977973179218, 1.3048227482372876, -0.2149339863424971, 0.34041549519248315, 0.469225799607798, 0.3309018033428313, 0.6307384050779516, -0.9025762209375094, -1.3554320465525385, -0.8341859729621259, 0.13703176082735607, 0.0024000388575493715, -1.419446679601721, -1.90149341994985, 0.04817590104276307, -0.18380177609787784, -0.9439650707595603, 1.6095960438406263, -1.7507186974229123, 0.7266744068374167, -1.71549094121357, -0.45926235742926796, 1.4857884373907857, -2.3463663703749447, -0.13781684488671042, -0.05912355926512057, 0.660039748007052, 0.010535941476092546, 0.1902371524551316, -0.038011051381980104, 0.8727354838739086, -0.2580471911169083, 0.7503319088390836, -0.1473192130941059, -0.2716676526564725, -2.230259688810106, -0.5938076641374944, 1.10442163382571, -1.049696363250943, -0.9117699392961691, 0.5936293794206682, 1.2160081954064603, -0.8777398762597826, 0.3180411522121835, 0.6196570631471265, 0.10033392703013706, 0.05204895208038426, -0.2099244343632688, 0.8326421951389337, 1.7457957777304633, 0.8891622911136303, 0.6807820068852636, 0.6099793877751029, 0.7359492132503793, 3.009728918031158, -0.08972298982695978, -0.4310094491134889, -0.9116704692639721, 1.011808005240981, 0.9283344069729795, -0.6511415045286604, 0.03922212731278242, -0.9254646737061979, -1.376586487838806, 0.8622993664533094, -1.8409265473014498, -0.28114739105219194, -1.2892557497427637, -0.13765446701862377, 1.536891236500688, 0.37058903822164246, 0.33157264132534386, 0.7474760076263145, -0.6586284471565559, -0.7078947537559647, 0.9329697769732964, 0.14585726670099536, 0.5757213983976742, -1.4061113248165187, 1.5298101414668723, 2.158032411090433, 0.12482973998603192, 0.9482084983288176, 1.626802265032929, 1.0378745883018015, -1.3312138015628399, -0.22596651049493882, 1.8933811573568022, -1.4972242863487581, -0.38566803183662746, 0.22734454090373132, -0.09654426536870558, -0.1311063366840553, 1.3051296254951668, -2.6206855282914185, 0.12458524196083257, 1.1272429076203074, -0.6975252339008629, 0.09485170331386189, 0.06503210206999115, 