{"layers": [784, 50, 10], "weights": [[[0.0377034679805456, -0.04816966890653858, 0.0035723742675162103, -0.06246640358548411, 0.025877800034948946, -0.06435480181168361, -0.0258439889566697, 0.005067302554898472, -0.003623247970130726, 0.009166238647870858, -0.04449556184573412, 0.03739538520220008, -0.020792584835081777, -0.033174274801723115, 0.053391487529210586, 0.04624835689893944, -0.07104388278934416, 0.0003321556672988908, -0.0052950472151181375, 0.05508555435786355, 0.01578068616393445, -0.03377402720175137, -0.019366506529583223, 0.0040190970406120225, 0.029588304414106627, 0.03222912316617541, -0.011346531596960297, -0.01321230030148132, -0.0013521216986645116, 0.015092286222305159, 0.034692122779131904, -0.0034034104635309306, -0.010592279186353299, -0.012846029116041251, -0.05737118036591887, 0.015672717397983694, 0.023408421017269948, 0.026605157507761303, 0.046753716201913015, -0.00677509722649177, -0.044159634369646664, -0.04857198551018994, -0.01378560445330732, -0.00040176142059526195, -0.02853589582284149, -0.046864691457392915, -0.0987628080183161, -0.05150582798872247, -0.027843920948807683, -0.06517518607342816, -0.01858571297068574, -0.05314234978580425, 0.025022906681444485, 0.022281129533569134, 0.006364748975248762, -0.0032882219403226856, -0.02722400777468607, 0.07082872400450892, 0.012689266188694382, -0.004829937343623818, -0.005901652063517465, -0.004656736891810336, 0.03836024634165377, 0.0030108337053572905, -0.03825894414942887, -0.067545230069831, -0.06927063948833943, -0.0971324593796915, -0.0758757937957887, -0.13266516944320092, -0.06863689652199254, -0.034157421381766626, -0.073461656707398, -0.08136293675099106, -0.174899763267234, -0.18970796367698656, -0.16848792191385764, -0.07232067415596806, -0.05196598032413031, -0.024245776159550675, -0.007363708995723911, -0.007985574915232973, -0.06279207884742487, 0.04293024583707925, 0.0008214104743204732, 0.04930549982896185, -0.005314456807288139, -0.0026339725099003377, 0.02266737087944012, -0.011922022627060045, -0.03806012931093195, -0.07120275173446419, 0.002945065637051626, 0.011010878960176485, -0.006653797185170025, -0.046084825286543674, 0.06281353953865972, -0.029399521063853316, 0.03655070585584669, -0.015667484412469904, -0.02138712806678024, -0.0951449380912602, -0.19569493367887536, -0.1953767360958414, -0.24523778931905008, -0.15465795461267132, -0.11204396239064103, -0.1850587201506148, -0.03266618589927764, -0.011465269031193541, 0.018410376800663035, 0.009062002919889917, -0.008552708482196318, -0.026981659507644286, 0.042832029511960856, 0.038433797565265694, -0.024246877028069724, -0.02747599497588876, -0.08387795518779592, -0.06792435367423018, -0.08182393893247399, -0.022604925405062346, -0.12205260001014337, 0.01441665584458716, -0.01810736155878855, -0.001442411144387043, 0.005660633424745967, 0.016967081743418395, -0.17240203030229762, -0.31641124305494844, -0.2823795902425621, -0.4297579111552912, -0.36906554415874143, -0.3010310350269446, -0.23899261540459096, -0.07687405144871198, -0.05323476566948418, 0.06576073768043326, -0.032364573807690415, 0.025174440219904847, 0.050014715866497604, 0.019607325345348873, 0.008779092700883387, 0.055793751314748015, -0.03770310058222998, -0.011519544143197528, -0.035062928599250774, 0.027792959666428228, 0.006035532606644638, 0.11540830199704591, 0.12446521850886039, 0.18895824325731442, 0.0764340385001988, 0.09392495637084482, -0.06491759122035677, -0.00011941281034730758, -0.16204488116279459, -0.3170364635283837, -0.39614849380478095, -0.5201572337557988, -0.553090355365176, -0.3775397330976007, -0.16917036128685278, -0.10933204029562654, -0.06212072016036831, 0.04969589397499899, -0.036427656401860756, -0.057121430406930934, -0.010488812323577812, -0.013039654935193339, 0.022040406088588708, 0.044155380047580135, -0.07626087946253743, 0.044219586281281385, 0.06395655258853661, 0.07626816365028911, 0.07026418351730017, 0.10688254142028417, 0.19113324475336316, 0.14490085272620107, -0.021459252136573126, 0.15938779733714917, 0.10759015364600134, 0.06172107730738101, -0.0663432820298859, -0.09559332218323269, -0.11382986337475075, -0.19788596921855509, -0.22038874819273996, -0.0620135318260479, -0.10395448748983521, -0.008373609511358389, 0.046996221378133474, 0.02081481148249053, 0.029182930217041367, 0.012378885962021288, 0.052742715763805174, 0.04452532501200105, -0.01663636649558569, 0.02505905094540792, -0.02473217278708612, 0.0015977606385524938, 0.06863934814702746, 0.14066197734637467, 0.1640083881524132, 0.07771222240112621, 0.1203785814460902, 0.08517503174811134, 0.1372601347563403, 0.24344608177097182, 0.17503889044405369, 0.14101580514197676, 0.1257564451073117, 0.06622142006769144, 0.03370189008065209, -0.0391283017077526, 0.15055499417649254, 0.1719977447949899, 0.19285123255490408, 0.09836688317279732, 0.09941483304924997, 0.038810223088261105, -0.014369441360950344, 0.02009344664710716, 0.017553083004003447, -0.005137478927081928, -0.01833819702714692, -0.020454138227511697, -0.01746126831414898, 0.003791426718054097, 0.0652715054951532, 0.1145845036608179, 0.10114727629351924, 0.00810951594412629, 0.07015181697001337, 0.10162788486694682, 0.13795635883629506, 0.2072528338897016, 0.3764100968643074, 0.41321495688572674, 0.31804045241422585, 0.1973419636129097, 0.2890739679855445, 0.24979919674170623, 0.3314325069739123, 0.24380823739072002, 0.31826876260179554, 0.3429102840758512, 0.22737915412182574, 0.09113151030618732, -0.012817507263317431, -0.04563555627467285, -0.022331275499586686, -0.013752285558178357, 0.03228820480342163, 0.009612409109277534, -0.07592612485443145, 0.029047686451251997, 0.14557676788401513, -0.08015441755899888, -0.16196751614884106, -0.031873212760170654, 0.09928621835085037, 0.09387640439400141, 0.3500787545102268, 0.335387469479773, 0.520331293118834, 0.5196258480425162, 0.44282120413939713, 0.3891657165534684, 0.3161381822457822, 0.21023838862081998, 0.15191518430185402, 0.12599525149615273, 0.0928629970325385, 0.18467012925229534, 0.1653248742414102, 0.11692169346487226, 0.06503214398610631, 0.04011526159917573, 0.05728484788627912, -0.00325779460726539, -0.0570336632157337, 0.038733313490336256, -0.031806207277878105, -0.06818798736562487, -0.057037129219125494, -0.18816182031393003, -0.2545874507936928, -0.11876741220712063, -0.12453457376748442, 0.045995915204205706, 0.17758562212423654, 0.25052235762546166, 0.4223959122431434, 0.4215383398058421, 0.39884422920786655, 0.3818003618297437, 0.22463048901373386, 0.11296874604902281, 0.07190374221713187, -0.08971463721998871, -0.032815336475460026, 0.026487212476780243, 0.1583033587181826, 0.17802795683195247, 0.04236820838391767, 0.015029995024321528, -0.030437265667008623, -0.004036926116896984, 0.0014409916423375648, 0.09404323566495956, -0.06011216600041779, -0.12602284644819012, -0.0928098232603347, -0.18305770483841258, -0.2958403031176045, -0.24338876714564464, -0.3005302334197702, -0.14274986596504277, -0.15878520476897012, -0.20563544824877436, -0.18555330774425782, 0.17180938669468124, 0.23854831352202152, 0.17205349296990974, 0.21647498598111026, 0.110905952316731, 0.0150303008593948, -0.1719698840710067, -0.05587839556298614, -0.08870304187975507, 0.03913070988983315, 0.1489996062229108, 0.07443123054094156, -0.010957577126586146, 0.05023658819666902, -0.016968760119113656, 0.06914328750654625, 0.05369450760412081, 0.014170373969254737, -0.18786281705476565, -0.3654906769395128, -0.27574074936352416, -0.16902842614465835, -0.16157778748161528, -0.29226367803736975, -0.34146101836675424, -0.3220786955552645, -0.34259948485706, -0.3457829986797367, -0.10802410703716292, -0.1887786608603771, -0.03668260721934053, 0.051767966898418734, 0.15583809849545394, 0.07401845766557627, -0.11500980040923728, -0.18336332595598848, -0.2972822705278177, -0.15974217926352063, 0.055916949579176235, 0.014024923616499627, -0.06670521677939267, 0.038721507063044176, 0.03273102179913059, -0.02948122583719181, 0.015092099413286294, -0.0466092148139547, -0.172592879471307, -0.33203959432385005, -0.15927459593663532, -0.1369870112623176, -0.12090223037254008, -0.19432536462339106, -0.14024716021194775, -0.12606152579647872, -0.08903955803305451, -0.2714169882648621, -0.35096714432080817, -0.3270076583299398, -0.05538920243024946, -0.08338162484353918, 0.010143374941243219, -0.15240416563042533, -0.14141940980817375, -0.07827495054234937, -0.24848273466640022, -0.03562485591030874, 0.04147249112245178, 0.02369000922827105, 0.004948686748562445, -0.0006545648436271319, 0.05994928405306134, -0.07061546934270144, 0.034136869867434895, -0.017757929241930485, -0.050873484963470564, -0.10483518862622639, -0.0417180676747629, -0.016110620719286917, -0.06286325164634039, -0.05561477193216496, -0.06424658601288286, 0.006155629423941836, -0.19362494441535705, -0.3075604517539464, -0.19556289461826545, -0.14490232043978848, 0.1739215487832166, 0.07208005770468437, -0.007163983144891697, -0.03727050026167592, -0.22442397487779558, -0.11223063836935047, -0.07137420478467839, 0.06201185404185362, 0.023336882155698336, 0.0892682463502945, 0.021545169231882426, 0.006633884471859218, 0.051693784398886666, -0.06661418082785518, -0.02156612944757281, 0.06396276836821686, 0.0668185601113872, -0.04433109795491844, 0.018681061532837245, 0.15838840989174613, 0.0693426988159047, 0.10130393104213226, 0.04759691121665472, -0.07267053406034703, -0.31308369798168173, -0.4767658969718234, -0.024231883133567608, 0.09353570514118373, 0.15403842037179713, -0.037830985876343565, -0.1601688997721021, -0.0804576267534891, -0.02929840234084541, -0.146403709629958, 0.03592468085940976, 0.11214960485604333, 0.017329148971558312, 0.0875543734686024, -0.021327969831704353, -0.004518389418062006, -0.03347007998328752, -0.029419204290482417, -0.007109895070353355, 0.021723060740870583, 0.15733695296361813, -0.04468090151220137, 0.07557578800846362, 0.34363235219479443, 0.1914529250410047, 0.2843171140807715, 0.10431144468277652, 0.09453178786666128, -0.21756801829421277, -0.16649681719350215, 0.06053909124861912, 0.05683329282876239, 0.21373035718119826, -0.11987147154011266, -0.15160216482829944, -0.027858618827694092, 0.057965355699914844, 0.0982826254452442, 0.05407200793798324, 0.10237712487060563, 0.04930260687801035, 0.08415057192899163, 0.016296179086981524, 0.0737509522993541, -0.048697063284326166, -0.026309218395171623, 0.015502372338789368, 0.07454083207587936, 0.13596148717799522, 0.019194160491856453, 0.030389595305195354, 0.2349416092917264, 0.4062080300786941, 0.4197272023833553, 0.415234649033755, 0.2709767772626963, 0.013650271102317158, 0.04853160918540425, 0.16199614412115446, 0.020461560424490377, 0.029523415278824953, -0.25021929947307714, -0.19881098392394292, -0.07751822857279597, -0.0834861787214945, -0.02822391086295006, 0.0006438364009926445, 0.10676595227130374, 0.1515614674266853, 0.09541459308883538, 0.08134564121531179, -0.027786352137805188, 0.032533287816150065, -0.029503729975452662, -0.05074684084537956, 0.051708694144407666, 0.10795056531276044, 0.028854879124949398, 0.14124856230422364, 0.15751647705458102, 0.2744247409791262, 0.32840500933652556, 0.3508015515734256, 0.12273563247282383, -0.06385059777478604, 0.033918592362958196, -0.11743456569534064, -0.14528452149667243, -0.09656196299192579, -0.031819911388370856, 0.008715318791452459, 0.01646528448595636, -0.18526263630150347, -0.043364771924768016, 0.028014607213903163, 0.25267289704704143, 0.11427753900330624, -0.004982311613822719, 0.018542767347037657, -0.0820396422942415, 0.04677738041959385, -0.01012095042167811, -0.042680272729297586, -0.04981115284801951, -0.010322882415522398, -0.0410258734701691, 0.03116325928597457, 0.10411976549241754, -0.07149691779212763, -0.14565930210765962, -0.07801814758559596, -0.1403336824923972, -0.050174974266354665, -0.03258324175354436, -0.21118945155773602, -0.19211344441125486, -0.16521382399991852, -0.059548356287189866, -0.018953198892883102, 0.044577835795635144, -0.08838058332745494, 0.0051137433915431196, -0.029772771546311187, 0.1646471046333319, 0.1466160668923483, 0.054256315629591156, 0.00844952189225748, -0.00010911745491236676, -0.010961463358609962, 0.07868791650456862, -0.015070952190863017, -0.009141698315874002, 0.13820960256345458, -0.055651310808613394, -0.08767703731277031, 0.08671079324190373, 0.05817771747400572, -0.10962972517210284, -0.00015300815562977295, -0.0750428161049889, -0.08295354050782386, -0.2720651033559948, -0.19893770641059777, -0.1302581857739766, -0.1343447547294743, -0.16571137031863883, -0.11270145929036551, -0.04728330582565377, 0.018164147778575983, 0.059218990852256834, 0.03650838549739249, 0.1893235599515247, 0.06392616239718636, -0.013064207063193469, 0.021964064501256545, 0.06639547603075617, 0.012722090796563683, -0.0022657297439642845, -0.011103111435920989, 0.023189474674000902, 0.13468084315805914, -0.12859633097284331, -0.06091648947764938, -0.09905657358864776, -0.0230255225792497, -0.05798040686064908, -0.1754455465376669, -0.24641570406009167, -0.3461336525736114, -0.37609884437177776, -0.20348962499846995, -0.23018163731226413, -0.3504802614497667, -0.23947637267471616, -0.1389986123893956, -0.08455622138136115, 0.07538660232597869, 0.16140631974977226, 0.30393332092247166, 0.1596960040731497, 0.0396682446016767, 0.030007245109723163, -0.02154976653770881, 0.07428614916235819, -0.023591366307445016, 0.00866472025995126, -0.006453273987665932, 0.06691205074790837, -0.07634564068496341, -0.03162907328506356, 0.0202775526383619, -0.00040966994113698907, -0.03231961908885275, -0.03533734705612666, 0.051884172172587596, 0.02296425831826243, -0.1697430149461891, -0.12500807369650604, -0.2999494035357308, -0.2622512614618126, -0.21108214146107, -0.013478501674382833, -0.10293370326970912, 0.03373156248187681, 0.22074684658737356, 0.2743804308895805, 0.2310538307497121, 0.07534190620602166, 0.029388447035290574, 0.007430445424066429, 0.008231342148029284, 0.04603313232887375, -0.0018504044303094057, -0.09622308834212039, -0.02464380671360819, -0.06599175345443893, -0.012858911117050537, -0.05481422944018932, -0.043870963654146125, -0.04214036419689316, -0.1124606854424957, 0.09214118310079164, 0.09105444903972157, -0.015158861274034369, -0.0959086382371497, -0.06853432998135674, -0.2326830785940311, -0.08249523226395394, -0.08097802756967913, 0.01982813149699928, 0.07477761623265518, 0.13496429660479248, 0.21938358165281588, 0.21134293004154184, 0.10663892307104131, 0.015263531091943838, -0.014574792389522079, 0.026800005269191626, -0.04262972992768225, -0.007131025052731831, 0.024555280567224946, -0.001093333815937937, -0.00731098504012938, -0.018106954159090336, -0.008818518912897987, -0.13486041917823868, -0.1004182130384579, -0.053157415168535525, -0.020136388026525436, -0.10620998997137207, -0.07338557835235653, -0.08459380176779444, 0.020053171216836033, -0.006760988997601538, 0.022400479359237266, 0.07337805282098092, 0.140285929905936, 0.028467263032496845, 0.01256758607301872, 0.1319333918034935, 0.08643493244927469, 0.08400738216960577, 0.026276821797635495, 0.015128847808047428, 0.008710883067282285, 0.04206912625422337, 0.042664657229087945, 0.03535368103527469, -0.03530690608202216, 0.04480841435716261, 0.047591474291495676, -0.026784815711250156, -0.011219513135829553, 0.0010581229238039475, -0.030980998785103665, 0.019092624015111304, -0.05897204872904262, -0.08667735131022244, -0.021006694634883777, 0.02927375408046769, -0.023692796699263625, -0.007793003221580675, 0.18864394220773356, 0.16712483480200638, 0.07230344863930314, 0.12404540958758309, 0.05714999824370083, -0.012549343305115123, 0.07882706684681894, 0.020361142074400894, 0.0041743491315333345, 0.0406390728869014, 0.0317584916630881, 0.03333142961871815, 0.02301625258210674, 0.023935690187818943, 0.05552892112744855, 0.03589042611639944, 0.008474543763533087, 0.0511774548386582, -0.0511649203379199, 0.03444407063012197, 0.039404362649615964, 0.06807756727197199, -0.005223464242707397, -0.021076710223427032, 0.04396462672137666, 0.11101735701432183, 0.13767302363075085, 0.0717088878089384, 0.08736065587745317, -0.01169796248073467, 0.008110540106950852, 0.06012473327937308, 0.06980875757188307, -0.06048694693327028, 0.05929381060116176, -0.022503296945079337, -0.018606021528155457, -0.02941869409334474, 0.014799905562880121, 0.03570749485389446, -0.03835779321222682, 0.06842638744495448, -0.05113588870711527, 0.04423903428580271, 0.027883962876402685, -0.016642080604990672, 0.02593842694577415, -0.05464667592858087, -0.038443773318932006, 0.030858433574041784, 0.05840073192080563, 0.02577765204555386, 0.04332100588600047, -0.04152370090151603, 0.056788339023382074, 0.0006949705337243445, 0.052197284163467465, -0.011547544813792257, 0.06590694596562428, -0.06269614723892337, -0.021320586169878808, 0.009927985207948988, 0.01464782886326739, 0.005497074316165982, -0.007025379732813737, -0.012334200427796831, 0.015742923065403733, 0.051656727281788814, -0.05004383294956264], [-0.027621910114658237, -0.04223494453350485, 0.04792107956997138, 0.0013869018526733758, 0.014459354495880719, -0.004182637875562498, 0.11485918370578099, -0.03880380116461808, 0.016985512101888995, 0.0009771685578439501, -0.024078375980714228, 0.010130410377989134, 0.0040943400018289815, -0.0025746209180625493, -0.022499106066367573, -0.029324876614273968, 0.03894985111741656, 0.0025633992565365477, -0.06923790201841096, 0.01334536790778035, -0.004656962935705953, -0.036068446678290254, -0.013071981962182877, -0.046855833568126705, 0.022101880320025902, 0.0009567994576060331, 0.050214345649786, -0.014389262602494691, -0.055199411372652205, -0.0029283879255593893, 0.04315945616604784, 0.040377422287875074, 0.009616505455296834, -0.02965536385192409, 0.01674848998042378, 0.02528165608035941, 0.017983706365386043, 0.027113025369869273, 0.0017272304435405495, -0.042773284862505485, -0.041103187811236744, -0.006481266153938649, -0.06271396197373728, 0.03046784360670135, -0.014436251981319613, 0.009259854228485045, -0.014143923546843743, -0.03366066510479982, -0.009084962360661617, -0.017949239702369096, -0.003731954195833151, 0.010315699335221133, 0.010572376653057646, -0.02281097421615442, 0.0385506050729292, 0.0607829586390052, 0.02645554652163212, -0.015196952117374929, 0.004681943862971333, -8.799234760174538e-05, 0.06192674156439763, 0.05991177746853732, 0.05033917866759807, -0.07111338209450464, -0.017665495927641946, -0.020977290454299215, 0.05325595214343467, -0.03730658688862605, 0.026246743851804647, -0.07101561615444461, -0.08112372348006712, -0.1881720322973317, 0.014089463706942532, -0.03067359516279029, 0.019426848094725502, -0.013467839024138912, 0.06814351535414906, 0.008022839044862276, 0.012623056135332511, 0.01165560092177911, 0.019235559159572133, -0.006691187470137009, -0.07705554346116758, -0.044799834004065106, -0.02336690506202815, 0.030052999018378736, -0.039212835948709716, 0.06162721461674209, 0.0006256290167338235, -0.010360565510878595, 0.015583459745248345, 0.040857937094891605, 0.06297951988387787, 0.09584787174301575, 0.07476979638144655, 0.0647293357638667, 0.26128390360175757, 0.35501074657722614, 0.3254403500807351, 0.11588396008208893, 0.081865669300597, 0.13281795899561097, 0.03370375438135778, 0.12565963139843342, 0.21827158039920905, -0.03517619313481808, -0.12274397873991236, -0.12240269008308725, 0.0032674157143457853, 0.0005024142243960294, -0.015512876143632262, -0.045088069096311176, -0.02861303314993082, -0.04309106873492658, -0.018437151697756313, 0.0004761475247025355, 0.0256738427982773, -0.0005782114754535777, 0.07298658690004253, 0.10172514793473933, 0.19473199535782787, 0.20940530242209426, 0.2823684290759286, 0.3924694063624547, 0.3392287725589496, 0.14583622246067277, 0.05035396830573976, 0.12641481966996215, 0.15823263956311323, 0.1568057220855873, 0.18480732148837842, 0.16820607828941384, -0.09010345506517792, -0.051665544949543125, -0.06388401470192123, -0.018838266444112465, 0.018761960942267383, 0.019513675489454683, -0.01698741857828356, 0.012936884297846197, -0.006488017591267573, 0.02624032405862125, -0.05479596793618749, -0.0543873321839746, 0.07782364912259328, 0.13464761598592181, 0.13439599957153492, 0.2582018303122063, 0.3008304276597031, 0.35040687513222896, 0.4477268258687407, 0.33739313731353604, 0.02163363726651095, 0.1516984772537661, 0.009125221563473862, 0.08257250769748228, 0.21555617396297994, 0.22070460087829222, 0.378070758353053, 0.046617583547713906, -0.06174539447209638, -0.02400054412831146, -0.02427909958252817, 0.06309005898109633, 0.06848073619399461, 0.08389175014668881, -0.0014947768930883376, 0.024844480837674383, 0.009364165337615693, 0.08339892561855226, 0.04045777474835207, 0.0037433756872018967, 0.137805756281515, 0.2190012327425757, 0.2198724617451393, 0.14520927905056102, 0.2436795736944392, 0.3101865469661869, 0.3362379686082685, 0.25889170035838305, 0.15343118310891915, 0.353493651381052, 0.14416873615038978, 0.007164160590752812, 0.05339737081756504, 0.009653129879066505, 0.2949720405750762, 0.18557139203336753, 0.10709448504494044, 0.051367937891688274, 0.12372354389597315, 0.09732731012204494, 0.12444494242540553, 0.12159693748449964, 0.021603058774667012, -0.07023013559812233, 0.04413833776935751, 0.05202168650058844, 0.02494477966576342, 0.02945353115775296, 0.11482129616540294, 0.2897517460721414, 0.2214555234348731, 0.10413804507785974, 0.07201482372962927, 0.27829649748384366, 0.26121379505149667, 0.30235383653546466, 0.21673779590827374, 0.2878871820020621, 0.30874773151908297, 0.15496926086078852, 0.28670894541886827, 0.19206662341961528, 0.2449824909567984, 0.2574229323433184, 0.08705723392665589, 0.10966837299145711, 0.16878926180467552, 0.09226688313262957, 0.06104003408765572, 0.002721126029752844, 0.005711420161238974, 0.031955296715192434, -0.03806189943121338, 0.05621608516956276, 0.0629362215302464, 0.05327448130590999, 0.17463914660716318, 0.09568930979819915, 0.014069324913242984, 0.06761545328972648, 0.08865433276148647, 0.032099175281066476, 0.17791766620050456, 0.1824114310774373, 0.16484445477697549, 0.1488009069298564, 0.40193791520051375, 0.34075925441524996, 0.23737667056113926, 0.15929666438119003, 0.297211456876309, 0.06683996125090641, 0.011192410246941982, 0.006484594467742895, 0.1496070662695037, 0.04906251838037716, 0.06313765245258257, 0.11961431664619863, -0.05277131938268787, -0.03394898756963602, 0.024370387194868247, 0.019962168040593035, 0.01295536960297452, 0.03314098708989392, 0.17818252426281408, 0.16713482714537514, -0.008354122822008755, -0.040810549392292034, 0.0025116319826948546, -0.021436989444564743, -0.22525005028296907, -0.28067320383751077, 0.01778555287879105, 0.04570433879788788, 0.196643697836852, 0.17840685532608883, 0.1736694835165166, 0.2956466416730445, 0.014447018297629514, 0.028373227542435403, -0.007527603750927034, -0.019289818099006192, 0.04245434277464787, -0.06450808858071214, 0.07246962498497037, 0.09576931305671486, -0.03928587749227291, -0.0215693792434042, 0.012130238552623263, 0.016252486422559997, -0.000488295175266379, 0.04718774548996569, 0.0957385530665607, 0.02479878558626369, 0.0417240277759939, -0.1699248837213533, -0.12868980808199684, -0.2950003294346037, -0.5893073395564187, -0.47282528352266656, -0.39187543020783633, -0.18805838324004964, -0.21802283689226012, -0.2772113227571412, -0.1894125915053115, -0.06069367675995547, -0.3401475499531959, -0.27664774659871794, -0.11607380218175707, -0.0801576073282453, -0.12353724495000037, -0.18019127303917384, -0.03056562934047213, 0.08878374772536507, 0.02471393033674854, 0.0352513625988874, 0.024632626569046308, -0.03577663178237655, 0.03697225730383804, 0.0025788891924165953, -0.0520875359318404, -0.125331487297176, -0.2589316676717189, -0.4798672841377013, -0.4720712999522172, -0.5024368918037967, -0.5066820154912749, -0.38455112438031197, -0.28577727194041774, -0.26756985111598114, -0.4464814926126003, -0.5780290529444733, -0.2864662403958994, -0.12754737813543662, -0.011512390173252653, -0.22772571070884362, -0.20464296547137736, -0.3135935670080206, -0.3201782710694456, -0.22410558707119133, -0.18477917452094947, 0.03323477064479543, 0.01681391178736313, -0.05922831820286651, 0.030768491200216932, 0.03594210320555408, 0.01837612830367837, -0.06016390574992774, -0.11747469432011957, -0.23961467679005546, -0.42083028836592035, -0.586411790555244, -0.40954467002295425, -0.5380180380773912, -0.15760006339597465, -0.3200878201454066, -0.197050810784575, -0.20546434923624082, -0.4204358963729675, -0.43223653927850125, -0.20913158401055404, -0.20055852205621044, 0.09521873153206589, -0.032094341389644884, 0.006479174433557415, -0.25551053507151483, -0.29569961022111435, -0.27904161836650754, -0.19529187595642478, -0.00035478689592311207, 0.04483628889312305, 0.05952933289244531, -0.023904358525811804, -0.007909734624124592, -0.022207594354520674, 0.019370548563916266, -0.06708213370664151, -0.1808653880358039, -0.35963534322504953, -0.4117161053575291, -0.224872033964791, -0.16372438168343453, -0.028245522086485876, -0.019964731110500587, -0.08466647991339958, -0.12429629850536673, -0.242172151998106, -0.3617516074351672, -0.31788947860226513, -0.12772837923375754, -0.037295813542314864, 0.13078148920830554, -0.0035448843039290467, -0.11237519740723381, -0.19069586794525203, -0.25515151177604734, -0.12424420228428174, 0.06039134192877153, 0.06758594168440389, 0.03551607525479685, 0.0018907186273766751, 0.010188765555328693, -0.016952428241838086, -0.014432845886091608, 0.01924826523537487, -0.069272849543126, -0.21017374529268112, -0.2472781001084819, -0.3007332595170953, -0.1679292997927388, -0.0823263404196016, -0.2081088185122797, -0.20162075845655952, -0.09348668104382273, -0.099469880654559, -0.16034094377771704, -0.3133102988465591, -0.4332517801122978, -0.01146405869756939, -0.015117817738030384, -0.024995899722210467, -0.038351921104495465, -0.20754767351562217, -0.18803329243260494, -0.026113124624455655, -0.061172480254402674, 0.08691790196642471, 0.031040681226134504, -0.04498850818109739, 0.06582669603460369, -0.028382238393652236, 0.018085435453050042, 0.031878991716774975, -0.1944556491645655, -0.2632756519088282, -0.22623655150183003, -0.20246154815242537, -0.15490416326563056, 0.00045723635169928566, -0.15390078671617893, -0.30085517228914727, -0.27455966049674824, -0.29885314247479045, -0.11135247875284272, -0.35839186072029505, -0.44204671084261893, -0.18041617337975493, 0.022222767123047486, 0.21396835996344227, -0.0022105220433356245, -0.11925890092383319, -0.06617462141428937, 0.0276950480640518, -0.03951277061089499, 0.0737975063650599, 0.04800832071280652, -0.06142443646570825, -0.02394610681624838, 0.028016717109461516, 0.03426281016945672, 0.02647446604080946, -0.1542676912801072, -0.2815074544499224, -0.5082636890014983, -0.49242340142285757, -0.36453205156979146, -0.12881811525676384, -0.32634063884908754, -0.23004239621346115, -0.030943263636204806, -0.4514452172886797, -0.3997732377023955, -0.5771646639860257, -0.3158653759446167, -0.039046886519154965, 0.18253981373024275, 0.14186505495619559, 0.08855446944730659, 0.0937984675416467, 0.17825334068570786, 0.11113191302558455, 0.09955267235458563, 0.05878364990071153, -0.0065815526130470975, 0.008376965750623192, -0.0008539457007803575, 0.013763729373274549, 0.08516075768971361, 0.1383855834502656, 0.08694275404420981, -0.1493621688178126, -0.517372864104003, -0.708580413441425, -0.5742825956119478, -0.5355217332329028, -0.5422066858866618, -0.49551994698543816, -0.37336414433017406, -0.5353992935150873, -0.3896515675153189, -0.48004637930738875, -0.14182459321513533, 0.016828701325080818, 0.0804847816440994, -0.05091702229402848, 0.07149214200678337, 0.0323000386700945, 0.09645199860710237, 0.11619736317694057, 0.05370706083444686, 0.05726312563243362, -0.0033732430483993728, -0.042361104704794136, -0.000979990814453998, 0.013752299644806579, 0.023859846956107836, 0.2346048853472508, 0.1812560483797977, -0.04408934559402565, -0.29317253920513814, -0.4491628948587675, -0.4581571581132218, -0.4519324358984102, -0.6807207192460737, -0.6498329706572361, -0.6998201168022699, -0.4488163260878598, -0.3127428134722481, -0.0508898146995958, 0.06892505994850483, 0.15682306056791248, 0.07290429974588646, 0.01399131098945472, 0.31603195622054764, 0.2986015231150061, 0.19756697904847115, 0.14819239505051113, 0.00558675921931157, -0.03486315172186058, -0.00271081262195209, 0.01815359883948683, 0.02996365280051783, -0.004209669694596376, 0.055332511317667046, 0.27511857137447127, 0.28667466221623705, 0.22618922913642434, -0.0644369058999922, -0.14834664842319512, -0.24866480786355, -0.14734495194449634, -0.21806571053876972, -0.057934912667070106, 0.0009126396389580629, -0.0999785031774308, 0.10899970685410085, 0.18147959890541904, 0.23149239310228029, 0.3561674751396953, 0.19195883579240633, 0.18411590038109898, 0.38499732019478816, 0.32795565083775796, 0.1541633935500145, 0.1490877071811417, 0.07700451246345127, -0.0024876603441959027, -0.024675723512959703, -0.02638067603057982, -0.05170382468970503, 0.05507312565342072, 0.08973013901172228, 0.2709055630370131, 0.3574704375800052, 0.32919667425268334, 0.10763348296160616, 0.15998924640334328, -0.056761373784960746, 0.02685018828614562, 0.28354899901776737, 0.3629061674288802, 0.497203066312352, 0.3619563834270604, 0.53917680475826, 0.4451720008352444, 0.33363500999395945, 0.23994174887718311, 0.18150424359284775, 0.18569605916784127, 0.2064473423382358, 0.3088837636633259, 0.17648809827098685, 0.05315460048948037, 0.03363813089876624, -0.03215716151530248, -0.03936918771179416, -0.030444671260061257, 0.039890037374284246, -0.006354241438550995, 0.1240857854388375, 0.28376538261789597, 0.37514415916595595, 0.2785589988969292, 0.16760500265899222, 0.4440728008053467, 0.26381204291618104, 0.18660818703437632, 0.47144962247244815, 0.41639026085698005, 0.4335955155029382, 0.4388541456156896, 0.3682773739469843, 0.38378952515839515, 0.2872317856989824, 0.3358844549674301, 0.22026227730736028, 0.12532942340998485, 0.08194254259384935, 0.17626014540295856, 0.2468136093926688, 0.07178600894582203, 0.0792446413137437, -0.02449866615273137, 0.0277729357109126, -0.009817343545995524, -0.01598656181061488, -0.020006534060529223, 0.01665503538034839, 0.15008266677863394, 0.16800783042926973, 0.18305761863683961, 0.14720514937045764, 0.5038587814030274, 0.4068992382375463, 0.2684330811448972, 0.18217888376627062, 0.18011825049363073, 0.215983414886108, 0.2328388664636933, 0.18234710385430344, 0.18435264700963047, 0.13565356549290727, 0.07392811282793867, 0.15253019001911092, 0.12244227786458338, 0.05875777280679499, 0.14696597972776176, 0.08817315102385581, 0.09677267188888643, 0.052558121594556605, 0.004820242536492487, 0.04468434545560001, 0.005249325758975484, 0.04192975319924685, -0.05704832220610764, 0.007552140072590721, 0.23315830836611534, 0.18979777020850455, 0.2762774522661176, 0.1660987657530889, 0.01422576627636636, 0.2118185090285735, 0.28371063017441417, 0.28025543488896953, -0.05655402903839838, 0.020715727758199926, 0.00042996646955023663, 0.08312785916910716, 0.00856130270750405, 0.009810555335493366, 0.05743115592553712, -0.010661612301354728, 0.018476759846238346, 0.02612067095729766, 0.09213868891324486, 0.06092665649070435, 0.006434792606766548, 0.0013244936553025934, 0.04733169632520188, -0.02256184763936945, -0.026194105802724927, -0.008194236042154912, -0.026351335084859765, 0.06733671663104818, 0.08554536846949824, 0.15614296132620298, 0.2549326983016659, 0.3310341652691169, 0.14479879020880243, 0.2715325979424089, 0.27700010510055767, 0.23955469567232238, 0.2110898381598071, 0.21206438970072944, 0.23708093422793847, 0.2661045216065844, 0.14396339150160295, 0.20098324005707932, 0.005305411968834055, -0.2424789276728759, -0.22612008013693138, -0.1191518283211416, 0.023262573424999107, -0.016022973721476944, 1.638550142195692e-05, 0.02414667165451624, 0.017707436642778546, 0.024992617452033534, 0.060239767839288895, -0.021189567502311345, -0.0775991989633852, 0.011006613819457568, 0.03298573576843137, 0.05757688195146437, 0.009397898809869566, 0.19154111215369948, 0.15026532090028213, 0.27511214975555054, 0.23996260770299083, 0.2934979979160285, 0.38444060628329707, 0.25260601319091125, 0.10708767987580935, 0.22163879235795006, 0.2613526294712004, 0.1274991947826357, -0.05120094934130611, -0.12813928991724502, -0.12468624843433286, -0.023984745415282664, -0.009225714181129968, 0.015950292140360697, 0.08057588597463458, 0.04527216211454111, 0.010419471322177753, -0.0059379768518983385, -0.04541330178917554, -0.02248651575457195, -0.01278441628110799, -0.0012245189588145251, -0.009795343645267088, 0.006231124333280506, -0.026807890826522036, -0.06229751819921434, 0.09253489940743127, 0.0579752614601039, 0.0443095161116694, 0.05940425823347783, 0.06331877458171101, 0.040907130575641104, 0.05086333484497341, 0.1598827852731296, 0.04042929898994177, -0.033958419704590494, 0.025381189632348672, 0.003613450960339453, 0.030337557923552392, -0.03934873758196113, -0.0060830419401338666, 0.021958201814456672, 0.014239237863977445, -0.028174152356588433, 0.0011522876399811274, 0.0396862426736067, 0.01871220922723966, 0.05034261360188395, 0.0505184780973133, -0.027030203951069982, -0.0042430661639753856, 0.04261378279315715, -0.046170432603098895, 0.0597954162688572, -0.03874058161857345, 0.0022274194188541137, -0.04590015943844478, -0.004455876478388714, -0.005156281350901031, -0.05656218942444269, 0.048521243625212346, 0.011388571135427277, -0.008217955770595505, -0.005338134450017419, -0.025939980430818618, -0.03370707589610321, -0.006214962654865724, -0.025546390661443156, 0.03711804973649738, -0.009429230687372557, -0.025473883992369006, -0.08012789275899736, 0.04001972375070464, -0.005075042258242164], [-0.020009216087814065, -0.05864416528102232, 0.005651221391632523, 0.060961581182485756, 0.019022772576815405, -0.03309089180655409, -0.07519712749030708, 0.042749817659583224, 0.015897743065594525, -0.029706008352299668, 0.02016122036759851, -0.017807152896248565, -0.050822472334537815, 0.05422059041236894, -0.10515180348057525, 0.042846976446744615, -0.03813191753844371, -0.022012491845333555, 0.008725597448749452, 0.018320453448206927, -0.03982134286753462, 0.001406214982426142, 0.003238675587885042, 0.04484621183529487, -0.052696963036276676, -0.012823474942052895, -0.0742142609953695, -0.043969594103771985, -0.016320102302802866, 0.02427242966033772, -0.01780843109976532, -0.02517396926376288, 0.041005372969384564, -0.021178102908197563, 0.04432315944465125, -0.07205090628568353, 0.04735456630881694, -0.014343615614841588, 0.03825702147145609, -0.04000985612925887, 0.05938517304943024, -0.007702372763291557, -0.019185588988471156, 0.07125616177964535, 0.022525289194210176, -0.05797613195559525, 0.0776734471877431, 0.006986573733888994, 0.010625973108398702, 0.024549495486480843, -0.024918572358397263, -0.0031748344699817303, 0.01695032756548849, 0.08671844104615144, -0.06531386406766024, 0.056111791313931285, -0.014438234045357505, 0.003057737406802884, -0.0026348715597888928, -0.020133345632559137, 0.05170931806759107, 0.01180338554221642, 0.017652271630111648, -0.028754755857146472, 0.025581024308590133, -0.0002998555704580567, 0.07333403310261577, 0.02743664078728854, 0.005456179077089772, 0.09226181993975953, 0.03521732091596315, 0.09121460113630471, -0.008416667157395705, 0.01123368279847152, -0.010355134976322511, -0.04703910932157545, -0.0051547413593142554, 0.06817510144600104, 0.03034891897747152, -0.004581582182639819, -0.038575708293693084, 0.04542738315482776, 0.044145873009719824, 0.05160457148809512, 0.06281325590445684, -0.0513923764663687, 0.014963936057018894, -0.01094147273653814, 0.04035783434195716, -0.03996917763613765, 0.0005043467144231379, 0.019431362762949315, 0.036010017273386236, 0.017240402161070544, 0.05027521400392378, 0.016072266803539247, 0.05628066754545016, 0.03304365301274961, 0.018038999806178315, 0.00877688566971588, 0.05691696002207991, 0.04908052443504491, 0.04922083158624771, 0.07141553299148835, 0.053067744136576354, 0.0017357032251593177, -0.06856015488357896, -0.025443013860489003, -0.007690128835858433, 0.02304444381499539, 0.030700525652905535, 0.0072045004754387465, -0.032049162776814376, 0.03587953008617891, -0.030007173073823543, -0.012632958409971619, -0.0005482792915230529, -0.000987687549374729, -0.007304038534233238, -0.013458902363131183, 0.03429718932170638, 0.1040411152047966, 0.11039495349828728, 0.1588311257368611, 0.13679652514090648, 0.22311463165092302, 0.23431688110891782, 0.20588435923049203, 0.18344776803861604, 0.24673586818584542, 0.14092481346525695, 0.2060292689569759, 0.13373603005506346, 0.08500167202504151, 0.06576444453029155, 0.07882892547637772, 0.0809882573940254, 5.578466464754471e-05, -0.006400662336551245, -0.005873367346249087, 0.001618649241738688, -0.015366949002005529, -0.028982219169091106, -0.03662904940793072, 0.09483630883495318, 0.06340236037172106, 0.09101655228986189, 0.16416268696214215, 0.11190929021108371, 0.045508836508755854, 0.13767028650346794, 0.11701485171487175, 0.24750422194106253, 0.2352073018178077, 0.30850044285889006, 0.4164692172446817, 0.5561076394679714, 0.6255880933143719, 0.5358132288253044, 0.45585013164544796, 0.19195782154764268, 0.23022186121811253, 0.1826677667317505, 0.1630092373449857, 0.07276737793567226, 0.06556290415630639, -0.05534823421853704, -0.053345578932939994, -0.0002686794359188833, 0.013345908704636153, -0.015096156957610941, -0.07308074302027953, -0.00414248754421368, 0.03548139587230406, 0.09184076593718214, 0.14332828399581324, -0.005886038668669202, 0.0012056968890652431, -0.004808122541039651, -0.07794682682133373, -0.1124049983240411, -0.15334194893613262, -0.007221713625080173, -0.0022488449399778376, 0.09559442189215667, 0.05638043488529951, 0.1506247737440895, 0.10865469793193103, 0.09282779863621861, 0.12880612497247362, 0.23816880660698608, 0.27164987326667533, 0.03987025783952021, 0.022047945572571018, -0.0038163647130032654, -0.052773606879001754, 0.03190362335342161, 0.01295269745139177, 0.03307900357107957, -0.05543348268151696, 0.09213179497968256, 0.11237161872754906, 0.08332058959747546, 0.10158708886024366, -0.10151303448923261, -0.1426205505522507, -0.08150342731056022, -0.021018983063413762, -0.1664127122344487, -0.19996843840888268, -0.14156788417206537, -0.15821669600530652, -0.2844438552229127, -0.18758753222240795, -0.07611981560462722, -0.004535141896897858, -0.04955057006231434, -0.04235201681739504, 0.10091255060157657, 0.21301119611396752, 0.09673864904989085, 0.059759083900629, -0.017430925325700636, -0.012694715855733237, 0.027938312050355293, -0.05851388315610382, -0.031917480835120256, -0.030782386416769912, 0.07213358388314292, 0.07137943490126171, 0.008065971287461143, -0.13361832649826208, -0.22437137060732174, -0.06328687492380086, -0.06805131640061357, -0.20092505589128842, -0.15909701696801679, -0.0037210477374716054, -0.028373113026508683, -0.06427345271892124, -0.13662093021104224, -0.14018268674709183, -0.08540550422453325, -0.12364833023331066, -0.07861200712258616, -0.040649412156569434, -0.11524749240533057, -0.011705859737226232, -0.12373918802631388, -0.051166894742260494, -0.029472855586462475, 0.016469163954591973, 0.09032430457262572, 0.01660357119401084, -0.034242821113702304, -0.011740229050494148, -0.18285699827497434, -0.0727562690218823, -0.23543081460430118, -0.1540144794655943, -0.14540891942761225, -0.15986257896822803, -0.10012561241640487, -0.15716686981992073, -0.22016116050819282, -0.17920218999085777, -0.21997435129109208, -0.1570527865635549, -0.23718479628824451, -0.16029185128032902, -0.07757921297592715, -0.07778625218864313, -0.09501814544273603, -0.22643852186381547, -0.26532504526711936, -0.10617234375378203, -0.21480554656393153, -0.21256313966537826, -0.0037769381366429197, 0.014969393894242884, 0.032280124263248396, 0.02637209195553874, -0.058982540916815866, -0.1690391660953013, -0.20544215559920245, -0.14485668996430892, -0.28967118352593674, -0.09586896841173839, 0.04399097738849612, -0.07673868687925028, -0.058583013637850304, -0.01844957661479553, -0.12432096708197633, -0.28452702340108704, -0.31659843639067375, -0.2496497186696023, -0.29632104816589655, -0.050979296448682855, -0.09395319735510514, -0.13942134795158348, -0.2578355025758396, -0.28850505352806255, -0.16768589402587297, -0.18269448444187283, -0.1649354041382003, -0.25970088690336063, -0.05228058955126726, 0.017662003501621424, 0.022614377536505338, -0.018737011090294197, -0.08052442673639201, -0.2233591184178584, -0.2257504551060792, -0.06385750773301099, -0.1608341534294444, 0.028425318688457227, 0.034662616862642805, 0.04884162634445215, -0.0014811011172873054, -0.10924707821998034, -0.1902587636367012, -0.3507790622219852, -0.3706956751082641, -0.3645994951011932, -0.21019167813643655, -0.07437317354682123, -0.12555133134143556, -0.1189032743170902, -0.02165427464273009, -0.06550034582905677, -0.09742906216112622, -0.027427835311540163, -0.13394794338917346, -0.09262034103014291, -0.02613548132149733, 0.002522706636582947, -0.03188232900194869, -0.026094755077714415, -0.07668373650885145, -0.2179579906670161, -0.17815201605313483, -0.08210623950342572, -0.016090924396062235, 0.04077546567365765, 0.02856683043249864, -0.025508576974227416, 0.10604969698724231, 0.17328426784667678, 0.32879892118998516, 0.19536375510548637, 0.0857201858368791, -0.043462180938947784, 0.034956803990687305, 0.1487244295823603, 0.11232593692458061, 0.12335859922173842, 0.13186882297538316, 0.1605374590968582, 0.17548468423842373, 0.204954880669997, 0.1359912396317966, 0.01575449102589314, -0.039763756796432764, 0.02222995812777392, -0.026329730900259033, 0.03487821771671229, -0.1061612221795673, -0.1108188685378525, -0.09902557325959185, 0.007555890050157129, 0.12690098444851133, 0.30197201426570597, 0.18165363633124076, 0.2823554695424828, 0.180444774519549, 0.11779774460921422, 0.2508857925539372, 0.21480529312399324, 0.21363516244178138, 0.10318341667356752, 0.09632279396898619, 0.2593838885675158, 0.1768150946391573, 0.1111168915220508, 0.01807580059727663, 0.02333118448193448, 0.21097597849140365, 0.18797338787154255, 0.15476618276894435, -0.017143340592429883, 0.03558681740979726, -0.030436071826596283, -0.012243354840519098, 0.03344162701561988, 0.019882457567563856, -0.06101994982447816, 0.012162556084491629, 0.1840617559251883, 0.2302682345947889, 0.33268588038062896, 0.2881740810335527, 0.1539695757197464, 0.10935717384583937, 0.04664382944344167, 0.04608297610057248, 0.12220562327306558, 0.2579927755985318, 0.06162768690238379, 0.07453201167631773, 0.11264011269929398, -0.0977346274210175, -0.0842553075707805, -0.11710302471453841, 0.010952235206786941, 0.02064581627146741, 0.03038211512343543, 0.04873895388653961, -0.024177406769238654, 0.0024127798565339613, 0.05110512499542272, 0.05485349289287786, 0.011684650660206184, -0.028314556176686812, 0.02839691550474612, 0.06245966092764483, 0.15068872440033698, 0.08117040386621922, 0.23145202067142154, 0.07713367788221673, 0.0027230046102086716, 0.01357216915182361, -0.18855708549969344, -0.005416578351704625, 0.1422540729935218, 0.18429721819643788, -0.22373185045462096, 0.10052653447738723, -0.1058117654549051, -0.10061883941194989, -0.11664505505829227, -0.16706664442426666, -0.07214200651581694, -0.03821792917935308, 0.0585340865448174, -0.0023544304228207587, -0.005273392317454803, -0.01999568847458963, 0.014241720448975845, 0.016499502163168797, -0.009365743380098155, -0.0008379283002683207, 0.02233745305160465, -0.04607358205531633, 0.041108325215927013, 0.04004463962508425, -0.046325358568432576, -0.05893715459473296, -0.0299744361836198, -0.12204366250029222, 0.04071773947580321, -0.10840715933397117, 0.05979760325887158, 0.2770529090958568, 0.08607453397208191, -0.006269826796308799, -0.015079259479579681, 0.06836815268537517, -0.10906174812321906, -0.04776826230844392, -0.007087899615994244, 0.009642122124165976, 0.1420695002773101, 0.1348949531835444, 0.01881020021087931, -0.056405567954844985, -0.02684737960425496, 0.005231866801281708, 0.027061452781424602, 0.01937025339146412, -0.11821279863214701, -0.04659223044157686, 0.017063803282321637, -0.04711114249809534, -0.06819819726572741, -0.05677171661319116, -0.023588483470880838, 0.18186980052744842, 0.06352964590310421, 0.041746116228997626, 0.12477176784627898, 0.18692301280529752, -0.09677031116889444, -0.1571673675858707, -0.06814364990779748, -0.08315140657725505, -0.07807582047234464, -0.031822155487640606, 0.15418446954735038, 0.04006613248546587, 0.11738226201305409, 0.12124779654022175, -0.0026909059860610535, 0.015396963075390726, 0.025213497435922817, -0.0675059942172572, -0.006187808817510522, -0.050352795939989016, -0.09196414213414358, -0.08514925925773471, -0.06563600112169624, -0.08214154844942213, -0.1140948016850392, -0.0007037404215828899, 0.13004563638557506, 0.18264720085197514, 0.16290144443379934, 0.06823536485679159, -0.02122662244713209, -0.06740405819317286, 0.0002442772832901339, -0.018054125804698076, -0.13553225372174987, 0.0638882840493956, 0.10712623367968105, 0.07546929868993514, 0.10210461093908928, -0.01700814287142707, 0.18092445166895132, 0.07277362863519297, 0.011555158598864735, 0.037463782746520895, -0.02263638936960624, -0.016301544696767, 0.00236865776184656, 0.025161439465307772, -0.01271509219532462, -0.09472425433141968, 0.09482184774974187, 0.18563381641003543, 0.1863903493186058, 0.04434331353290424, 0.07493234216758056, -0.0018245067767170163, 0.07086796289411242, -0.07998560335618408, 0.05309060382771658, 0.10295389065816121, 0.12995352928105902, 0.1809521745115442, -0.00267390846228162, 0.07626552508480822, 0.06343443441136928, 0.020277834912946015, 0.12499179560346546, 0.05362506920173824, 0.08343597017435073, 0.054756684224794426, 0.02242400177191311, 0.037124348707093344, 0.014982650115230745, -0.014529376732421603, 0.044955657837055955, -0.029101555072129293, 0.015439706383693581, -0.04322930164900433, 0.18164499036585122, 0.28224911256208624, 0.35030705763346764, 0.24572440272063945, 0.025967989299623243, -0.040708436876611735, 0.1094750286528131, 0.09734595457244521, 0.25464696437118584, 0.3113322293678778, 0.200138590456946, 0.27698564009433396, 0.18030178395061985, 0.19279090013285746, 0.14122422375221041, 0.11279941334958238, 0.12196660036320847, 0.056764040984057275, 0.0694063231953389, 0.05131183320293106, -0.011010483264233132, 0.029339874054162107, 0.002508171887878405, 0.030391063755102338, 0.04664751269572645, 0.002176141992194865, 0.04181898335700289, 0.0972599718492089, 0.19877583297381196, 0.30642733879499656, 0.38801291704910346, 0.2812001164859874, 0.17675307134205873, 0.24616501113270653, 0.305235765752228, 0.20333129974639244, 0.3351433545318107, 0.2874973621512979, 0.26011359758920605, 0.24065462672575202, 0.21704954924716444, 0.23251410412919163, 0.16423864537059646, 0.03921066355683306, 0.1164724670772621, -0.01800859238152631, -0.029745419861067327, -0.0779937027961824, -0.05351493449609658, -0.030221184454930508, -0.0397989167861024, -0.0480958685432765, -0.07486536896174004, 0.0026475993534370752, -0.06648259184955432, 0.09582061184657878, 0.08092558940973377, 0.22314356697020765, 0.2575244751522876, 0.22187704726790886, 0.20812073274717052, 0.21547919788578732, 0.2603084755440356, 0.2149076166302169, 0.31740621641369104, 0.32641457868789564, 0.2520277300947511, 0.2783639541751317, 0.3570965272380092, 0.2526031853756795, 0.17534867880821955, 0.14751715971933035, 0.20728002465243953, 0.07810569040563489, -0.01871541071033437, 0.019673858311046104, 0.0317496414966056, -0.03810776201167936, 0.00946931518791216, -0.032862839266013945, 0.045880646588451514, 0.012420530974281335, -0.001404867008844124, -0.013615188440402147, -0.04171594010006693, -0.05463409866003681, -0.053880425231572805, 0.18137335311577932, 0.26085480164345476, 0.21218107100183384, 0.2537819794183238, 0.20268089719418964, 0.13053925356222146, 0.27745788865423276, 0.23023558355830895, 0.2486104356693706, 0.18082827014423358, 0.2304245144869808, 0.2329851295422547, 0.05144638967645094, 0.12421837538477903, 0.06635383325532124, 0.04169586293491243, -0.02122495002541448, 0.004129163605798203, -0.041631258028809834, -0.06140721401596226, -0.003584200984408908, 0.014431234114205821, 0.023678256607176536, -0.05406764229649048, -0.1732053439294957, -0.1828543328377121, -0.24101585537659384, -0.21277287007393356, -0.03020982106503243, 0.0722265143342642, 0.03171940193571478, 0.0011243198770763702, -0.021327019163746387, 0.0445370067256802, 0.06378420317280596, -0.015523246363477641, 0.062436982676671034, -0.07991394604336041, 0.08372295527553708, 0.011606982950687843, -0.038194681030290216, 0.06465480420955771, -0.06891920637360037, 0.001335419563891122, 0.003264095513178636, 0.028536209639395578, -0.03645903750420923, -0.028859868292176818, -0.007336261137263142, -0.019983432969032402, -0.009299531397691815, -0.046657069295894325, -0.08700631358127212, -0.15148665068337544, -0.17990821515715866, -0.16725364933809503, -0.11548879338832015, -0.13469733200846273, -0.14211057381761225, -0.27387354978946465, -0.3242919029848518, -0.0947590415381821, -0.11660484493349692, -0.11942908737730817, -0.27925100030875766, -0.23254437143369255, -0.16643032712342393, -0.11942935978049396, -0.14012905794220124, -0.09297479093225357, -0.02579970588931287, -0.01021455323383886, -0.018017733926953456, -0.023033162555752613, 0.05682798878514277, 0.010210843806198225, 0.051879467103293574, 0.02891668225079752, -0.004255956960501425, -0.012705261631831876, -0.018350225012322478, -0.04190970768875766, -0.00536407699034943, 0.006355748608059144, -1.8986742623511985e-05, -0.0689368887531552, -0.004618546004652249, -0.09352960627907718, -0.07428075652084497, -0.1224713434703542, -0.13333876883503365, -0.1244359409673899, -0.09376594154211722, -0.025753790533022566, -0.06798872746524677, -0.12037152772307788, -0.049902485274604856, -0.007202593922097319, -0.042342611075127254, -0.021295721747370037, 0.027565039207560794, -0.08726348012670565, -0.006648516940704041, 0.0660688756690092, -0.017569478291486525, -0.03648602741796813, 0.012148724617004295, -0.013150752239999704, -0.008782143379967295, -0.010657798114401576, 0.042392415271730745, 0.03007760701754976, 0.03805572227686235, 0.01697770815564493, -0.019407927554569673, -0.04259430717903306, -0.01141700297443481, -0.12596932227449945, -0.0768243953807611, -0.01819156557982566, -0.07337405876466907, -0.0006062893051809602, 0.010789371715908894, -0.020911074312443278, 0.035916501141062936, -0.0636539272466477, 0.025817692716093157, -0.029821565377775076, -0.006216285210476319, -0.052828376237186496, -0.09110896152748212, -0.04030318001350634], [0.019450751225753127, 0.061429814200264936, 0.005029661705742087, -0.04827715905903614, 0.0024752297216277955, 0.043146170265011864, 0.0030263069868114137, -0.07758386169391487, 0.060121658701085545, -0.04117878486795589, -0.026608639097316228, -0.015221158222604073, -0.04050652742816715, -0.03441094128156963, -0.022936706506213208, -0.010180239635065771, 0.0004061947683445583, 0.041152204740185445, 0.003600044326995073, -0.05712348637630762, -0.04520282042146988, 0.03547483380876886, -0.0400735677562467, 0.027804301635924074, -0.03168115023330543, 0.022147370695193812, 0.034536650231234596, -0.02550747486505669, -0.030946905379918226, -0.05290234202593009, 0.07123804300670886, -0.0335020278027089, 0.060000114123275015, -0.01827678825611208, -0.0059249787439020415, -0.030152232425761344, -0.036866937077966754, -0.006448037706000692, -0.004677761064855706, 0.02082373667025896, 0.014326006410118577, 0.04096906560877652, -0.03753300558617317, 0.0431597158814307, 0.050351549889392055, -0.020493410127115076, 0.015473225384933084, 0.04679395590727682, 0.028445691345842312, 0.04875133768325338, 0.007284814066292449, 0.04219150731751641, -0.03670485606375987, -0.012547044830166717, -0.027832265086883873, 0.07373042234626004, 0.03166018368266616, 0.001165822522917266, 0.074379035342233, -0.023178748016317672, 0.016407536208929284, -0.02178354081937474, -0.02460273762193956, -0.03615783771624667, -0.04206859495175761, 0.016756605674587435, 0.0692922641630195, 0.08492948236849174, 0.14090034938737328, 0.1623313620568738, 0.0931816972904076, 0.14591865274042617, 0.08155754275734359, 0.10651681108973131, 0.08374488028024982, 0.0313439332358534, 0.04454956079595313, 0.07883789985764206, 0.060043727355157374, -0.022090521210305795, 0.0011535684074736132, 0.016644961143877597, -0.016034986011435524, 0.021317988779663653, 0.07328254588638869, -0.005171344697464992, 0.015071210794768792, -0.06329247260052186, -0.02612760859398694, 0.02098254025662673, -0.025721335768544164, 0.049400633852078366, -0.012447044656343425, 0.08743150823733865, 0.1720072381564624, 0.16864109157712687, 0.1372944558167418, 0.19711229229634028, 0.19660748181818014, 0.22845003874608655, 0.15330055897562095, 0.036080859600509094, 0.03409392156288095, 0.0958859508748884, 0.18190082644239072, 0.10518590373190193, 0.07771459551079665, 0.03740711924585992, 0.013409488179712978, -0.0037188839967902424, 0.08899077002428199, -0.013684066145807099, 0.02140026400553496, -0.004797047125591455, 0.01610442888189355, 0.03768729911154152, -0.03382096510385672, 0.06115725077212216, -0.04168626162707676, 0.013646701625977366, 0.004619889750927455, -0.013648855422127298, 0.002178245689685575, -0.17436585555290526, -0.1490467062235732, -0.07422831861541186, -0.031005526986253314, -0.08307615218887604, -0.05024580056236384, 0.04729008922574777, -0.06829387618751745, 0.04544234265569556, 0.1342864339157591, 0.1271898650711968, 0.15763969202414135, 0.0889765190021041, -0.03470079901533847, -0.09789333658081464, -0.00993732333990616, 0.015217791455698718, -0.015330046111773571, -0.01726229560574744, 0.024691821433245713, 0.012420613449220231, 0.00583581025656278, -0.06251219136938249, 0.004762217347845262, -0.019142503659303107, -0.046829994051917, -0.10107670611804438, -0.03621939745582167, -0.33516416773794905, -0.1796045747543921, 0.012100003414729306, 0.14238939958849753, 0.07047819385656637, -0.010345375242012065, 0.17981846830687895, 0.2927437747513872, 0.16365211564048313, -0.04025198656306514, 0.043968317310780686, 0.14233669868395651, 0.10405307820259298, -0.0455046921489206, -0.1827736845127972, -0.06328410583291788, 0.03842752050312732, -0.056175692405263836, 0.04409939483177959, -0.06104275151005173, 0.007417062502236984, 0.02627849728161867, -0.08066371347998837, -0.042681615758674685, -0.022615946046881868, -0.09572649309983616, -0.1315940944511227, -0.05830963321306442, -0.16223255848292292, -0.049652926665193206, 0.014704337727064783, 0.15329808456470131, -0.007328229951454934, 0.06350901536556176, 0.08660458539905523, 0.26330102105914727, -0.02037269113224417, -0.01626096238840683, -0.005204072518656971, -0.031478646935867355, -0.2609954366183973, -0.14564980364698094, -0.12741247523430507, -0.03962241578047593, 0.027465039541312634, -0.033128369957992336, -0.02534741746576827, 0.018734548230575635, -0.1313101003100137, -0.00847519205689169, -0.07524987699540985, -0.07871455716203644, -0.09286813107362497, -0.06365684055527066, 0.0022572474048220205, -0.1976041437193697, -0.09584555430782998, -0.12249615088823665, -0.12970543663573428, 0.10194661552469692, 0.03226415351862252, 0.01502689199579954, 0.032646009857458996, 0.06767366119872467, 0.054100136640156136, -0.1042171154585311, -0.09027646940765784, 0.0026229675093386085, -0.30515891862514344, -0.35750683278083095, -0.0408095984644163, -0.017745992940832685, 0.01920961614850656, 0.023620820592478314, 0.012918734730962876, 0.009173846208843818, 0.010374830270009766, 0.036593071647434285, -0.07680502253994088, -0.1894404627094501, -0.10162040225331592, -0.09541728223836178, -0.05338566275765193, -0.1812999512020839, -0.1602605164271783, -0.2752930559778626, -0.3363674945672205, -0.17558789606851372, 0.060639120788785465, 0.06409532102437375, 0.05700220629252977, -0.07645016155900988, 0.0030725901184805488, -0.055712759830899204, -0.06183013092298283, -0.18736661042816358, -0.41636397637006783, -0.4456673668494842, -0.20527894362130134, -0.08211545106870242, -0.038742799783513825, -0.028475144125202842, 0.04275293452917227, -0.04677431853951624, -0.0258587155374925, 0.02874738178863329, 0.015191668137209164, -0.16147378786643965, -0.06562280172715391, -0.05672521225102811, -0.07534664239370824, -0.05086285625455671, -0.0942675940523954, -0.2845663980767967, -0.2708898789541998, -0.20912582799607624, 0.2451687935799694, 0.269939539982115, -0.12687069272646648, 0.08560890783030238, 0.024367380368251475, -0.07675108834728288, -0.13583554178058793, -0.23807833182206203, -0.4020448391047899, -0.4144024579708981, -0.22900174276771512, 0.010181122754652121, -0.0472417967788812, -0.05378476210928132, -0.041038253596328886, 0.013046221603794955, -0.02320993944127186, -0.13528517020442232, 0.07156688483506966, -0.08771781339319872, -0.140538331857832, -0.08302099596089711, -0.03202589426131451, -0.20569683507094216, -0.220671781956138, -0.3778651890933874, -0.3814386284096095, -0.30518195731307135, 0.14442318417406425, 0.2659186926319431, 0.03148054575157531, 0.1037712913620956, -0.026296688228297286, -0.051831487851807884, -0.11021507401043983, -0.3690294819033983, -0.4485229602424027, -0.3160292441705005, -0.21031970108748738, -0.003326081588461979, 0.05098066152511786, 0.004951863467359908, -0.050624469758143074, -0.054661877947513225, -0.02891043322129416, -0.1376785701590637, -0.07662764097037951, -0.14227620988108808, -0.256965538077149, -0.1042125300775083, -0.1096450955643146, -0.10882644590805876, -0.35276703474494836, -0.42136665682900765, -0.46306441226259265, -0.5112869335639431, -0.09819663750199654, -0.02461115647328667, -0.12735776439754562, -0.1091541933686378, -0.01892652971083243, 0.05809462364656026, 0.1217588680889893, -0.23352825289599902, -0.25842040845269826, -0.26437574327241564, -0.2086251137077459, -0.07839437401445402, -0.04461013718412527, 0.029804414612132242, 0.01135450031113296, -0.055499002377517, -0.010086249885050882, -0.10521552816974371, -0.07383306656572489, -0.19319931572658455, -0.26897233168704, -0.22106768833836848, -0.10699403166519703, -0.37133850415914343, -0.33251458471955925, -0.4392202477745334, -0.5152770506710967, -0.6136185488335366, -0.3471474054271464, -0.3022003275475547, -0.3301472139806093, -0.029916218950564732, -0.06131598192886232, 0.08881056717219922, 0.0008925631846412518, -0.09454946907872318, -0.06664309967589162, -0.04309877135403924, -0.08032831531928107, -0.07735319023059443, 0.0791104954750289, -0.02143211319106034, 0.04603186426891922, -0.06967104210931277, -0.0025586026768310874, -0.02728060027531996, -0.0931452476919696, -0.1311149220432885, -0.2013290195348947, -0.22035585697076876, -0.16768371612048308, -0.04411898368659918, -0.3093173248975429, -0.26579660777046327, -0.42698393570853627, -0.43676624548175885, -0.49181369150452403, -0.4513635723143925, -0.2768862420843199, -0.12805443302436734, 0.10649025167912277, -0.07356610307373199, 0.006930208042091892, 0.018984026949865916, 0.21970385485133934, 0.05308176063255983, -0.0048070337496127985, 0.0014941236775386296, -0.08028707956906553, 0.010545772716396005, -0.003008072857656275, 0.029261057283470383, 0.06104327057806826, 0.10950471208642172, -0.020288135391430193, 0.11264095956056518, 0.07778754433119354, -0.10150976919213273, -0.08756083817143463, -0.0671834794060531, -0.21353814800236612, -0.2125287465455886, -0.47289359396013697, -0.45154700572077333, -0.35741047226986794, -0.2864381334361748, -0.41657456980939056, -0.2245414350692661, -0.025465366620565286, 0.17002955053031898, 0.04258121732413496, 0.15124963398747057, 0.18409872056187843, 0.0452136135721683, 0.010488642273805701, 0.018721525396702555, 0.02240763415441547, -0.036438314820155075, -0.109213409029534, 0.05666025449922463, -0.004979469410710069, 0.022904982390387713, 0.18536399032730289, 0.22162228843427884, 0.24176234422695264, 0.2727706396121874, 0.10356600679411168, -0.20110549520079585, -0.24330161844992132, -0.3164824212868528, -0.28287971023010877, -0.26042048030296505, -0.18803545556811238, -0.17599745927384433, -0.4815753665795368, -0.33514136129548455, 0.08328103249652336, 0.19496547959881447, 0.048280617774485377, 0.011546732553459674, 0.10569210333022369, 0.059466392292815265, 0.021346076380139148, -0.025600068843084405, 0.033370032750830426, 0.030373113832532883, -0.03139680345853431, -0.03625891616812927, -0.05821941001265139, 0.08159710075778016, 0.27075141762625976, 0.38033416024783806, 0.4817951957730917, 0.28708977407666186, 0.25796467239367094, -0.012928013044842345, -0.01495142850643607, -0.3322079418642694, 0.07952842847026029, -0.15067473206830576, -0.2564863260310421, -0.3910996282217755, -0.419432329664054, -0.030942742745124225, 0.2545640977978536, 0.2837319042133586, -0.0013464209887580315, 0.08534054077097862, 0.026505775128490727, 0.13097293253307044, 0.05910837463468848, -0.03845580971523844, 0.015581291588027643, -0.0354134122411651, -0.0231446271187251, -0.052449109699385536, 0.047025226338276424, 0.04675651079758505, 0.24023725598627982, 0.30686402997845463, 0.4057879100037942, 0.31372762406305804, 0.3799312874639228, 0.6323046289546862, 0.2881809355314443, 0.11109261550636781, 0.20356604254731997, -0.10481882668532544, -0.29753199725770935, -0.2901817497315171, -0.047744659850059, 0.2301173505285085, 0.321426219984313, 0.21585532590868114, 0.01769994466620623, 0.07288617723906377, -0.01337701837616432, 0.05820489565056828, 0.18209131454977862, 0.0035150683759025496, 0.01904983964271904, -0.03441653504937632, 0.05319964835676265, -0.026344070012862465, 0.01529153138593519, 0.07230408184705922, 0.09182136888998728, 0.13588625327705214, 0.17359472102823764, 0.3837503116266746, 0.49501944659618013, 0.592396046931603, 0.509962270419776, 0.49208309596396393, 0.2934838760320643, -0.04129116910098637, -0.17282586856878487, -0.030893858325613848, 0.26063181030803495, 0.3761899821825219, 0.2594663204662837, 0.14781291932711313, 0.15086575343752254, 0.11521961936819192, 0.09775171295938792, 0.15158243976482302, 0.14384127689167175, -0.03799991105079171, -0.012208161478778286, 0.004360029994267822, -0.029180696374500357, -0.04887100936130011, 0.08096117100053202, 0.14724572116361023, 0.023469214246745397, 0.060227868751460446, 0.18734066025498575, 0.22149654247986425, 0.3888015981133259, 0.3390444030832085, 0.7054325870124282, 0.827570231506623, 0.4756656787254697, 0.07447889296703131, -0.04805598822881619, 0.1691515764419403, 0.3079074597209032, 0.2634175923552205, 0.21788873021377755, 0.06688636530153143, 0.10955727772968535, 0.21448084704092715, 0.11488163482597069, 0.10027278304204845, 0.088333149219339, 0.07602247355476471, -0.010135547954056802, -0.05062304883767713, -0.0017750637921159433, 0.03896877604188393, 0.02384749771508899, 0.12571972683007668, 0.15713832846276135, 0.06190404623475476, 0.08081723981487852, 0.09759615184430066, 0.3973850476939349, 0.3030639371761897, 0.41307034769300605, 0.42713717867878737, 0.10183952194522748, 0.06761103210205675, 0.04168082865768106, 0.3697968613624868, 0.20246719004073654, 0.24730278466082162, 0.2584750087439525, 0.1920215569086993, 0.17401939234384503, 0.1455520725492114, 0.10450040739636506, 0.13862422617945194, 0.03201263223685544, 0.01583263501636619, -0.045715198593177665, -0.007431372353821969, -0.024019650560074414, -0.015485631975740008, -0.010330415980827196, 0.15297264976951488, 0.21274370390856337, -0.05459738034386119, -0.12065398474176842, 0.09869255724959063, 0.25782562620688043, 0.39449661126830793, 0.3155346614184713, 0.23812456369932114, 0.10262176855751116, 0.10675386317069666, -0.12066085654711516, 0.08239604790720774, 0.06593953341649575, 0.16579699901255865, 0.2207701740706252, 0.18534567711941774, 0.24133619672336165, 0.14173599682943402, 0.14099878279232228, 0.12760981601549598, -0.0269716085549442, -0.008825008767434387, 0.027425258389682853, 0.0074182136805217005, -0.05375158116920792, 0.02991673253581653, 0.00701323528934721, 0.13488021787173973, 0.16806161765360658, 0.00793484270260815, -0.1498107167790304, 0.05368558833495525, 0.27178009390524654, 0.1313331930321728, 0.006902609002219844, -0.11475943541311245, -0.14233669438702376, 0.08681684264247218, -0.02909606170207776, 0.07323001042513778, -0.01828568653407632, 0.25421210951559076, 0.11240767459866831, 0.2420086050018696, 0.16221301618727663, 0.14791807907939705, 0.10394524557475641, 0.07185358305672296, -0.02328387166376242, 0.06333320968158311, 0.018965146176995313, -0.037208839753108736, -0.04090883716181012, 0.04413883111089658, -0.0132834375411269, 0.05493909710352708, 0.18117888946313954, 0.10744364341646045, -0.03290925546256259, -0.13925944176516977, -0.19747185126882005, -0.1341075638022472, 0.01864956082971631, 0.013866892826564626, -0.0395535894921602, -0.0326701515598549, -0.1030966606015739, -0.03692098843678003, -0.055379169549497696, 0.0700721021038631, 0.1258023845281844, 0.09623785141263123, 0.06635596923128596, 0.13026649913187419, -0.030787782293188626, -0.022770729107562487, 0.01700140556429243, 0.04837363627016197, 0.006084519785920171, 0.010900529267155146, 0.03546953553779737, 0.05731313214663766, 0.001511993775616046, -0.009130824340379347, -0.0880992860741319, -0.1472194224862956, -0.09799702036534293, -0.21300320808353243, -0.2786941523414196, -0.2338974229430526, -0.1727907081896636, -0.09761527630961443, -0.20033327448751806, -0.2265307293341504, -0.23948289868138367, -0.04135408930856974, 0.006885491745588817, -0.016560935214817808, 0.02352107006772061, -0.038252554909907595, -0.0886843347808183, -0.0035274533709213863, 0.11692820707469695, 0.01873746079803485, 0.014014335339871604, 0.02325568088341076, -0.0647815796751793, -0.021910000436074457, 0.047657797389562606, 0.025679048802327527, -0.06137153590564494, -0.044637183405107986, 0.01356263672358338, -0.12469624407495772, -0.041279538500695344, -0.048520599162690095, -0.08873429041188503, -0.13832819758501533, -0.18452686196006285, -0.18912514800916025, 0.011793665187249594, -0.12555919203900479, -0.09446439661238677, -0.046886228213048484, -0.07667211428230454, -0.06625401911049206, -0.060713442341207555, 0.04262872135224614, 0.009129511013267259, 0.012904252342507791, 0.06057866880355989, -0.02504858989012244, -0.00526474258781886, 0.016000241158501047, 0.019954843801585322, 0.0030723190910385274, -0.02942066511934127, -0.0031887124756254616, -0.02909888503279644, -0.0002517459011373726, -0.038469380167237215, -0.0340995403809413, 0.007881422585745129, 0.02037602029718097, -0.02347923333403061, -0.014528815360517514, -0.022629467186423332, -0.019033940809677984, 0.006484787469564049, -0.0969095999186588, -0.0034988823772031654, -0.005443647581060952, -0.008355934814348894, 0.021733357108663847, 0.05571043140925481, -0.010413729145715409, 0.04995688247107145, -0.027547656543715823, -0.0062408448967951, 0.04019526445071787, 0.021903211120887254, 0.023864475891712405, 0.02359709392583662, 0.05051658286492196, 0.03875098961868826, 0.00723704097263885, 0.011663141126953342, -0.0223068051912881, 0.0693319670140257, -0.02987537180699491, 0.023857470197203128, -0.01978457509425091, 0.07937458873273814, 0.030124082079079885, 0.05590499553209269, 0.05472867869880394, 0.006075017489858318, 0.04386503004689544, -0.0430788782938151, 0.03742815145825404, -0.059595828127591635, -0.024638408664284177, -0.09685045393315303, -0.01917917122091332, 0.0003310116409504595, -0.007905174809213617, -0.01456145959041331, -0.023106276410827447, -0.04399390740812866, 0.0321539247762127, 0.032114717683660844], [0.01182557323490983, 0.028899412929108692, 0.009262197266532135, 0.024753311431833656, 0.04841161595340161, 0.07044963675166131, 0.04567695233015088, -0.011162789733116296, -0.03570338692009188, -0.04695629078773334, 0.04594808273282096, -0.03712650520871002, 0.011913564123897342, -0.04215567369462499, 0.041917579639054445, -0.05462498490869006, 0.004298071995314797, 0.091168809149503, 0.015563607754150874, 0.003378927681402471, -0.028416791404700742, 0.02877949985668584, -0.017943716143814323, -0.028806212410683516, 0.026148399299141815, 0.024884018312731966, -0.012655861004678193, 0.03429990305791753, -0.07349527688168951, -0.015312771014435898, -0.0366092874850913, 0.04832895728223464, 0.03173268254056111, -0.009814841753165167, 0.011702583190267108, 0.009889632684655114, 0.04554281001688848, 0.009353731057700775, -0.03297749124879864, 0.03628465885605643, 0.04488259289357425, -0.03464431128509188, 0.002301001385636362, 0.04021064890714634, 0.05651936531007877, -0.028628592275848536, -0.012242592548437875, 0.030409739015815646, -0.07100549585457143, 0.041175008494380716, -0.01044721401309513, 0.02666194714025263, 0.006951804916815622, -0.018691429252421583, -0.0041652052573238054, -0.02049798720434595, -0.03372263026392908, 0.005310437387424797, 0.010378986347943665, -0.0022796181305145594, -0.0104255943634656, -0.0068184086985351245, 0.008339454806822974, -0.028266033076157118, -0.03324585976675808, -0.04105319982349756, -0.029261244350605627, 0.049771550471256455, 0.01071862583260211, 0.06527903385626457, 0.0111547551385394, 0.0452552576474585, 0.03936567743523795, 0.06139612215101361, -0.017761273927914472, -0.043508545898615976, -0.0213422028083726, -0.028610159608288988, -0.08408873736355744, -0.04041642615068702, -0.027693667746338836, 0.022040786083565387, 0.005016286134083247, 0.01829997609867842, -0.02096344493257582, 0.0027249658887950443, 0.02362526343191165, -0.008237917843956518, 0.02909795530568106, 0.012421763461807522, 0.062344068596880416, 0.04076333370273164, 0.007201185825871146, 0.14186573418000123, 0.1571013850359485, 0.018842230285971966, 0.22108615592111638, 0.24543335288679563, 0.2155875611151695, 0.23035078898888495, 0.23328533243173016, 0.15733953519342242, 0.11161547852302127, -0.08789579360623787, -0.09825088248679481, -0.10092371937879724, -0.10601531106048695, -0.01777247064513799, 0.021588559228601607, -0.002910648423392354, 0.009365901928307987, 0.03839121043785958, -0.047644699561687494, -0.038479436658309024, 0.011939560512133011, -0.027854134788042415, 0.03632644097001541, 0.03643199887388289, -0.041806740856192265, 0.030492166560542877, 0.04660971679180734, 0.21590506929023778, 0.16157392539946577, 0.2671903865952108, 0.26588258303482537, 0.19168426513897655, 0.229184211784424, 0.18516872755909708, 0.08506134015683467, 0.0830492379038387, 0.09039523856796149, -0.0710510795961503, -0.08703719422010542, -0.14228027987379785, -0.10956574739132378, -0.04097452442322628, 0.04703949736903632, 0.023968637519289026, 0.01713132608064624, 0.036322882681400596, 0.07717683991201758, 0.008184551941852613, -0.0008570426851686397, -0.0649572506703888, -0.029833577137115274, -0.006447182096111928, -0.009428636612532315, 0.05639234130937933, 0.1380087906439554, 0.13900829168566428, 0.23713146184496275, 0.39542828813266007, 0.31472844560357494, 0.34119010564760804, 0.12195615100135852, 0.2759496479598031, 0.15223413158993776, 0.18581390965131467, 0.2740672681444846, 0.153812622419545, 0.06491244083659205, 0.07073141693379148, -0.04760777743717168, -0.15274935151285435, -0.0039696460210968685, 0.07980423048281249, 0.008566644164701511, -0.011461178877147146, 0.017566211899427846, -0.01804720211978755, -0.009377848118081084, 0.01841155617575121, -0.04333044185925264, -0.13959755216589545, -0.08682228919953372, -0.019161723167332854, 0.13478465177595123, 0.15547792206390482, 0.1899634651281515, 0.20354294836679532, 0.24425790816036527, 0.4066160338660093, 0.3689136708379936, 0.6431002373137562, 0.5191239966335248, 0.5323153674597066, 0.4370495938281996, 0.27131405939837905, 0.08839802784768613, 0.025796862520485818, -0.09006758492061014, -0.16066422859159957, -0.052907681237160095, 0.047205238114426215, -0.02627559160227933, -0.03819824713617524, 0.02241763969057984, -0.004945040072904747, 0.0447465172982754, 0.05187203392415851, -0.0524323754921061, -0.022788781570255906, -0.021795460165246836, -0.07448670986559526, -0.028348515529265286, -0.03063692669463096, -0.056523789344643506, 0.01082344474760549, 0.09455060596316524, 0.42074472357807624, 0.5701274934088487, 0.7920350234699343, 0.8753345883462033, 0.4844412652835054, 0.475349688855659, 0.15652898746363578, 0.0790222554267364, -0.04757770324748922, -0.06005936210941764, -0.1384937088984606, -0.021166677831621034, 0.026131187585145092, 0.024373159623243077, -0.00650100231098189, 0.009038156295653358, -0.05939681037423143, -0.05160524279293792, -0.043814534884808805, -0.08019925115284908, -0.02899149207556125, 0.004681928801036934, -0.13349923015635823, -0.16335044850746772, -0.15424660535160242, -0.24355540810759554, -0.12499075552654275, -0.004852962403893725, 0.23291291777798548, 0.4298628812338442, 0.4019530208007103, 0.33805900169677283, 0.1707278207475395, 0.20531501198399701, 0.24321445291637142, 0.143578387790386, 0.07655277918483216, 0.04215632010098832, 0.05899929997418467, 0.055259606747250355, -0.012017860772087009, -0.03926203467414185, 0.025312240169387816, 0.026680447582917557, 0.06354358244848862, 0.03972771749571538, -0.03524689780871948, -0.10700847185344979, -0.07074606747963483, -0.02840343159537123, -0.1140454736330382, -0.1955762804956099, -0.1609548736853569, -0.08346177145088761, -0.23276417245797276, -0.1399523348717913, -0.41564095553062025, -0.31925683105941094, -0.42635730509149106, -0.34317552368293847, -0.017753640554658407, 0.2169990814110691, 0.2706950903281024, 0.29665364039938896, 0.013470559602297167, 0.08646211575059053, 0.081393380372393, 0.04957249092884577, -0.004100487787792698, 0.02808116920288729, 0.0382146205090857, 0.05307910138980898, 0.030973840130475924, -0.005192947858439897, 0.025854872931693997, -0.04326063048674531, -0.04183655160980586, 0.005525803592015842, -0.09101270272175417, -0.143569138254156, -0.1724812038177759, -0.13186056204653912, -0.3126956563937696, -0.3935932917181203, -0.8809845083478044, -0.6935466756338785, -0.6818710390259212, -0.2909136644645641, -0.07559769984556294, 0.11826531822178743, 0.10579645153037709, 0.20003968438826367, 0.10575562029703715, 0.1011943663857364, 0.04087621758968576, -0.023444358401317724, -0.025855141454385847, -0.004154825397298574, 0.018227077204354902, 0.017254224557899222, 0.0027734652953177058, -0.00807375537706599, 0.019360181192762147, 0.006533284605648563, 0.04658748881366683, 0.016601787082495986, -0.17680638319355793, -0.12641429160957218, -0.3873661722517564, -0.5079808403415137, -0.35223627031763627, -0.4675417269026632, -0.5171972776478363, -0.32422979727732765, -0.08606236663836087, 0.06860253722431892, -0.0023645913319652054, -0.019586432571028017, 0.20803168596245047, 0.2826866757435843, 0.17051334240673238, 0.10665066514129966, 0.058184212272729734, 0.04180828719907822, 0.03740509107130768, 0.02661616759543947, -0.03352651218612225, -0.012744062217725786, -0.007071234198730365, -0.0005582190811421857, 0.05285574805008421, 0.0476351655519428, 0.029344233436728175, -0.266597557912587, -0.4580101200208263, -0.26448700992319674, -0.2575655008712478, -0.3815102123374177, -0.35396150699995765, -0.41205475884944254, -0.09532515346312907, 0.11963343466426755, 0.2432446579502382, -0.047590906971961666, -0.06631804779711097, -0.12182985439871354, 0.2456864329226418, 0.22461770021256525, 0.13206775849930327, -0.09074316914746876, -0.061060333728071875, -0.00233764366786749, 0.038291144384378105, -0.021620536067694426, -5.930189312250862e-05, 0.009236100298395007, -0.11994711979650582, -0.0006406126116286457, 0.08949001917511776, 0.039100383352738584, -0.16481795732718943, -0.37557376684782706, -0.1987008948996984, -0.2096056410781467, -0.11948497667591358, -0.14458507445209426, -0.06613868738843239, -0.019874578235248724, 0.3008323095461561, 0.28354289848562225, 0.0642464262537605, -0.06597178222508923, -0.03200391861730442, 0.00474967911079398, 0.032335173860886454, 0.21555515121125132, 0.058228059284351166, -0.14929277242446165, -0.26396219544797417, -0.1701091462215954, 0.013025113838474768, 0.007010622623486192, -0.01034893653407008, -0.0533506231019198, 0.008032261606101659, 0.044540788234860254, -0.0047455831040964696, -0.018680601967736927, -0.14277031499882537, -0.12133972546390578, -0.03133240597596577, -0.0856351790560894, -0.10532634730976251, -0.04948081963898096, -0.011115897805226928, -0.15355175814205266, 0.25026630685057394, 0.24965028269959263, 0.0001890210995499174, 0.006948517350163667, -0.0878844823531339, -0.07287083431521166, -0.12627576532796841, -0.052328826497900306, -0.043699395040675784, -0.25283903662635204, -0.36371037167692755, -0.23186321590300063, -0.031189717670901257, 0.03765715458227788, 0.08982889412668199, -0.021757426835458116, 0.005416749475241687, 0.03908830138144177, 0.02788169661095574, 0.08247007454980375, -0.007470714585509559, -0.014679401516721936, -0.03952868097806437, -0.042036061232837235, 0.008337678283948675, 0.05855947169082806, -0.11018439759543268, -0.41219827017477373, 0.09383021368207217, 0.17635234236124114, 0.1752778131682781, 0.05210292648171324, 0.09983430657984668, 0.04816227985777872, -0.013982977630300774, -0.22846675081602044, -0.2192124549105661, -0.338715025683245, -0.3206957324026272, -0.2751491078022021, -0.017118544821781236, 0.07464362377933287, 0.03338530348948569, -0.021463219806190162, 0.03245732388890077, -0.05812477358186214, 0.06995696708058298, 0.22342796559652814, 0.09363935223529486, -0.07578135488489604, -0.2073944035959042, -0.07782815460784241, -0.026034469393663995, 0.03866724586157122, -0.2098265615769014, -0.30429828558904953, 0.01724088838760536, 0.10276459054526857, 0.09860593924523799, 0.014249528121230823, 0.14182071733194665, -0.032527764683789706, -0.26276016705369215, -0.22285255987546396, -0.16625143279089769, -0.186214596049, -0.19048715331877428, -0.1735864175104556, 0.04320465085907422, 0.06062399688288859, 0.006123321566335508, -0.038969038508236596, 0.050602243135000204, 0.06737935154774895, 0.11733304703592101, 0.27794211372397076, 0.13915822862048666, -0.10378818392725417, -0.21978130933612477, -0.1747802577322054, -0.12963893713009966, -0.10721866970456458, -0.25708950851282913, -0.18856916112394456, -0.1166965126498304, -0.12338501614165535, 0.07405966378498058, -0.11995587937723515, -0.1367462946465914, -0.17726820274085847, -0.19417114945375077, -0.11930954193956235, -0.11108975226725964, -0.0808478943419789, -0.1187818215936073, -0.06131975384591936, 0.20362021194601532, -0.028504145696849583, 0.040474228873960745, 0.054794529165119975, 0.0034279520083846096, 0.04665635125848212, 0.07393572716272973, 0.30594769883346357, 0.2917454489552783, 0.11173984413863604, -0.21179947585830033, -0.371108707257962, -0.2621381045942932, -0.1994475973500189, -0.2533905025677553, -0.3704740237399316, -0.24803997917774356, -0.13048023942442036, -0.0648119709448647, -0.11530275437309369, -0.060763607935034596, -0.12184463263838718, 0.1425070238352706, 0.07402127647153828, -0.005870196111869081, 0.20855997208184196, 0.130957439640245, 0.22108810171090393, 0.15902134505013776, -0.019042853445250658, -0.015568657651576185, 0.040329070347779744, 0.03523929440452936, 0.012017124785207165, -0.009129817208592003, 0.2490824039773343, 0.28628203030447064, 0.1931696300296747, -0.008457682335275003, -0.1788229136228854, -0.11894940945667544, -0.11064682533920502, -0.20004896981412856, -0.16419589354921915, -0.02035542114523184, -0.027008454337664866, -0.02803384604719929, 0.07909827754046675, 0.14863004284804038, -0.0431854254271699, 0.1180510391393423, 0.15214178867974834, 0.08923059154312676, 0.17230813666991915, 0.10977428151117327, 0.09239256620038565, 0.16932105196467673, 0.04812790840616425, 0.03810310820050576, -0.006912742373959765, -0.04795447100127476, 0.0032296449588670667, 0.15029584074272773, 0.2867947382541632, 0.33969379105442093, 0.25318356836479916, 0.16946881525045113, 0.12782026414796302, 0.01853994088942143, 0.0499989172112446, 0.12769348347726012, -0.0005816158385866722, 0.15758053913065828, -0.005669258619208022, 0.14035641290661918, 0.17269568321319317, 0.23596690749896806, -0.06776641489762472, 0.13225951727184374, 0.17895503464875287, 0.1335841559801986, 0.10339390046620396, 0.00950111359007537, 0.04340878502687342, 0.02336540579567196, -0.006814688632740473, -0.04372806366535445, -0.016171865266643912, 0.00228986210477264, 0.010909834927989736, 0.06779297797572344, 0.20299318500194585, 0.2271892992035109, 0.2329492096423792, 0.17286904119497903, 0.038680422065277144, 0.14547863942261507, -0.003489967022512893, -0.03710785968987035, -0.13683786427401284, -0.09629799110340956, 0.03874575834589645, 0.025067388703560765, 0.1898534096577994, 0.032527542279018835, -0.08323075646136247, 0.09302300534242716, 0.1691535012797125, 0.22445066448348353, 0.10063379690388252, 0.17664746861895358, 0.040503232825685, -0.0031391577450052594, 0.014755839740455485, 0.03223485906403346, -0.015113795287474828, 0.0028309050659872897, -0.00949920545113554, 0.04558473209048088, 0.09156155935459842, 0.010337566710944938, 0.035067968533710775, 0.1006385898206996, 0.08428619144912364, 0.029362811498395064, -0.0022087128836888116, 0.04192593779431558, -0.0007600781823930517, -0.007078559401158347, 0.046782459654385634, -0.11888161298730977, -0.12178029362077783, -0.034059466884875024, -0.0020841498855006194, 0.044583013062617596, 0.08030831771861992, 0.07776188831642776, 0.040562872423223886, 0.11561760390400427, 0.09255822281880897, 0.04405834636377599, 0.06689664170086136, -0.022062171171491732, -0.02772115840542621, 0.030444682914469445, 0.0891578996890858, 0.01865767854076288, 0.002710496644890555, -0.08485378898485063, -0.08494973336875289, -0.01613861913743615, -0.01442151547301524, -0.12340837656645068, -0.1107820617865843, 0.05053429137600279, 0.09388158632248805, 0.03282481105054149, 0.025939235399817896, -0.04846248625656248, -0.0630823723363113, 0.030330537411099426, 0.006913290791993805, 0.05579044881874937, 0.058154659617535034, 0.1549915305513482, 0.09364343801419082, 0.08664204027148298, 0.0772182106018848, -0.038260239494469765, -0.023572706412717723, 0.04680900627222277, 0.016640878495205427, -0.028753112414588614, 0.041160190825075944, -0.08698255779952974, -0.08116057737676897, -0.09756229233497435, -0.06552226995599927, 0.008675878647563992, 0.015711050819211914, -0.08037098973399037, -0.014557755633360295, -0.00927169561375039, 0.13874182612302433, -0.022886982481556226, 0.010705057045275858, 0.08988456253106242, 0.09162717594854891, 0.0757230376916113, 0.1505064547439027, 0.05297459814724275, 0.07923794601351254, 0.02541070653277056, 0.04452034953358022, 0.002916876331448646, 0.06490853935566548, -0.07021738027522882, -0.030143189142771146, 0.029642450400064285, -0.011418660001627334, 0.013070637467749729, 0.004631634825066015, -0.0596125682297432, 0.0027667086215839424, -0.016064737883735893, 0.020258745747921702, -0.015436881773526312, -0.014795508626197057, -0.06268885988867294, 0.0577565817463377, 0.05533115879164224, 0.06179469569910614, 0.0766502271417565, 0.019029744192629216, 0.05708565790612437, 0.07772855709269495, 0.0459323452405053, 0.00818316628399285, 0.10334895658114883, 0.1101321603475261, 0.0775204286756965, 0.008802673172611408, -0.03605276705390277, 0.028345265086896443, 0.03212852919344938, -0.05609607573979219, -0.058792267483597664, -0.05033193611167693, 0.006259636471991674, -0.0024313589908172045, -0.008386519930432957, 0.04257480837544164, -0.01592990944636277, 0.0676975353884961, 0.04368533804271345, 0.07762916290346153, 0.10257160774914566, 0.11857424223845797, 0.13257567778148246, 0.20508610167017782, 0.20264347935060467, 0.19937446302349005, 0.07054633577419005, 0.11471393572068779, 0.09574477094588889, 0.11606390689484508, 0.06738430495262833, 0.042207379973822116, -0.04836091065922348, -0.04153121766086897, -0.02364072372998993, -0.03368988100408346, 0.022618975183420938, -0.03826147159140447, -0.01679224573516969, -0.06976719405603468, -0.05344247074269258, 0.028912302867744998, -0.026181668122755238, 0.052251433342132524, 0.037368553182066104, -0.008368354258551019, -0.06788332977598668, 0.006172039505075012, 0.014935906189001901, 0.009657769691636571, 0.024516526248839675, 0.06529051954469306, 0.03612621062247851, 0.026434820545488444, 0.0364323759213814, 0.08145390474904253, 0.014661191349887873, -0.0009010457511818217, 0.005304837532635105, -0.025087342306022158, 0.030992571218669687, -0.01919968479705781, -0.0671957957225946, 0.05488888168280565, -0.054580002543069606, -0.07564636785317931, -0.02373024840184077], [0.0002015749018875434, -0.03902056765477302, -0.0036359937274286934, -0.03088371137228041, 0.027074713235324954, -0.023489420136577937, 0.04089990087038321, -0.02075017585616166, -0.0055351300060269, -0.017139846958632722, -0.07133001059884929, -0.0033253616419973426, -0.013348385852890665, 0.030438949611030806, -0.03221282454562977, -0.011279890007971133, -0.04402995971790064, -0.0011016413125632316, -0.031226569275018264, -0.06277602315185601, 0.007742184921382245, -0.008966086032950153, -0.0241934353208303, 0.0027778683748948584, 0.023138507738990118, 0.03080707048342594, 0.008159824240980397, -0.05463266448186693, 0.03576892810068405, 0.007170831400537645, -0.0038516752230606166, -0.036680993671001874, 0.02631177611211958, -0.06821550388823303, 0.030111599048959166, 0.05235304274854284, -0.025422161738707642, 0.0070845633714452265, -0.021570860576104117, 0.03968038634740912, -0.005341162839698003, 0.008533378608906367, 0.0046369540096851975, -0.00021733761340738002, 0.006479625860286747, 0.038206477554330556, -0.028734750275833314, 0.0620065116786945, -0.0001773860837794786, -0.05020698561291053, 0.010895214499777657, -0.010436442428012744, -0.01062324275543986, 0.05394578392437944, 0.022938434915134056, 0.00808490839981472, -0.0340386285527492, -0.010246175448570326, -0.055172502789695814, 0.009756370241378105, 0.03396079037626058, -0.053231118144343254, 0.023772526435025455, 0.06694484012314032, -0.06475197712975887, 0.001115398010782055, -0.023750908722341663, -0.020810988982505396, -0.028629627921954965, -0.054717701374639334, 0.03708374586648271, -0.04844598997132645, -0.0005780393909175268, 0.06769868781148684, 0.07939611691590219, 0.04183108279645601, 0.02931780662024538, 0.003052001926816334, 0.0708495198540926, 0.007354928670376541, -0.006939665881410689, -0.0335102338339967, 0.08644244819135372, 0.06923159401210506, 0.018773695415853713, 0.028419943700226925, 0.05852241996636158, -0.03857213146014001, -0.09988329360996216, -0.0010232244399434886, 0.014393048906875611, -0.020849187313175185, -0.05695496140698464, -0.04338963379508216, -0.013518176930038782, 0.03988862904063092, -0.012406794713864995, -0.009587938219677074, -0.012338345373327684, 0.029423537786027354, -0.08029819542865062, 0.04859370136119923, 0.11973931634418256, 0.14584938558188507, 0.1328194847318491, 0.07817940691047397, 0.06937047197121742, 0.06460945357467335, 0.043476959548672894, -0.022964834479230287, -0.008992990523195854, 0.0071687091818885326, 0.017713533519997837, 0.0718303797413241, 0.03275499517308771, -0.033475118202907, 0.0563973537974731, 0.003229677409040088, -0.019059935033168485, 0.01272323081302043, -0.06757237700959773, -0.08779169524650586, -0.055530557263067715, -0.02326492576182401, 0.05358669917966261, 0.002403811834181178, 0.07142459020413489, 0.0127569477464786, -0.05769469114450622, -0.08809460439385836, -0.04148561979461354, 0.042335812151779624, 0.10400968171833931, 0.14326944908795256, 0.1675186150942784, 0.11599973072488987, 0.07813987056127465, 0.0906996289548341, 0.0032366503890299643, -0.0464352687716808, 0.055346207297502566, 0.001647408236722895, -0.018861478370028616, 0.04115809164434551, 0.05470528106990499, 0.016258576627149156, -0.01890411309127263, 0.006684889937615028, 0.06542454457180143, 0.0742319013170386, 0.01681243167340436, -0.032892705182232924, -0.008935594406318411, -0.04781122702822286, 0.024229073098963987, -0.030040553247419097, -0.10587172788424278, -0.06975248647133384, -0.05985892057875319, -0.05418857345785027, -0.02418992588955959, -0.02726354629906807, 0.01145285904242729, 0.1342339481095531, 0.03848116441418467, 0.023103446188130154, 0.06202135581127787, 0.02660022312550115, -0.06519414281404777, 0.03510977840439322, 0.05700770964530401, -0.0029630292194857627, 0.018642617138123093, -0.01100549203846639, 0.09041611073983341, 0.16496145399414253, 0.14412050311333624, 0.14153382364786157, 0.06130439013057913, 0.08879053892600468, 0.0829407911515921, -0.030997906822582716, 0.07983098411269172, 0.04953638691025869, -0.06442857773695, -0.11622048753464881, -0.0969172566972239, 0.01285694595043005, -0.042498405831758825, -0.09640596521290767, -0.01271275790449767, 0.14273428179231568, 0.10225258512186437, 0.07676366801305425, -0.019321322264848215, 0.035543769700340955, 0.046714576062432275, -0.0768262336862097, 0.0018342990324988545, -0.035228378541462255, 0.03279968174651233, 0.06597753580653211, 0.12664649916706167, 0.21936598946283295, -0.0014912077002751474, 0.03939737170679282, 0.006918069918620865, -0.11954716294634843, 0.03298408965754354, 0.020096281946404393, 0.10303378045518244, 0.1624348204423019, -0.02754858790619075, -0.02576759330972549, -0.07098350713191691, -0.0863876699512123, -0.02349964082561729, -0.12225629260205434, -0.09821933266913936, 0.14653399817041107, 0.2142113771087246, 0.07385290079239015, 0.0034894300378060035, -0.033736424977407586, -0.013353176225784765, -0.03321936597046247, -0.0013994176892647657, 0.10850644126358688, -0.017891089330772485, 0.1189818431296208, 0.09325541916529875, -0.03555728990713457, -0.06167788002309989, -0.12351833016202904, -0.3004610425159527, -0.21973030728481216, -0.10848960767972546, 0.08833179486601901, 0.13728286104152837, 0.14983172431790154, 0.1333181488300588, 0.04301304349115944, 0.07064698382718435, -0.03519614376409187, -0.01953027263824469, -0.009677726666589817, -0.017463848186069865, 0.13570226079961584, 0.2370801224932946, 0.10390667320277132, 0.00012286378485695446, -0.04187765230345556, -0.010123202566010979, -0.012142109812422096, 0.023639573477579476, 0.07600743926000265, 0.050672672695055765, -0.035525383827221674, -0.005821911279602136, -0.06297979314472692, -0.06365092679528886, -0.2302604318833203, -0.09961267505207241, -0.11227447967595036, -0.0313550584811423, 0.07449762327199888, 0.15382218459450775, 0.04567971771132393, 0.06937940204253248, 0.17938197935966751, -0.029542553946509835, 0.15119887440862712, 0.06611381624353244, -0.0034697622185920728, -0.033630569063547014, 0.04096508899863887, 0.1584985998999367, 0.07091732035778052, 0.07020235532090364, -0.009501099011588356, 0.012802699463105457, 0.0034350600621023265, -0.0182292649250768, 0.027391958707101087, 0.05096408508063825, -0.016064415247596695, -0.07181983329812573, -0.043650920147285235, -0.09978749147372393, -0.09120502102750451, -0.041803214109840114, 0.002314437672862262, 0.16223000524156372, 0.29254212539229657, 0.09057845311229035, 0.03754303697431267, 0.09775109053625977, 0.09248063957185852, 0.03922657490084928, 0.20774029710821762, 0.20240320569384074, 0.09265941985307868, 0.04785247745027409, 0.008827461272299239, 0.08409616342683711, -0.0034487906727552428, -0.021103106301019307, -0.06524084677885258, 0.05159867489357346, -0.011634438043643133, 0.014342575466476824, 0.007912842590084627, 0.06504433235842857, 0.0458694853558104, 0.04901095188361689, 0.14480394053669204, 0.1261894382651307, 0.19360684464547062, 0.33376952049208736, 0.34611215909337567, 0.2898270385806805, 0.35304862803687787, 0.14136935091233532, 0.0498313403276672, 0.08044313685690749, 0.16038149220839082, 0.07538433628876136, 0.1686128723066781, 0.16278843185584846, -0.0105049350859125, 0.030651088088989194, 0.11859836684925004, 0.10542696061521135, 0.05315517984926758, -0.021155233540840607, -0.022533155653872497, 0.001401527143562674, 0.0261387501059542, -0.009676785862128345, 0.04827517509941517, 0.11810005837914224, 0.0710638239766586, 0.2535590893882035, 0.40369740882457034, 0.3152097709676426, 0.5304728555808899, 0.5853807808063688, 0.4876697571302524, 0.38268097832902004, 0.2511994977069663, 0.2185608163881864, 0.125592626056332, 0.22377782028195067, 0.21370730483297865, 0.14927109304223113, 0.1438773974903687, 0.11037551465812898, 0.04615040725931954, 0.049757006958738366, 0.1409877640047119, 0.0036083190117089325, -0.06731239185979399, -0.029774714803188197, 0.09584551298896134, -0.02621564928561477, -0.026290583934399814, 0.009114792276302531, 0.07835006903101444, 0.12396659494682968, 0.3210122782578188, 0.381650401559048, 0.35765877719146394, 0.41761307824649757, 0.4325901356650926, 0.2568182649164219, 0.10048684360755286, -0.011630829589024725, -0.0816923457370029, 0.029612337208525234, 0.21966010014413773, 0.19473495121583664, 0.22072924755663892, 0.2413060658067883, 0.04440129459573348, 0.041448925072319016, -0.041627194241368064, -0.015213094096730365, -0.005039314531600836, -0.034954241976268056, -0.14654758449397304, -0.17024984001965132, -0.028504104993652874, 0.005239806896625279, -0.046251187032583976, -0.015717666226704632, 0.09617305536701733, 0.044446602484858905, 0.1468766540490817, 0.16520508989632618, 0.15912238717017985, 0.17143922399356504, -0.04922243568015653, -0.020022594898833707, -0.15302440806432305, -0.242819614768545, -0.1709765162299353, 0.003998091939159868, 0.22500752620630848, 0.13767358580962882, 0.3583713687929857, 0.203175614660624, 0.0900361906894784, -0.004259519264147528, -0.1048725491232481, -0.08043553719748024, -0.11837109179803845, -0.07048923009544247, -0.036614781110898185, -0.1331457105453196, 0.03838917381571187, -0.04074784470271604, 0.04007554196469163, 0.08362350275789969, -0.0517404066961454, 0.009253958344719305, -0.02125001298255885, 0.06791219164903456, 0.09250248234087348, -0.05432348238135363, -0.2131580892185283, -0.2588092049917823, -0.20196072923346722, -0.12522331255655705, -0.28345064221207, -0.017543430387044007, 0.22323087131583078, 0.23134146790295262, 0.2734219252566504, 0.10427501311149513, 0.003311561071530521, -0.08858168689818306, -0.1444997702336545, -0.06311784341055383, -0.10495080985904717, -0.2774320333461718, -0.26354510352163696, -0.16066584727886218, 0.004489661546132233, 0.05667255880977629, -0.02082667267054078, -0.0473220059937142, -0.07627672997423689, -0.10404183988287584, -0.025584881587409476, -0.014104019973785133, -0.016484695667776345, -0.10944576270121548, -0.14267953723761792, -0.16329142311138706, -0.1927412240547537, -0.17689071468355014, -0.26352828450225374, 0.09125896941798048, 0.3663509158913863, 0.21460923400113932, 0.05517028333889883, -0.061756556047332725, -0.19788248254769075, -0.11000962902127381, -0.16501965663074744, -0.21372839621758255, -0.17978843171343178, -0.16715626406970244, -0.2321484830619717, -0.12175920085335322, -0.049008420026669365, 0.04968385392364925, 0.03578019777221662, -0.007439629550452519, 0.036797403315969424, -0.037777614873422564, -0.03781001025342641, 0.03080032315771735, 0.025230158980973538, -0.04497353017391824, -0.13769180076861237, -0.17350107986606644, -0.045653601856647213, -0.14846320556609935, -0.08087312552684581, 0.17334359128630678, 0.22812403976898793, 0.24039764546255038, -0.004866766968230259, 0.047933923761943796, 0.07311725846516713, 0.07707112027412331, 0.018116261246238833, -0.10287423668235463, -0.054646700705674366, -0.19346873178023183, -0.2721664025298771, -0.06782262956633205, 0.025132172173578472, -0.06044366176083452, -0.054153599902003316, 0.027681815486824725, -0.027465231928428424, -0.09840515688450684, -0.05735770860133754, 0.019238991915918355, -0.0937805086973562, -0.10915157758825082, -0.14814520565248154, -0.12227753973744523, -0.10351647042743638, -0.11984221031512433, 0.0856527633881714, 0.27656303023946177, 0.33144579451537315, -0.03516999950375109, -0.07994965026038564, 0.024783285121391215, 0.10822073402304096, 0.10448636770613487, 0.07996133738218096, -0.13937178275311837, -0.1434246490439588, -0.13214636251595274, -0.1822412258386949, -0.05802809011478095, -0.01792966969569231, 0.067854449993963, 0.014776751025580685, 0.06360187491786824, 0.05500507866530972, -0.021256712820657598, 0.08833318290860989, -0.01943590814574507, -0.13422174452354896, -0.16795546610979975, -0.1031780238912164, -0.10731064307897523, -0.10410501691945025, 0.015172980517521284, 0.15190820233644398, 0.3594986405933715, 0.08938778260616176, -0.04742539049309267, -0.08813895585246004, 0.04375718761945919, 0.11248839192905427, 0.060221448426417246, -0.00897760284758588, 0.018066556238880954, -0.10276373201462857, -0.11224040907930645, -0.11964070539824523, -0.04426753752338212, 0.01229723212952576, 0.04659904873186028, 0.015469367824893145, -0.013722632604620831, -0.02661017562295067, -0.10592521623031831, -0.05479757402635164, 0.022172787631185797, -0.14921122205681298, -0.16754272623702302, -0.0014691066854384837, -0.07808826284044634, -0.060743550864215214, 0.0980049901540284, 0.31190169076660096, 0.20385506546928944, 0.048855361216130065, -0.03371638104195156, 0.06416212295976735, 0.1454324621489099, 0.0952978275273049, 0.1858249207547941, 0.23365626343345994, 0.14017522470765462, -0.06345360924427186, -0.11021493375630093, -0.08419584863056562, -0.04007602235784058, 0.016898710871720502, 0.005315476120911993, -0.01583752550759928, 0.0634761226549158, -0.11626261084769773, -0.06321755575966698, -0.13525753960705114, -0.15268684142023575, -0.04981781503848946, -0.12571359283572414, 0.026968740813597646, 0.12106378929939188, 0.18381930728316676, 0.14072476719363583, 0.09044683651712268, 0.07290083686627293, -0.023266918413978703, -0.03092941018134882, 0.02335804161531492, 0.11317159946857015, 0.12299053067187785, 0.24375383974564888, 0.23643709549781391, 0.11993834075799152, -0.04192370702050293, -0.06046144537154918, -0.01308048594113105, -0.032255520935142674, 0.011814998724293254, -0.017333071728893538, 0.08353422814503773, -0.0029918270801585793, -0.03054939895861916, -0.165618165578573, -0.25758032255098984, -0.21643405757419854, -0.23462236183706026, -0.19220305624967582, -0.11542819901580044, 0.052965720148409154, -0.03924955532084907, 0.11100581857502362, 0.04627140980095357, -0.1113303962956217, 0.03829375253793201, -0.039709168727061726, -0.1364252012888043, 0.019058357916657942, -0.04547867108293417, 0.08608955662654262, 0.06825785227311922, 0.018595271580833392, -0.0290229232230662, -0.059697882306090584, 0.02891207352548799, -0.03570486887981934, 0.03390819869966576, -0.00895797571781872, 0.01646387643831292, -0.0576878062790781, -0.06845716817649075, -0.044273562537613574, -0.16840548674611708, -0.13794826665683516, -0.09876101040505986, -0.039635240661979335, -0.031776653855127825, -0.10273812970394161, -0.0961151952249352, -0.05825666675712471, 0.08233475984728401, 0.054031665510323276, 0.011875609255862564, -0.1404356322392068, -0.06927989430118468, -0.08378297153421133, -0.04407854589834778, 0.14745545047648861, 0.10295741507620142, -0.007447768755955915, 0.04250740287461472, -0.05555412000839437, 0.00849026919024707, 0.02420962405387466, 0.015515604269850805, -0.054117494622150875, 0.054699585493346525, 0.04447329412888766, 0.018658824188980273, 0.02544664928675574, -0.05091157280885142, 0.17830581368202383, 0.06360726831850565, 0.13737115278654122, 0.09402506648115674, 0.18458545223817752, 0.042258593000656895, -0.019732982803612267, 0.0741579618962855, 0.09143099239744616, 0.06523761372660002, 0.05061268993218051, 0.10158993771007291, 0.015986111921694066, -0.012049454930170615, 0.11558920204607337, 0.05026995679325691, -0.018148899691939512, -0.03829088339583233, -0.03821304824608756, 0.03623690227925899, -0.03807372631788006, -0.0169528159346426, 0.0014547167609834939, 0.015814132737472484, 